tree
version=v4
num_class=1
num_tree_per_iteration=1
label_index=0
max_feature_idx=2823
objective=binary sigmoid:1
feature_names=Column_0 Column_1 Column_2 Column_3 Column_4 Column_5 Column_6 Column_7 Column_8 Column_9 Column_10 Column_11 Column_12 Column_13 Column_14 Column_15 Column_16 Column_17 Column_18 Column_19 Column_20 Column_21 Column_22 Column_23 Column_24 Column_25 Column_26 Column_27 Column_28 Column_29 Column_30 Column_31 Column_32 Column_33 Column_34 Column_35 Column_36 Column_37 Column_38 Column_39 Column_40 Column_41 Column_42 Column_43 Column_44 Column_45 Column_46 Column_47 Column_48 Column_49 Column_50 Column_51 Column_52 Column_53 Column_54 Column_55 Column_56 Column_57 Column_58 Column_59 Column_60 Column_61 Column_62 Column_63 Column_64 Column_65 Column_66 Column_67 Column_68 Column_69 Column_70 Column_71 Column_72 Column_73 Column_74 Column_75 Column_76 Column_77 Column_78 Column_79 Column_80 Column_81 Column_82 Column_83 Column_84 Column_85 Column_86 Column_87 Column_88 Column_89 Column_90 Column_91 Column_92 Column_93 Column_94 Column_95 Column_96 Column_97 Column_98 Column_99 Column_100 Column_101 Column_102 Column_103 Column_104 Column_105 Column_106 Column_107 Column_108 Column_109 Column_110 Column_111 Column_112 Column_113 Column_114 Column_115 Column_116 Column_117 Column_118 Column_119 Column_120 Column_121 Column_122 Column_123 Column_124 Column_125 Column_126 Column_127 Column_128 Column_129 Column_130 Column_131 Column_132 Column_133 Column_134 Column_135 Column_136 Column_137 Column_138 Column_139 Column_140 Column_141 Column_142 Column_143 Column_144 Column_145 Column_146 Column_147 Column_148 Column_149 Column_150 Column_151 Column_152 Column_153 Column_154 Column_155 Column_156 Column_157 Column_158 Column_159 Column_160 Column_161 Column_162 Column_163 Column_164 Column_165 Column_166 Column_167 Column_168 Column_169 Column_170 Column_171 Column_172 Column_173 Column_174 Column_175 Column_176 Column_177 Column_178 Column_179 Column_180 Column_181 Column_182 Column_183 Column_184 Column_185 Column_186 Column_187 Column_188 Column_189 Column_190 Column_191 Column_192 Column_193 Column_194 Column_195 Column_196 Column_197 Column_198 Column_199 Column_200 Column_201 Column_202 Column_203 Column_204 Column_205 Column_206 Column_207 Column_208 Column_209 Column_210 Column_211 Column_212 Column_213 Column_214 Column_215 Column_216 Column_217 Column_218 Column_219 Column_220 Column_221 Column_222 Column_223 Column_224 Column_225 Column_226 Column_227 Column_228 Column_229 Column_230 Column_231 Column_232 Column_233 Column_234 Column_235 Column_236 Column_237 Column_238 Column_239 Column_240 Column_241 Column_242 Column_243 Column_244 Column_245 Column_246 Column_247 Column_248 Column_249 Column_250 Column_251 Column_252 Column_253 Column_254 Column_255 Column_256 Column_257 Column_258 Column_259 Column_260 Column_261 Column_262 Column_263 Column_264 Column_265 Column_266 Column_267 Column_268 Column_269 Column_270 Column_271 Column_272 Column_273 Column_274 Column_275 Column_276 Column_277 Column_278 Column_279 Column_280 Column_281 Column_282 Column_283 Column_284 Column_285 Column_286 Column_287 Column_288 Column_289 Column_290 Column_291 Column_292 Column_293 Column_294 Column_295 Column_296 Column_297 Column_298 Column_299 Column_300 Column_301 Column_302 Column_303 Column_304 Column_305 Column_306 Column_307 Column_308 Column_309 Column_310 Column_311 Column_312 Column_313 Column_314 Column_315 Column_316 Column_317 Column_318 Column_319 Column_320 Column_321 Column_322 Column_323 Column_324 Column_325 Column_326 Column_327 Column_328 Column_329 Column_330 Column_331 Column_332 Column_333 Column_334 Column_335 Column_336 Column_337 Column_338 Column_339 Column_340 Column_341 Column_342 Column_343 Column_344 Column_345 Column_346 Column_347 Column_348 Column_349 Column_350 Column_351 Column_352 Column_353 Column_354 Column_355 Column_356 Column_357 Column_358 Column_359 Column_360 Column_361 Column_362 Column_363 Column_364 Column_365 Column_366 Column_367 Column_368 Column_369 Column_370 Column_371 Column_372 Column_373 Column_374 Column_375 Column_376 Column_377 Column_378 Column_379 Column_380 Column_381 Column_382 Column_383 Column_384 Column_385 Column_386 Column_387 Column_388 Column_389 Column_390 Column_391 Column_392 Column_393 Column_394 Column_395 Column_396 Column_397 Column_398 Column_399 Column_400 Column_401 Column_402 Column_403 Column_404 Column_405 Column_406 Column_407 Column_408 Column_409 Column_410 Column_411 Column_412 Column_413 Column_414 Column_415 Column_416 Column_417 Column_418 Column_419 Column_420 Column_421 Column_422 Column_423 Column_424 Column_425 Column_426 Column_427 Column_428 Column_429 Column_430 Column_431 Column_432 Column_433 Column_434 Column_435 Column_436 Column_437 Column_438 Column_439 Column_440 Column_441 Column_442 Column_443 Column_444 Column_445 Column_446 Column_447 Column_448 Column_449 Column_450 Column_451 Column_452 Column_453 Column_454 Column_455 Column_456 Column_457 Column_458 Column_459 Column_460 Column_461 Column_462 Column_463 Column_464 Column_465 Column_466 Column_467 Column_468 Column_469 Column_470 Column_471 Column_472 Column_473 Column_474 Column_475 Column_476 Column_477 Column_478 Column_479 Column_480 Column_481 Column_482 Column_483 Column_484 Column_485 Column_486 Column_487 Column_488 Column_489 Column_490 Column_491 Column_492 Column_493 Column_494 Column_495 Column_496 Column_497 Column_498 Column_499 Column_500 Column_501 Column_502 Column_503 Column_504 Column_505 Column_506 Column_507 Column_508 Column_509 Column_510 Column_511 Column_512 Column_513 Column_514 Column_515 Column_516 Column_517 Column_518 Column_519 Column_520 Column_521 Column_522 Column_523 Column_524 Column_525 Column_526 Column_527 Column_528 Column_529 Column_530 Column_531 Column_532 Column_533 Column_534 Column_535 Column_536 Column_537 Column_538 Column_539 Column_540 Column_541 Column_542 Column_543 Column_544 Column_545 Column_546 Column_547 Column_548 Column_549 Column_550 Column_551 Column_552 Column_553 Column_554 Column_555 Column_556 Column_557 Column_558 Column_559 Column_560 Column_561 Column_562 Column_563 Column_564 Column_565 Column_566 Column_567 Column_568 Column_569 Column_570 Column_571 Column_572 Column_573 Column_574 Column_575 Column_576 Column_577 Column_578 Column_579 Column_580 Column_581 Column_582 Column_583 Column_584 Column_585 Column_586 Column_587 Column_588 Column_589 Column_590 Column_591 Column_592 Column_593 Column_594 Column_595 Column_596 Column_597 Column_598 Column_599 Column_600 Column_601 Column_602 Column_603 Column_604 Column_605 Column_606 Column_607 Column_608 Column_609 Column_610 Column_611 Column_612 Column_613 Column_614 Column_615 Column_616 Column_617 Column_618 Column_619 Column_620 Column_621 Column_622 Column_623 Column_624 Column_625 Column_626 Column_627 Column_628 Column_629 Column_630 Column_631 Column_632 Column_633 Column_634 Column_635 Column_636 Column_637 Column_638 Column_639 Column_640 Column_641 Column_642 Column_643 Column_644 Column_645 Column_646 Column_647 Column_648 Column_649 Column_650 Column_651 Column_652 Column_653 Column_654 Column_655 Column_656 Column_657 Column_658 Column_659 Column_660 Column_661 Column_662 Column_663 Column_664 Column_665 Column_666 Column_667 Column_668 Column_669 Column_670 Column_671 Column_672 Column_673 Column_674 Column_675 Column_676 Column_677 Column_678 Column_679 Column_680 Column_681 Column_682 Column_683 Column_684 Column_685 Column_686 Column_687 Column_688 Column_689 Column_690 Column_691 Column_692 Column_693 Column_694 Column_695 Column_696 Column_697 Column_698 Column_699 Column_700 Column_701 Column_702 Column_703 Column_704 Column_705 Column_706 Column_707 Column_708 Column_709 Column_710 Column_711 Column_712 Column_713 Column_714 Column_715 Column_716 Column_717 Column_718 Column_719 Column_720 Column_721 Column_722 Column_723 Column_724 Column_725 Column_726 Column_727 Column_728 Column_729 Column_730 Column_731 Column_732 Column_733 Column_734 Column_735 Column_736 Column_737 Column_738 Column_739 Column_740 Column_741 Column_742 Column_743 Column_744 Column_745 Column_746 Column_747 Column_748 Column_749 Column_750 Column_751 Column_752 Column_753 Column_754 Column_755 Column_756 Column_757 Column_758 Column_759 Column_760 Column_761 Column_762 Column_763 Column_764 Column_765 Column_766 Column_767 Column_768 Column_769 Column_770 Column_771 Column_772 Column_773 Column_774 Column_775 Column_776 Column_777 Column_778 Column_779 Column_780 Column_781 Column_782 Column_783 Column_784 Column_785 Column_786 Column_787 Column_788 Column_789 Column_790 Column_791 Column_792 Column_793 Column_794 Column_795 Column_796 Column_797 Column_798 Column_799 Column_800 Column_801 Column_802 Column_803 Column_804 Column_805 Column_806 Column_807 Column_808 Column_809 Column_810 Column_811 Column_812 Column_813 Column_814 Column_815 Column_816 Column_817 Column_818 Column_819 Column_820 Column_821 Column_822 Column_823 Column_824 Column_825 Column_826 Column_827 Column_828 Column_829 Column_830 Column_831 Column_832 Column_833 Column_834 Column_835 Column_836 Column_837 Column_838 Column_839 Column_840 Column_841 Column_842 Column_843 Column_844 Column_845 Column_846 Column_847 Column_848 Column_849 Column_850 Column_851 Column_852 Column_853 Column_854 Column_855 Column_856 Column_857 Column_858 Column_859 Column_860 Column_861 Column_862 Column_863 Column_864 Column_865 Column_866 Column_867 Column_868 Column_869 Column_870 Column_871 Column_872 Column_873 Column_874 Column_875 Column_876 Column_877 Column_878 Column_879 Column_880 Column_881 Column_882 Column_883 Column_884 Column_885 Column_886 Column_887 Column_888 Column_889 Column_890 Column_891 Column_892 Column_893 Column_894 Column_895 Column_896 Column_897 Column_898 Column_899 Column_900 Column_901 Column_902 Column_903 Column_904 Column_905 Column_906 Column_907 Column_908 Column_909 Column_910 Column_911 Column_912 Column_913 Column_914 Column_915 Column_916 Column_917 Column_918 Column_919 Column_920 Column_921 Column_922 Column_923 Column_924 Column_925 Column_926 Column_927 Column_928 Column_929 Column_930 Column_931 Column_932 Column_933 Column_934 Column_935 Column_936 Column_937 Column_938 Column_939 Column_940 Column_941 Column_942 Column_943 Column_944 Column_945 Column_946 Column_947 Column_948 Column_949 Column_950 Column_951 Column_952 Column_953 Column_954 Column_955 Column_956 Column_957 Column_958 Column_959 Column_960 Column_961 Column_962 Column_963 Column_964 Column_965 Column_966 Column_967 Column_968 Column_969 Column_970 Column_971 Column_972 Column_973 Column_974 Column_975 Column_976 Column_977 Column_978 Column_979 Column_980 Column_981 Column_982 Column_983 Column_984 Column_985 Column_986 Column_987 Column_988 Column_989 Column_990 Column_991 Column_992 Column_993 Column_994 Column_995 Column_996 Column_997 Column_998 Column_999 Column_1000 Column_1001 Column_1002 Column_1003 Column_1004 Column_1005 Column_1006 Column_1007 Column_1008 Column_1009 Column_1010 Column_1011 Column_1012 Column_1013 Column_1014 Column_1015 Column_1016 Column_1017 Column_1018 Column_1019 Column_1020 Column_1021 Column_1022 Column_1023 Column_1024 Column_1025 Column_1026 Column_1027 Column_1028 Column_1029 Column_1030 Column_1031 Column_1032 Column_1033 Column_1034 Column_1035 Column_1036 Column_1037 Column_1038 Column_1039 Column_1040 Column_1041 Column_1042 Column_1043 Column_1044 Column_1045 Column_1046 Column_1047 Column_1048 Column_1049 Column_1050 Column_1051 Column_1052 Column_1053 Column_1054 Column_1055 Column_1056 Column_1057 Column_1058 Column_1059 Column_1060 Column_1061 Column_1062 Column_1063 Column_1064 Column_1065 Column_1066 Column_1067 Column_1068 Column_1069 Column_1070 Column_1071 Column_1072 Column_1073 Column_1074 Column_1075 Column_1076 Column_1077 Column_1078 Column_1079 Column_1080 Column_1081 Column_1082 Column_1083 Column_1084 Column_1085 Column_1086 Column_1087 Column_1088 Column_1089 Column_1090 Column_1091 Column_1092 Column_1093 Column_1094 Column_1095 Column_1096 Column_1097 Column_1098 Column_1099 Column_1100 Column_1101 Column_1102 Column_1103 Column_1104 Column_1105 Column_1106 Column_1107 Column_1108 Column_1109 Column_1110 Column_1111 Column_1112 Column_1113 Column_1114 Column_1115 Column_1116 Column_1117 Column_1118 Column_1119 Column_1120 Column_1121 Column_1122 Column_1123 Column_1124 Column_1125 Column_1126 Column_1127 Column_1128 Column_1129 Column_1130 Column_1131 Column_1132 Column_1133 Column_1134 Column_1135 Column_1136 Column_1137 Column_1138 Column_1139 Column_1140 Column_1141 Column_1142 Column_1143 Column_1144 Column_1145 Column_1146 Column_1147 Column_1148 Column_1149 Column_1150 Column_1151 Column_1152 Column_1153 Column_1154 Column_1155 Column_1156 Column_1157 Column_1158 Column_1159 Column_1160 Column_1161 Column_1162 Column_1163 Column_1164 Column_1165 Column_1166 Column_1167 Column_1168 Column_1169 Column_1170 Column_1171 Column_1172 Column_1173 Column_1174 Column_1175 Column_1176 Column_1177 Column_1178 Column_1179 Column_1180 Column_1181 Column_1182 Column_1183 Column_1184 Column_1185 Column_1186 Column_1187 Column_1188 Column_1189 Column_1190 Column_1191 Column_1192 Column_1193 Column_1194 Column_1195 Column_1196 Column_1197 Column_1198 Column_1199 Column_1200 Column_1201 Column_1202 Column_1203 Column_1204 Column_1205 Column_1206 Column_1207 Column_1208 Column_1209 Column_1210 Column_1211 Column_1212 Column_1213 Column_1214 Column_1215 Column_1216 Column_1217 Column_1218 Column_1219 Column_1220 Column_1221 Column_1222 Column_1223 Column_1224 Column_1225 Column_1226 Column_1227 Column_1228 Column_1229 Column_1230 Column_1231 Column_1232 Column_1233 Column_1234 Column_1235 Column_1236 Column_1237 Column_1238 Column_1239 Column_1240 Column_1241 Column_1242 Column_1243 Column_1244 Column_1245 Column_1246 Column_1247 Column_1248 Column_1249 Column_1250 Column_1251 Column_1252 Column_1253 Column_1254 Column_1255 Column_1256 Column_1257 Column_1258 Column_1259 Column_1260 Column_1261 Column_1262 Column_1263 Column_1264 Column_1265 Column_1266 Column_1267 Column_1268 Column_1269 Column_1270 Column_1271 Column_1272 Column_1273 Column_1274 Column_1275 Column_1276 Column_1277 Column_1278 Column_1279 Column_1280 Column_1281 Column_1282 Column_1283 Column_1284 Column_1285 Column_1286 Column_1287 Column_1288 Column_1289 Column_1290 Column_1291 Column_1292 Column_1293 Column_1294 Column_1295 Column_1296 Column_1297 Column_1298 Column_1299 Column_1300 Column_1301 Column_1302 Column_1303 Column_1304 Column_1305 Column_1306 Column_1307 Column_1308 Column_1309 Column_1310 Column_1311 Column_1312 Column_1313 Column_1314 Column_1315 Column_1316 Column_1317 Column_1318 Column_1319 Column_1320 Column_1321 Column_1322 Column_1323 Column_1324 Column_1325 Column_1326 Column_1327 Column_1328 Column_1329 Column_1330 Column_1331 Column_1332 Column_1333 Column_1334 Column_1335 Column_1336 Column_1337 Column_1338 Column_1339 Column_1340 Column_1341 Column_1342 Column_1343 Column_1344 Column_1345 Column_1346 Column_1347 Column_1348 Column_1349 Column_1350 Column_1351 Column_1352 Column_1353 Column_1354 Column_1355 Column_1356 Column_1357 Column_1358 Column_1359 Column_1360 Column_1361 Column_1362 Column_1363 Column_1364 Column_1365 Column_1366 Column_1367 Column_1368 Column_1369 Column_1370 Column_1371 Column_1372 Column_1373 Column_1374 Column_1375 Column_1376 Column_1377 Column_1378 Column_1379 Column_1380 Column_1381 Column_1382 Column_1383 Column_1384 Column_1385 Column_1386 Column_1387 Column_1388 Column_1389 Column_1390 Column_1391 Column_1392 Column_1393 Column_1394 Column_1395 Column_1396 Column_1397 Column_1398 Column_1399 Column_1400 Column_1401 Column_1402 Column_1403 Column_1404 Column_1405 Column_1406 Column_1407 Column_1408 Column_1409 Column_1410 Column_1411 Column_1412 Column_1413 Column_1414 Column_1415 Column_1416 Column_1417 Column_1418 Column_1419 Column_1420 Column_1421 Column_1422 Column_1423 Column_1424 Column_1425 Column_1426 Column_1427 Column_1428 Column_1429 Column_1430 Column_1431 Column_1432 Column_1433 Column_1434 Column_1435 Column_1436 Column_1437 Column_1438 Column_1439 Column_1440 Column_1441 Column_1442 Column_1443 Column_1444 Column_1445 Column_1446 Column_1447 Column_1448 Column_1449 Column_1450 Column_1451 Column_1452 Column_1453 Column_1454 Column_1455 Column_1456 Column_1457 Column_1458 Column_1459 Column_1460 Column_1461 Column_1462 Column_1463 Column_1464 Column_1465 Column_1466 Column_1467 Column_1468 Column_1469 Column_1470 Column_1471 Column_1472 Column_1473 Column_1474 Column_1475 Column_1476 Column_1477 Column_1478 Column_1479 Column_1480 Column_1481 Column_1482 Column_1483 Column_1484 Column_1485 Column_1486 Column_1487 Column_1488 Column_1489 Column_1490 Column_1491 Column_1492 Column_1493 Column_1494 Column_1495 Column_1496 Column_1497 Column_1498 Column_1499 Column_1500 Column_1501 Column_1502 Column_1503 Column_1504 Column_1505 Column_1506 Column_1507 Column_1508 Column_1509 Column_1510 Column_1511 Column_1512 Column_1513 Column_1514 Column_1515 Column_1516 Column_1517 Column_1518 Column_1519 Column_1520 Column_1521 Column_1522 Column_1523 Column_1524 Column_1525 Column_1526 Column_1527 Column_1528 Column_1529 Column_1530 Column_1531 Column_1532 Column_1533 Column_1534 Column_1535 Column_1536 Column_1537 Column_1538 Column_1539 Column_1540 Column_1541 Column_1542 Column_1543 Column_1544 Column_1545 Column_1546 Column_1547 Column_1548 Column_1549 Column_1550 Column_1551 Column_1552 Column_1553 Column_1554 Column_1555 Column_1556 Column_1557 Column_1558 Column_1559 Column_1560 Column_1561 Column_1562 Column_1563 Column_1564 Column_1565 Column_1566 Column_1567 Column_1568 Column_1569 Column_1570 Column_1571 Column_1572 Column_1573 Column_1574 Column_1575 Column_1576 Column_1577 Column_1578 Column_1579 Column_1580 Column_1581 Column_1582 Column_1583 Column_1584 Column_1585 Column_1586 Column_1587 Column_1588 Column_1589 Column_1590 Column_1591 Column_1592 Column_1593 Column_1594 Column_1595 Column_1596 Column_1597 Column_1598 Column_1599 Column_1600 Column_1601 Column_1602 Column_1603 Column_1604 Column_1605 Column_1606 Column_1607 Column_1608 Column_1609 Column_1610 Column_1611 Column_1612 Column_1613 Column_1614 Column_1615 Column_1616 Column_1617 Column_1618 Column_1619 Column_1620 Column_1621 Column_1622 Column_1623 Column_1624 Column_1625 Column_1626 Column_1627 Column_1628 Column_1629 Column_1630 Column_1631 Column_1632 Column_1633 Column_1634 Column_1635 Column_1636 Column_1637 Column_1638 Column_1639 Column_1640 Column_1641 Column_1642 Column_1643 Column_1644 Column_1645 Column_1646 Column_1647 Column_1648 Column_1649 Column_1650 Column_1651 Column_1652 Column_1653 Column_1654 Column_1655 Column_1656 Column_1657 Column_1658 Column_1659 Column_1660 Column_1661 Column_1662 Column_1663 Column_1664 Column_1665 Column_1666 Column_1667 Column_1668 Column_1669 Column_1670 Column_1671 Column_1672 Column_1673 Column_1674 Column_1675 Column_1676 Column_1677 Column_1678 Column_1679 Column_1680 Column_1681 Column_1682 Column_1683 Column_1684 Column_1685 Column_1686 Column_1687 Column_1688 Column_1689 Column_1690 Column_1691 Column_1692 Column_1693 Column_1694 Column_1695 Column_1696 Column_1697 Column_1698 Column_1699 Column_1700 Column_1701 Column_1702 Column_1703 Column_1704 Column_1705 Column_1706 Column_1707 Column_1708 Column_1709 Column_1710 Column_1711 Column_1712 Column_1713 Column_1714 Column_1715 Column_1716 Column_1717 Column_1718 Column_1719 Column_1720 Column_1721 Column_1722 Column_1723 Column_1724 Column_1725 Column_1726 Column_1727 Column_1728 Column_1729 Column_1730 Column_1731 Column_1732 Column_1733 Column_1734 Column_1735 Column_1736 Column_1737 Column_1738 Column_1739 Column_1740 Column_1741 Column_1742 Column_1743 Column_1744 Column_1745 Column_1746 Column_1747 Column_1748 Column_1749 Column_1750 Column_1751 Column_1752 Column_1753 Column_1754 Column_1755 Column_1756 Column_1757 Column_1758 Column_1759 Column_1760 Column_1761 Column_1762 Column_1763 Column_1764 Column_1765 Column_1766 Column_1767 Column_1768 Column_1769 Column_1770 Column_1771 Column_1772 Column_1773 Column_1774 Column_1775 Column_1776 Column_1777 Column_1778 Column_1779 Column_1780 Column_1781 Column_1782 Column_1783 Column_1784 Column_1785 Column_1786 Column_1787 Column_1788 Column_1789 Column_1790 Column_1791 Column_1792 Column_1793 Column_1794 Column_1795 Column_1796 Column_1797 Column_1798 Column_1799 Column_1800 Column_1801 Column_1802 Column_1803 Column_1804 Column_1805 Column_1806 Column_1807 Column_1808 Column_1809 Column_1810 Column_1811 Column_1812 Column_1813 Column_1814 Column_1815 Column_1816 Column_1817 Column_1818 Column_1819 Column_1820 Column_1821 Column_1822 Column_1823 Column_1824 Column_1825 Column_1826 Column_1827 Column_1828 Column_1829 Column_1830 Column_1831 Column_1832 Column_1833 Column_1834 Column_1835 Column_1836 Column_1837 Column_1838 Column_1839 Column_1840 Column_1841 Column_1842 Column_1843 Column_1844 Column_1845 Column_1846 Column_1847 Column_1848 Column_1849 Column_1850 Column_1851 Column_1852 Column_1853 Column_1854 Column_1855 Column_1856 Column_1857 Column_1858 Column_1859 Column_1860 Column_1861 Column_1862 Column_1863 Column_1864 Column_1865 Column_1866 Column_1867 Column_1868 Column_1869 Column_1870 Column_1871 Column_1872 Column_1873 Column_1874 Column_1875 Column_1876 Column_1877 Column_1878 Column_1879 Column_1880 Column_1881 Column_1882 Column_1883 Column_1884 Column_1885 Column_1886 Column_1887 Column_1888 Column_1889 Column_1890 Column_1891 Column_1892 Column_1893 Column_1894 Column_1895 Column_1896 Column_1897 Column_1898 Column_1899 Column_1900 Column_1901 Column_1902 Column_1903 Column_1904 Column_1905 Column_1906 Column_1907 Column_1908 Column_1909 Column_1910 Column_1911 Column_1912 Column_1913 Column_1914 Column_1915 Column_1916 Column_1917 Column_1918 Column_1919 Column_1920 Column_1921 Column_1922 Column_1923 Column_1924 Column_1925 Column_1926 Column_1927 Column_1928 Column_1929 Column_1930 Column_1931 Column_1932 Column_1933 Column_1934 Column_1935 Column_1936 Column_1937 Column_1938 Column_1939 Column_1940 Column_1941 Column_1942 Column_1943 Column_1944 Column_1945 Column_1946 Column_1947 Column_1948 Column_1949 Column_1950 Column_1951 Column_1952 Column_1953 Column_1954 Column_1955 Column_1956 Column_1957 Column_1958 Column_1959 Column_1960 Column_1961 Column_1962 Column_1963 Column_1964 Column_1965 Column_1966 Column_1967 Column_1968 Column_1969 Column_1970 Column_1971 Column_1972 Column_1973 Column_1974 Column_1975 Column_1976 Column_1977 Column_1978 Column_1979 Column_1980 Column_1981 Column_1982 Column_1983 Column_1984 Column_1985 Column_1986 Column_1987 Column_1988 Column_1989 Column_1990 Column_1991 Column_1992 Column_1993 Column_1994 Column_1995 Column_1996 Column_1997 Column_1998 Column_1999 Column_2000 Column_2001 Column_2002 Column_2003 Column_2004 Column_2005 Column_2006 Column_2007 Column_2008 Column_2009 Column_2010 Column_2011 Column_2012 Column_2013 Column_2014 Column_2015 Column_2016 Column_2017 Column_2018 Column_2019 Column_2020 Column_2021 Column_2022 Column_2023 Column_2024 Column_2025 Column_2026 Column_2027 Column_2028 Column_2029 Column_2030 Column_2031 Column_2032 Column_2033 Column_2034 Column_2035 Column_2036 Column_2037 Column_2038 Column_2039 Column_2040 Column_2041 Column_2042 Column_2043 Column_2044 Column_2045 Column_2046 Column_2047 Column_2048 Column_2049 Column_2050 Column_2051 Column_2052 Column_2053 Column_2054 Column_2055 Column_2056 Column_2057 Column_2058 Column_2059 Column_2060 Column_2061 Column_2062 Column_2063 Column_2064 Column_2065 Column_2066 Column_2067 Column_2068 Column_2069 Column_2070 Column_2071 Column_2072 Column_2073 Column_2074 Column_2075 Column_2076 Column_2077 Column_2078 Column_2079 Column_2080 Column_2081 Column_2082 Column_2083 Column_2084 Column_2085 Column_2086 Column_2087 Column_2088 Column_2089 Column_2090 Column_2091 Column_2092 Column_2093 Column_2094 Column_2095 Column_2096 Column_2097 Column_2098 Column_2099 Column_2100 Column_2101 Column_2102 Column_2103 Column_2104 Column_2105 Column_2106 Column_2107 Column_2108 Column_2109 Column_2110 Column_2111 Column_2112 Column_2113 Column_2114 Column_2115 Column_2116 Column_2117 Column_2118 Column_2119 Column_2120 Column_2121 Column_2122 Column_2123 Column_2124 Column_2125 Column_2126 Column_2127 Column_2128 Column_2129 Column_2130 Column_2131 Column_2132 Column_2133 Column_2134 Column_2135 Column_2136 Column_2137 Column_2138 Column_2139 Column_2140 Column_2141 Column_2142 Column_2143 Column_2144 Column_2145 Column_2146 Column_2147 Column_2148 Column_2149 Column_2150 Column_2151 Column_2152 Column_2153 Column_2154 Column_2155 Column_2156 Column_2157 Column_2158 Column_2159 Column_2160 Column_2161 Column_2162 Column_2163 Column_2164 Column_2165 Column_2166 Column_2167 Column_2168 Column_2169 Column_2170 Column_2171 Column_2172 Column_2173 Column_2174 Column_2175 Column_2176 Column_2177 Column_2178 Column_2179 Column_2180 Column_2181 Column_2182 Column_2183 Column_2184 Column_2185 Column_2186 Column_2187 Column_2188 Column_2189 Column_2190 Column_2191 Column_2192 Column_2193 Column_2194 Column_2195 Column_2196 Column_2197 Column_2198 Column_2199 Column_2200 Column_2201 Column_2202 Column_2203 Column_2204 Column_2205 Column_2206 Column_2207 Column_2208 Column_2209 Column_2210 Column_2211 Column_2212 Column_2213 Column_2214 Column_2215 Column_2216 Column_2217 Column_2218 Column_2219 Column_2220 Column_2221 Column_2222 Column_2223 Column_2224 Column_2225 Column_2226 Column_2227 Column_2228 Column_2229 Column_2230 Column_2231 Column_2232 Column_2233 Column_2234 Column_2235 Column_2236 Column_2237 Column_2238 Column_2239 Column_2240 Column_2241 Column_2242 Column_2243 Column_2244 Column_2245 Column_2246 Column_2247 Column_2248 Column_2249 Column_2250 Column_2251 Column_2252 Column_2253 Column_2254 Column_2255 Column_2256 Column_2257 Column_2258 Column_2259 Column_2260 Column_2261 Column_2262 Column_2263 Column_2264 Column_2265 Column_2266 Column_2267 Column_2268 Column_2269 Column_2270 Column_2271 Column_2272 Column_2273 Column_2274 Column_2275 Column_2276 Column_2277 Column_2278 Column_2279 Column_2280 Column_2281 Column_2282 Column_2283 Column_2284 Column_2285 Column_2286 Column_2287 Column_2288 Column_2289 Column_2290 Column_2291 Column_2292 Column_2293 Column_2294 Column_2295 Column_2296 Column_2297 Column_2298 Column_2299 Column_2300 Column_2301 Column_2302 Column_2303 Column_2304 Column_2305 Column_2306 Column_2307 Column_2308 Column_2309 Column_2310 Column_2311 Column_2312 Column_2313 Column_2314 Column_2315 Column_2316 Column_2317 Column_2318 Column_2319 Column_2320 Column_2321 Column_2322 Column_2323 Column_2324 Column_2325 Column_2326 Column_2327 Column_2328 Column_2329 Column_2330 Column_2331 Column_2332 Column_2333 Column_2334 Column_2335 Column_2336 Column_2337 Column_2338 Column_2339 Column_2340 Column_2341 Column_2342 Column_2343 Column_2344 Column_2345 Column_2346 Column_2347 Column_2348 Column_2349 Column_2350 Column_2351 Column_2352 Column_2353 Column_2354 Column_2355 Column_2356 Column_2357 Column_2358 Column_2359 Column_2360 Column_2361 Column_2362 Column_2363 Column_2364 Column_2365 Column_2366 Column_2367 Column_2368 Column_2369 Column_2370 Column_2371 Column_2372 Column_2373 Column_2374 Column_2375 Column_2376 Column_2377 Column_2378 Column_2379 Column_2380 Column_2381 Column_2382 Column_2383 Column_2384 Column_2385 Column_2386 Column_2387 Column_2388 Column_2389 Column_2390 Column_2391 Column_2392 Column_2393 Column_2394 Column_2395 Column_2396 Column_2397 Column_2398 Column_2399 Column_2400 Column_2401 Column_2402 Column_2403 Column_2404 Column_2405 Column_2406 Column_2407 Column_2408 Column_2409 Column_2410 Column_2411 Column_2412 Column_2413 Column_2414 Column_2415 Column_2416 Column_2417 Column_2418 Column_2419 Column_2420 Column_2421 Column_2422 Column_2423 Column_2424 Column_2425 Column_2426 Column_2427 Column_2428 Column_2429 Column_2430 Column_2431 Column_2432 Column_2433 Column_2434 Column_2435 Column_2436 Column_2437 Column_2438 Column_2439 Column_2440 Column_2441 Column_2442 Column_2443 Column_2444 Column_2445 Column_2446 Column_2447 Column_2448 Column_2449 Column_2450 Column_2451 Column_2452 Column_2453 Column_2454 Column_2455 Column_2456 Column_2457 Column_2458 Column_2459 Column_2460 Column_2461 Column_2462 Column_2463 Column_2464 Column_2465 Column_2466 Column_2467 Column_2468 Column_2469 Column_2470 Column_2471 Column_2472 Column_2473 Column_2474 Column_2475 Column_2476 Column_2477 Column_2478 Column_2479 Column_2480 Column_2481 Column_2482 Column_2483 Column_2484 Column_2485 Column_2486 Column_2487 Column_2488 Column_2489 Column_2490 Column_2491 Column_2492 Column_2493 Column_2494 Column_2495 Column_2496 Column_2497 Column_2498 Column_2499 Column_2500 Column_2501 Column_2502 Column_2503 Column_2504 Column_2505 Column_2506 Column_2507 Column_2508 Column_2509 Column_2510 Column_2511 Column_2512 Column_2513 Column_2514 Column_2515 Column_2516 Column_2517 Column_2518 Column_2519 Column_2520 Column_2521 Column_2522 Column_2523 Column_2524 Column_2525 Column_2526 Column_2527 Column_2528 Column_2529 Column_2530 Column_2531 Column_2532 Column_2533 Column_2534 Column_2535 Column_2536 Column_2537 Column_2538 Column_2539 Column_2540 Column_2541 Column_2542 Column_2543 Column_2544 Column_2545 Column_2546 Column_2547 Column_2548 Column_2549 Column_2550 Column_2551 Column_2552 Column_2553 Column_2554 Column_2555 Column_2556 Column_2557 Column_2558 Column_2559 Column_2560 Column_2561 Column_2562 Column_2563 Column_2564 Column_2565 Column_2566 Column_2567 Column_2568 Column_2569 Column_2570 Column_2571 Column_2572 Column_2573 Column_2574 Column_2575 Column_2576 Column_2577 Column_2578 Column_2579 Column_2580 Column_2581 Column_2582 Column_2583 Column_2584 Column_2585 Column_2586 Column_2587 Column_2588 Column_2589 Column_2590 Column_2591 Column_2592 Column_2593 Column_2594 Column_2595 Column_2596 Column_2597 Column_2598 Column_2599 Column_2600 Column_2601 Column_2602 Column_2603 Column_2604 Column_2605 Column_2606 Column_2607 Column_2608 Column_2609 Column_2610 Column_2611 Column_2612 Column_2613 Column_2614 Column_2615 Column_2616 Column_2617 Column_2618 Column_2619 Column_2620 Column_2621 Column_2622 Column_2623 Column_2624 Column_2625 Column_2626 Column_2627 Column_2628 Column_2629 Column_2630 Column_2631 Column_2632 Column_2633 Column_2634 Column_2635 Column_2636 Column_2637 Column_2638 Column_2639 Column_2640 Column_2641 Column_2642 Column_2643 Column_2644 Column_2645 Column_2646 Column_2647 Column_2648 Column_2649 Column_2650 Column_2651 Column_2652 Column_2653 Column_2654 Column_2655 Column_2656 Column_2657 Column_2658 Column_2659 Column_2660 Column_2661 Column_2662 Column_2663 Column_2664 Column_2665 Column_2666 Column_2667 Column_2668 Column_2669 Column_2670 Column_2671 Column_2672 Column_2673 Column_2674 Column_2675 Column_2676 Column_2677 Column_2678 Column_2679 Column_2680 Column_2681 Column_2682 Column_2683 Column_2684 Column_2685 Column_2686 Column_2687 Column_2688 Column_2689 Column_2690 Column_2691 Column_2692 Column_2693 Column_2694 Column_2695 Column_2696 Column_2697 Column_2698 Column_2699 Column_2700 Column_2701 Column_2702 Column_2703 Column_2704 Column_2705 Column_2706 Column_2707 Column_2708 Column_2709 Column_2710 Column_2711 Column_2712 Column_2713 Column_2714 Column_2715 Column_2716 Column_2717 Column_2718 Column_2719 Column_2720 Column_2721 Column_2722 Column_2723 Column_2724 Column_2725 Column_2726 Column_2727 Column_2728 Column_2729 Column_2730 Column_2731 Column_2732 Column_2733 Column_2734 Column_2735 Column_2736 Column_2737 Column_2738 Column_2739 Column_2740 Column_2741 Column_2742 Column_2743 Column_2744 Column_2745 Column_2746 Column_2747 Column_2748 Column_2749 Column_2750 Column_2751 Column_2752 Column_2753 Column_2754 Column_2755 Column_2756 Column_2757 Column_2758 Column_2759 Column_2760 Column_2761 Column_2762 Column_2763 Column_2764 Column_2765 Column_2766 Column_2767 Column_2768 Column_2769 Column_2770 Column_2771 Column_2772 Column_2773 Column_2774 Column_2775 Column_2776 Column_2777 Column_2778 Column_2779 Column_2780 Column_2781 Column_2782 Column_2783 Column_2784 Column_2785 Column_2786 Column_2787 Column_2788 Column_2789 Column_2790 Column_2791 Column_2792 Column_2793 Column_2794 Column_2795 Column_2796 Column_2797 Column_2798 Column_2799 Column_2800 Column_2801 Column_2802 Column_2803 Column_2804 Column_2805 Column_2806 Column_2807 Column_2808 Column_2809 Column_2810 Column_2811 Column_2812 Column_2813 Column_2814 Column_2815 Column_2816 Column_2817 Column_2818 Column_2819 Column_2820 Column_2821 Column_2822 Column_2823
feature_infos=[134:99925144] [0.0011254069395363331:7.9999971389770508] -1:1 none none -1:144:80:120:64:128:0:96:149:155:225:229:169:10:84:82:108:111:143:252:207:216:118:75:116:57:195:101:220:112:49:69:102:31:60:65:50:6:21:78:160:15:54:33:56:79:196:40:97:185:36:51:55:98:186:1:117:161:211:16:34:48:53:72:76:11:41:52:74:104:113:122:150:184:248:86:93:107:119:163:7:26:66:99:109:126:148:193:208:210:221:255:32:44:68:106:133:165:180:204:212:219:234:235:4:46:85:95:103:115:134:135:142:152:154:158:173:181:182:197:215:218:227 -1:0:59:221:117:92:118:80:172:237:232:1:61:198:69:114:244:82:110:68:133:160:63:106:206:227:167:153:109:119:15:83:100:71:226:36:122:85:159:191:253:56:138:144:225:48:52:90:230:2:53:112:170:195:32:95:136:176:196:210:212:28:31:35:97:99:101:105:121:143:243:41:103:113:120:131:220:222:223:43:51:54:74:111:134:145:151:177:182:183:192:215:231:239:4:13:14:49:58:98:102:107:130:155:168:185:186:216:228:255 [0:0.99994945526123047] [0:0.87765049934387207] [0:0.57271981239318848] [0:0.41602855920791626] [0:0.44136404991149902] [0:0.60817825794219971] [0:0.58386999368667603] [0:0.57203811407089233] [0:0.32165136933326721] [0:0.34651079773902893] [0:0.58947664499282837] [0:0.36354833841323853] [0:0.35573884844779968] [0:0.36449363827705383] [0:0.43085590004920959] [0:0.16451689600944519] [0:0.35161611437797546] [0:0.61102294921875] [0:0.26158025860786438] [0:0.36890444159507751] [0:0.68300491571426392] [0:0.34704434871673584] [0:0.30411094427108765] [0:0.37181127071380615] [0:0.16826367378234863] [0:0.16619904339313507] [0:0.530964195728302] [0:0.36597788333892822] [0:0.27637457847595215] [0:0.43075358867645264] [0:0.56212610006332397] [0:0.2737821638584137] [0:0.74241584539413452] [0:0.19986572861671448] [0:0.30699875950813293] [0:0.49716633558273315] [0:0.46303215622901917] [0:0.36993968486785889] [0:0.17734494805335999] [0:0.76741421222686768] [0:0.16757497191429138] [0:0.22163723409175873] [0:0.20000441372394562] [0:0.28703710436820984] [0:0.24836699664592743] [0:0.19460076093673706] [0:0.92714208364486694] [0:0.82222050428390503] [0:0.98963814973831177] [0:0.55798459053039551] [0:0.60762369632720947] [0:0.46346154808998108] [0:0.57325035333633423] [0:0.61052924394607544] [0:0.4543437659740448] [0:0.46331250667572021] [0:0.99766963720321655] [0:0.18485201895236969] [0:0.20387442409992218] [0:0.21121431887149811] [0:0.12862688302993774] [0:0.4375] [0:0.16757960617542267] [0:0.24795462191104889] [0:0.19270582497119904] [0:0.80838143825531006] [0:0.17512346804141998] [0:0.16455675661563873] [0:0.2262410968542099] [1.6537777014491439e-07:0.23367875814437866] [0:0.60745030641555786] [0:0.36434775590896606] [0:0.45413568615913391] [0:0.32021299004554749] [0:0.25107359886169434] [0:0.27265447378158569] [0:0.16715915501117706] [0:0.23182803392410278] [0:0.27970448136329651] [0:0.88191801309585571] [0:0.17468085885047913] [0:0.20542986690998077] [0:0.89805883169174194] [0:0.24531944096088409] [0:0.19473803043365479] [0:0.62093609571456909] [0:0.17381051182746887] [0:0.16805380582809448] [0:0.36573290824890137] [0:0.19940395653247833] [0:0.35438519716262817] [0:0.14622296392917633] [0:0.1907077431678772] [0:0.157131627202034] [0:0.24226085841655731] [0:0.39516833424568176] [0:0.1517670601606369] [0:0.5852658748626709] [0:0.120130755007267] [0:0.22381140291690826] [0:0.92074686288833618] [0:0.25066158175468445] [0:0.76566028594970703] [0:0.12025154381990433] [0:0.22875817120075226] [0:0.98162978887557983] [0:0.16863659024238586] [0:0.17795200645923615] [0:0.37589922547340393] [0:0.13153889775276184] [0:0.15776544809341431] [0:0.54784858226776123] [0:0.25128835439682007] [0:0.65176153182983398] [0:0.12919008731842041] [0:0.16822786629199982] [0:0.15951281785964966] [0:0.19709639251232147] [0:0.68532532453536987] [0:0.38980013132095337] [0:0.22406075894832611] [0:0.13886067271232605] [0:0.95274317264556885] [0:0.14423385262489319] [0:0.14131392538547516] [0:0.53476881980895996] [0:0.4376220703125] [0:0.43897023797035217] [0:0.71030694246292114] [0:0.19705423712730408] [0:0.21383902430534363] [0:0.17290826141834259] [0:0.18531212210655212] [0:0.15123890340328217] [0:0.12780655920505524] [0:0.16791409254074097] [0:0.58910989761352539] [0:0.15224581956863403] [0:0.16682635247707367] [0:0.1676761656999588] [0:0.58420640230178833] [0:0.16495487093925476] [0:0.12516045570373535] [0:0.12630413472652435] [0:0.99950826168060303] [0:0.13745278120040894] [0:0.15467360615730286] [0:0.12251525372266769] [0:0.16678950190544128] [0:0.13903920352458954] [0:0.12607157230377197] [0:0.17306776344776154] [0:0.1670016348361969] [0:0.18814125657081604] [0:0.35443153977394104] [0:0.1648118644952774] [0:0.654308021068573] [0:0.16690398752689362] [0:0.19617971777915955] [0:0.27830272912979126] [0:0.31768202781677246] [0:0.19630858302116394] [0:0.12814563512802124] [0:0.32008558511734009] [0:0.32009834051132202] [0:0.24003943800926208] [0:0.19410568475723267] [0:0.12515838444232941] [0:0.23626811802387238] [0:0.19671303033828735] [0:0.18125060200691223] [0:0.1772940456867218] [0:0.2430570125579834] [0:0.056344758719205856] [0:0.2348656952381134] [0:0.86274510622024536] [0:0.1352037787437439] [0:0.11611147224903107] [0:0.17727810144424438] [0:0.16789320111274719] [0:0.14832465350627899] [0:0.16990269720554352] [0:0.29418286681175232] [0:0.2625713050365448] [0:0.19816103577613831] [0:0.19623188674449921] [0:0.20541414618492126] [0:0.14036430418491364] [0:0.30846938490867615] [0:0.20932543277740479] [0:0.1693379282951355] [0:0.321870356798172] [0:0.61306589841842651] [0:0.26270702481269836] [0:0.22259521484375] [0:0.58912795782089233] [0:0.13412204384803772] [0:0.12164066731929779] [0:0.4376068115234375] [0:0.19934684038162231] [0:0.25115412473678589] [0:0.30848434567451477] [0:0.1570366770029068] [0:0.12792405486106873] [0:0.98928648233413696] [0:0.28642457723617554] [0:0.44955196976661682] [0:0.23475474119186401] [0:0.58987396955490112] [0:0.12938649952411652] [0:0.21958354115486145] [0:0.35466015338897705] [0:0.19395972788333893] [0:0.15618063509464264] [0:0.15566390752792358] [0:0.22357454895973206] [0:0.21707774698734283] [0:0.34489396214485168] [0:0.95525634288787842] [0:0.16749650239944458] [0:0.27470645308494568] [0:0.65350544452667236] [0:0.26157820224761963] [0:0.62507379055023193] [0:0.3735387921333313] [0:0.44612795114517212] [0:0.236572265625] [0:0.23789198696613312] [0:0.22334156930446625] [0:0.1187518835067749] [0:0.36488038301467896] [0:0.29895371198654175] [0:0.24261713027954102] [0:0.22252920269966125] [0:0.53252732753753662] [0:0.28008976578712463] [0:0.41748026013374329] [0:0.45119106769561768] [0:0.42154973745346069] [0:0.26124042272567749] [0:0.45229122042655945] [0:0.62011414766311646] [0:0.31085020303726196] [0:0.38188639283180237] [0:0.48596546053886414] [0:0.49782779812812805] [0:0.24320060014724731] [0:0.26068240404129028] [0:0.34355077147483826] [0:0.49191996455192566] [0:0.68382531404495239] [0:0.27606251835823059] [0:0.21580970287322998] [0:0.29249373078346252] [0:0.56737881898880005] [0:0.97521734237670898] [0:0.99991542100906372] [0:0.61572265625] [0:0.92488688230514526] [0:0.99766361713409424] [0:0.8802153468132019] [0:0.89743590354919434] [0:0.98159509897232056] [0:0.95250546932220459] [0:0.46582639217376709] [0:0.99995189905166626] [0:0.85526317358016968] [0:0.24144484102725983] [0:0.9892127513885498] [0:0.9552311897277832] [0:0.44151866436004639] [0:0.97381573915481567] [0:0.8756822943687439] [0:0.27294731140136719] [0:0.15068493783473969] [0:0.54685646295547485] [0:0.3744121789932251] [0:0.06913468986749649] [0:0.42465752363204956] [0:0.49896582961082458] [0:0.15616196393966675] [0:0.04555978998541832] [0:0.12402372062206268] [0:0.067968748509883881] [0:0.41916093230247498] [0:0.083787895739078522] [0:0.19943542778491974] [0:0.47212600708007812] [0:0.94466143846511841] [0:0.16565358638763428] [0:0.2010633647441864] [0:0.51060795783996582] [0:0.17440560460090637] [0:0.33574935793876648] [0:0.14462606608867645] [0:0.1216072142124176] [0:0.10667455941438675] [0:0.052085734903812408] [0:0.051045581698417664] [0:0.30035856366157532] [0:0.16529707610607147] [0:0.1317608654499054] [0:0.1078132763504982] [0:0.46750354766845703] [0:0.92291665077209473] [0:0.2406034916639328] [0:0.3331131637096405] [0:0.59994411468505859] [0:0.61083197593688965] [0:0.6151854395866394] [0:0.34623152017593384] [0:0.65922224521636963] [0:0.14163844287395477] [0:0.066556878387928009] [0:0.62416541576385498] [0:0.14025674760341644] [0:0.29205325245857239] [0:0.28967350721359253] [0:0.38573268055915833] [0:0.53826463222503662] [0:0.87109375] [0:0.21534273028373718] [0:0.23020541667938232] [0:0.44941282272338867] [0:0.2140299528837204] [0:0.15570881962776184] [0:0.57834887504577637] [0:0.4285714328289032] [0:0.1570470929145813] [0:0.23701523244380951] [0:0.07199377566576004] [0:0.29153576493263245] [0:0.11221352219581604] [0:0.1274125874042511] [0:0.23518367111682892] [0:0.47046387195587158] [0:0.828125] [0:0.18989907205104828] [0:0.33182728290557861] [0:0.43695852160453796] [0:0.3665822446346283] [0:0.26003634929656982] [0:0.25861695408821106] [0:0.23256854712963104] [0:0.12032907456159592] [0:0.21337890625] [0:0.061582267284393311] [0:0.03179796040058136] [0:0.26704338192939758] [0:0.26990833878517151] [0:0.22967731952667236] [0:0.26326394081115723] [0:0.7744140625] [0:0.2989501953125] [0:0.23131626844406128] [0:0.46555033326148987] [0:0.44120720028877258] [0:0.31983745098114014] [0:0.4109174907207489] [0:0.29496735334396362] [0:0.29012998938560486] [0:0.291015625] [0:0.33633303642272949] [0:0.25283855199813843] [0:0.30064642429351807] [0:0.25951096415519714] [0:0.25951200723648071] [0:0.3259146511554718] [0:0.73681640625] [0:0.30149996280670166] [0:0.3273111879825592] [0:0.33684810996055603] [0:0.28649580478668213] [0:0.20962460339069366] [0:0.35146737098693848] [0:0.26898923516273499] [0:0.15074723958969116] [0:0.11209595203399658] [0:0.15408384799957275] [0:0.19728071987628937] [0:0.30816757678985596] [0:0.16902466118335724] [0:0.19387422502040863] [0:0.30816939473152161] [0:0.68798828125] [0:0.18417659401893616] [0:0.3173363208770752] [0:0.50073844194412231] [0:0.259765625] [0:0.27160829305648804] [0:0.41734364628791809] [0:0.26476219296455383] [0:0.25326496362686157] [0:0.22965671122074127] [0:0.18834191560745239] [0:0.33060717582702637] [0:0.18918910622596741] [0:0.22670793533325195] [0:0.24971687793731689] [0:0.4523809552192688] [0:0.618599534034729] [0:0.15844228863716125] [0:0.34541770815849304] [0:0.37579783797264099] [0:0.25087890028953552] [0:0.1904296875] [0:0.34032037854194641] [0:0.20428752899169922] [0:0.15410180389881134] [0:0.2402186244726181] [0:0.2234700471162796] [0:0.24967092275619507] [0:0.1999213844537735] [0:0.25086158514022827] [0:0.28266230225563049] [0:0.2572610080242157] [0:0.578125] [0:0.291259765625] [0:0.22307261824607849] [0:0.18135723471641541] [0:0.20746645331382751] [0:0.28441205620765686] [0:0.25970804691314697] [0:0.2415364533662796] [0:0.21095098555088043] [0:0.23832370340824127] [0:0.18163043260574341] [0:0.38694080710411072] [0:0.13423009216785431] [0:0.18147416412830353] [0:0.1960948258638382] [0:0.23449268937110901] [0:0.482421875] [0:0.2951260507106781] [0:0.15503177046775818] [0:0.5037044882774353] [0:0.24349230527877808] [0:0.20032143592834473] [0:0.28935247659683228] [0:0.23026315867900848] [0:0.12768454849720001] [0:0.13776580989360809] [0:0.22058433294296265] [0:0.28633949160575867] [0:0.13280153274536133] [0:0.1446533203125] [0:0.15240675210952759] [0:0.2090928852558136] [0:0.43896484375] [0:0.10710100084543228] [0:0.2809908390045166] [0:0.16928711533546448] [0:0.28179493546485901] [0:0.16399547457695007] [0:0.18621079623699188] [0:0.10636354237794876] [0:0.35356232523918152] [0:0.093699105083942413] [0:0.11422792077064514] [0:0.28009551763534546] [0:0.28239414095878601] [0:0.138763427734375] [0:0.17786493897438049] [0:0.23394131660461426] [0:0.36718776822090149] [0:0.17922286689281464] [0:0.19448293745517731] [0:0.26356300711631775] [0:0.19820991158485413] [0:0.19836108386516571] [0:0.19196313619613647] [0:0.1965450793504715] [0:0.19895321130752563] [0:0.19809228181838989] [0:0.11230847239494324] [0:0.1966959685087204] [0:0.27433538436889648] [0:0.19924506545066833] [0:0.19946494698524475] [0:0.31314721703529358] [0:0.26318359375] [0:0.17462310194969177] [0:0.1433420330286026] [0:0.19593784213066101] [0:0.17853444814682007] [0:0.1948745995759964] [0:0.14289392530918121] [0:0.12465088814496994] [0:0.13543646037578583] [0:0.1657133549451828] [0:0.1576334685087204] [0:0.22810919582843781] [0:0.11885992437601089] [0:0.12468627095222473] [0:0.13239733874797821] [0:0.17066176235675812] [0:0.1519368439912796] [0:0.13258205354213715] [0:0.1399221271276474] [0:0.14242908358573914] [0:0.12968309223651886] [0:0.12180450558662415] [0:0.12278548628091812] [0:0.13008894026279449] [0:0.12623581290245056] [0:0.13278189301490784] [0:0.12066420912742615] [0:0.14584864675998688] [0:0.11925729364156723] [0:0.11690240353345871] [0:0.12702128291130066] [0:0.15406428277492523] [0:3241963] [0:171689.5625] [0:61384780] [0:0.98509222269058228] [0:0.47207894921302795] [0:0.95281553268432617] [0:0.97441321611404419] [0:0.64160329103469849] [0:0.62259131669998169] [0:0.54942059516906738] [0:0.9595906138420105] [0:0.758309006690979] [0:0.73531061410903931] [0:0.56167811155319214] [0:0.70638495683670044] [0:0.74386382102966309] [0:0.74613815546035767] [0:0.98564356565475464] [0:0.94408464431762695] [0:0.9998508095741272] [0:0.89310872554779053] [0:0.96550261974334717] [0:0.86833113431930542] [0:0.82784420251846313] [0:0.82104682922363281] [0:0.78382426500320435] [0:0.82185006141662598] [0:0.99983805418014526] [0:0.64049649238586426] [0:0.46083915233612061] [0:0.66156786680221558] [0:0.8846316933631897] [0:0.63790851831436157] [0:0.65854507684707642] [0:0.95135253667831421] [0:0.86252087354660034] [0:0.97231709957122803] [0:0.56200319528579712] [0:0.61331021785736084] [0:0.77009028196334839] [0:0.51705139875411987] [0:0.92964953184127808] [0:0.9000251293182373] [0:0.96463346481323242] [0:0.60495442152023315] [0:0.58739614486694336] [0:0.5955498218536377] [0:0.6612168550491333] [0:0.63809365034103394] [0:0.91255247592926025] [0:0.99143534898757935] [0:0.5914960503578186] [0:0.50159263610839844] [0:0.99652755260467529] [0:0.48502591252326965] [0:0.89591264724731445] [0:0.85490167140960693] [0:0.59189152717590332] [0:0.65134799480438232] [0:0.60341989994049072] [0:0.32934960722923279] [0:0.82097649574279785] [0:0.62848955392837524] [0:0.63471293449401855] [0:0.41246891021728516] [0:0.40160238742828369] [0:0.85001194477081299] [0:0.8113061785697937] [0:0.82984292507171631] [0:0.54984581470489502] [0:0.92750602960586548] [0:0.98313003778457642] [0:0.76702296733856201] [0:0.91320478916168213] [0:0.28352463245391846] [0:0.4464201033115387] [0:0.99916046857833862] [0:0.75273549556732178] [0:0.74627983570098877] [0:0.76309722661972046] [0:0.53520447015762329] [0:0.82018113136291504] [0:0.8194587230682373] [0:0.6107180118560791] [0:0.91137081384658813] [0:0.53203272819519043] [0:0.49062007665634155] [0:0.26552236080169678] [0:0.60819071531295776] [0:0.99958664178848267] [0:0.90599244832992554] [0:0.72365164756774902] [0:0.78378862142562866] [0:0.99852323532104492] [0:0.75284594297409058] [0:0.50868576765060425] [0:0.78284448385238647] [0:0.49203735589981079] [0:0.89433181285858154] [0:6.5849418640136719] [0:25826] [0:4] [0:1667] [0:962] [0:705] [0:1379] [0:267] [0:455] [0:6215] [0:1247] none [0:13] none [0:4788] none [0:100100] [0:10699] [0:12171] [0:2049] [0:86248] [0:15049] [0:3324] [0:187305] [0:22285] [0:15348] [0:14144] [0:40127] [0:7697] [0:9081] [0:11018] [0:3472] [0:7074] [0:12542] [0:8368] [0:58669] [0:56414] [0:13234] [0:61944] [0:12093] [0:223] [0:1304] [0:19698] [0:3419] [0:121864] [0:8736] [0:33322] [0:19295] [0:33554] [0:6065] [0:105435] [0:139029] [0:13355] [0:10085] [0:12542] [0:12811] [0:28313] [0:7143] [0:7403] [0:16456] [0:1535] [0:3414] [0:2741] [0:17341] [0:2217] [0:6424] [0:73355] [0:6351] [0:43875] [0:11082] [0:3391] [0:118985] [0:13807] [0:105561] [0:33322] [0:224] [0:11254] [0:117803] [0:4294967296] [0:98] [0:4294967296] [0:65504] [0:4294967296] -1:1:32:34:0:14:12:13:3:16:6:7:18 -1:2:3:1:7:0:9:8:10:13 [0:59523] [0:65475] [0:255] [0:255] [0:58226] [0:64421] [0:65284] [0:52971] [0:4294959104] [0:4291397120] [0:3758108672] [0:4294938112] [0:4276001280] [0:4279303936] [0:4294906112] [0:4279304192] [0:4294906112] [0:4294967296] [0:4294967296] [0:1.8446735277616529e+19] [0:4294905856] [0:4294967296] [0:4294967040] [0:1] [0:1] [0:1] [0:1] none [0:1] none [0:1] [0:1] [0:1] [0:1] [0:1] none [0:1] none [0:1] [0:1] [0:1] [0:1] [0:1] [0:1] [0:1] [0:1] [0:1] [0:1] [0:1] [0:1] [0:23117] [0:65424] [0:65535] [0:65535] [0:65531] [0:65535] [0:65535] [0:65520] [0:65534] [0:65535] [0:65535] [0:65535] [0:65328] [0:65014] [0:64877] [0:65485] [0:666732] [0:98] [0:65] [0:78] [0:94] [0:94] [0:8] none [0:1967617.125] none [0:1919251328] none [-46690816:4294928384] [-62101504:37641728] [-30125056:33327104] [-12816384:17874944] [-268435456:2014839936] [-4307707392:30420992] [-28322304:245246464] [-74894336:55083008] [-21314560:81775616] [-16264192:23108608] [-39096832:50286592] [-57694388:15698944] [-18745344:22708224] [-4294860800:26871296] [-22926336:1919251328] [-46692864:51904512] [-26095616:12687360] [-97505792:22249472] [-71618048:64489984] [-24137728:19398656] [-62273536:24176128] [-4294930432:20593152] [-31941120:14516224] [-18964480:24181248] [-55391744:36118528] [-96071680:26910208] [-56559616:41545216] [-42683904:38250496] [-69747200:15507968] [-29853184:23805952] [-15909376:2147483648] [-89116672:47163520] [-402669568:45714432] [-4278231040:36516352] [-49927680:23628288] [-32360448:1842102272] [-776002560:71531008] [-14397440:12963840] [-73212416:25186816] [-78963712:23840256] [-28065792:26139136] [-341531648:51488768] [-536871936:26411520] [-15063040:4294961920] [-20705280:11460608] [-20822016:39058432] [-67698688:1633968384] [-16084992:71306240] [-19168768:14258176] [-23351296:21308416] [-112717824:271822848] [-62101504:76830192] [-30124660:33326836] [-74753768:21345754] [-34594072:49283080] [-1073773312:84984584] [-28321960:245246272] [-74893896:55083008] [-50585600:81775240] [-16263684:23108548] [-39096516:112734208] [-60932224:17100596] [-60895196:22708224] [-16767072:26871168] [-268439552:202116560] [-903442944:57471596] [-268438080:16804926] [-97505624:22249472] [-71618016:64489600] [-24135168:67284992] [-62273148:27021312] [-80836792:20593152] [-31940638:15715825] [-18964480:75171840] [-55391456:78388856] [-96071344:26909992] [-56559480:41545120] [-42684416:38250388] [-69747184:25161096] [-57261952:852262016] [-15909072:4294967296] [-32867948:194891664] [-1627390720:147222528] [-74632656:36516072] [-49927532:76587008] [-32360000:1842102272] [-776002560:71530552] [-19956532:18985882] [-268599296:25186922] [-137736192:78252112] [-28065792:26139088] [-341531424:149426176] [-4294983168:26411416] [-15065264:4294918144] [-20702448:62418196] [-20821548:55737676] [-40103936:137646080] [-25999620:71306032] [-100609872:14258176] [-23351296:92821616] [-22.11480712890625:410.7080078125] [-15.716214179992676:15.990741729736328] [-15.927509307861328:38.783164978027344] [-21.815256118774414:19.088300704956055] [-14.311619758605957:15.907855987548828] [-34.869239807128906:15.878976821899414] [-127.93412780761719:9.5898256301879883] [-25.195526123046875:15.360635757446289] [-28.255855560302734:43.741104125976562] [-15.624577522277832:14.287566184997559] [-15.995121955871582:27.968135833740234] [-15.585939407348633:23.524309158325195] [-13.987616539001465:15.996000289916992] [-15.874358177185059:15.924680709838867] [-10.042213439941406:23.801904678344727] [-23.992948532104492:15.970967292785645] [-26.999305725097656:14.729667663574219] [-90.077247619628906:15.934823036193848] [-19.819488525390625:28.301799774169922] [-660.74700927734375:22.478679656982422] [-18.262722015380859:15.163693428039551] [-14.417671203613281:11.434035301208496] [-23.99565315246582:49.071674346923828] [-15.818587303161621:15.612879753112793] [-20.910423278808594:22.583011627197266] [-15.488823890686035:36.596942901611328] [-14.729354858398438:14.185139656066895] [-17.380453109741211:15.881811141967773] [-42.493362426757812:15.644543647766113] [-31.780036926269531:23.720922470092773] [-34.935066223144531:17.655029296875] [-22.753684997558594:133.85226440429688] [-45.633995056152344:41.650165557861328] [-9.3177757263183594:19.234724044799805] [-15.974732398986816:23.99055290222168] [-28.668083190917969:28.798078536987305] [-15.924243927001953:15.996223449707031] [-25.478776931762695:15.662399291992188] [-21.158760070800781:18.904031753540039] [-16.768547058105469:14.642728805541992] [-15.833433151245117:16.770881652832031] [-45.753303527832031:31.97773551940918] [-43.093029022216797:15.762405395507812] [-31.525224685668945:35.202884674072266] [-10.729277610778809:8.3844175338745117] [-14.940369606018066:15.206005096435547] [-18.798421859741211:15.563198089599609] [-14.537014007568359:15.814153671264648] [-14.842104911804199:36.657085418701172] [-14.393736839294434:15.720537185668945] [-78:5] [-4:93] [-5:9] [-92:12] [-7:68] [-19:5] [-5:12] [-16:10] [-68:21] [-78:8] [-4:8] [-3:11] [-9:12] [-91:68] [-68:6] [-18:7] [-11:4] [-68:18] [-4:17] [-68:4] [-5:11] [-7:6] [-7:13] [-5:12] [-68:8] [-5:6] [-15:68] [-136:14] [-11:68] [-14:6] [-6:32] [-4:9] [-5:68] [-10:5] [-22:16] [-92:68] [-10:5] [-6:22] [-10:23] [-5:8] [-5:9] [-12:8] [-12:11] [-68:12] [-68:5] [-6:7] [-4:18] [-6:5] [-3:4] [-68:10] [-1:1] [-1:1] [-1:1] [-1:1] [-1:1] [-1:1] [-1:1] [-1:1] [-1:1] [-1:1] [0:99786904] [0:0.99998795986175537] [0:7.9999985694885254] [0:6637] [0:135] [0:2] [0:2] [0:2] [0:2] [0:3] [0:2] [0:3] [0:2] [0:3] [0:2] [0:2] [0:2] [0:2] [0:2] [0:2] [0:2] [0:2] [0:1] [0:3] [0:2] [0:2] [0:2] [0:3] [0:2] [0:2] [0:3] [0:3] [0:3] [0:2] [0:3] [0:3] [0:2] [0:2] [0:1] [0:2] [0:2] [0:2] [0:2] [0:2] [0:2] [0:3] [0:2] [0:2] [0:3] [0:2] [0:4] [0:3] [0:2] [0:2] [0:2] [0:2] [0:3] [0:3] [0:2] [0:2] [0:2] [0:2] [0:2] [0:2] [0:2] [0:2] [0:1] [0:2] [0:3] [0:2] [0:2] [0:2] [0:3] [0:3] [0:2] [0:2] [0:2] [0:2] [0:2] [0:2] [0:2] [0:2] [0:3] [0:2] [0:2] [0:3] [0:2] [0:2] [0:2] [0:2] [0:2] [0:2] [0:2] [0:2] [0:2] [0:2] [0:3] [0:3] [0:3] [0:3] [0:2] [0:3] [0:2] [0:2] [0:2] [0:3] [0:2] [0:2] [0:2] [0:3] [0:2] [0:2] [0:4] [0:2] [0:2] [0:2] [0:2] [0:3] [0:1] [0:2] [0:2] [0:2] [0:4] [0:3] [0:3] [0:2] [0:2] [0:2] [0:2] [0:2] [0:2] [0:3] [0:3] [0:2] [0:3] [0:2] [0:2] [0:3] [0:3] [0:3] [0:3] [0:2] [0:2] [0:2] [0:3] [0:3] [0:2] [0:2] [0:3] [0:2] [0:4] [0:1] [0:3] [0:2] [0:2] [0:3] [0:2] [0:2] [0:2] [0:2] [0:2] [0:3] [0:2] [0:2] [0:2] [0:2] [0:3] [0:1] [0:2] [0:3] [0:2] [0:2] [0:2] [0:2] [0:2] [0:2] [0:2] [0:2] [0:2] [0:2] [0:2] [0:2] [0:2] [0:2] [0:2] [0:2] [0:2] [0:2] [0:1] [0:2] [0:2] [0:2] [0:2] [0:2] [0:3] [0:2] [0:3] [0:2] [0:2] [0:3] [0:2] [0:3] [0:2] [0:3] [0:2] [0:4] [0:3] [0:2] [0:3] [0:2] [0:2] [0:2] [0:2] [0:2] [0:2] [0:3] [0:2] [0:2] [0:3] [0:2] [0:2] [0:2] [0:2] [0:2] [0:3] [0:2] [0:2] [0:2] [0:3] [0:3] [0:3] [0:3] [0:2] [0:2] [0:1] [0:2] [0:3] [0:2] [0:2] [0:2] [0:2] [0:2] [0:2] [0:2] [0:2] [0:3] [0:2] [0:3] [0:2] [0:2] [0:2] [0:3] [0:2] [0:2] [0:2] [0:3] [0:2] [0:2] [0:2] [0:2] [0:2] [0:12] [0:11] [0:10] [0:12] [0:12] [0:12] [0:10] [0:13] [0:11] [0:16] [0:9] [0:11] [0:11] [0:13] [0:13] [0:10] [0:11] [0:12] [0:11] [0:10] [0:13] [0:12] [0:10] [0:12] [0:10] [0:10] [0:12] [0:10] [0:9] [0:9] [0:10] [0:13] [0:12] [0:14] [0:14] [0:12] [0:13] [0:11] [0:15] [0:10] [0:12] [0:11] [0:12] [0:10] [0:11] [0:13] [0:10] [0:11] [0:10] [0:11] [0:14] [0:12] [0:11] [0:13] [0:13] [0:12] [0:12] [0:11] [0:15] [0:11] [0:9] [0:10] [0:12] [0:10] [0:11] [0:11] [0:10] [0:10] [0:10] [0:10] [0:13] [0:12] [0:15] [0:12] [0:13] [0:12] [0:10] [0:10] [0:10] [0:14] [0:9] [0:10] [0:11] [0:13] [0:12] [0:9] [0:10] [0:10] [0:11] [0:10] [0:10] [0:10] [0:11] [0:11] [0:11] [0:13] [0:14] [0:10] [0:12] [0:11] [0:11] [0:11] [0:11] [0:12] [0:11] [0:12] [0:12] [0:11] [0:9] [0:9] [0:10] [0:14] [0:11] [0:11] [0:11] [0:12] [0:9] [0:11] [0:11] [0:10] [0:11] [0:14] [0:12] [0:13] [0:11] [0:10] [0:11] [0:9] [0:13] [0:10] [0:12] [0:11] [0:10] [0:10] [0:9] [0:10] [0:13] [0:14] [0:10] [0:12] [0:14] [0:9] [0:12] [0:11] [0:9] [0:11] [0:13] [0:12] [0:11] [0:11] [0:10] [0:11] [0:8] [0:10] [0:11] [0:10] [0:11] [0:9] [0:12] [0:11] [0:9] [0:12] [0:10] [0:15] [0:10] [0:11] [0:11] [0:9] [0:11] [0:12] [0:13] [0:10] [0:10] [0:10] [0:11] [0:10] [0:10] [0:10] [0:10] [0:9] [0:9] [0:13] [0:11] [0:14] [0:11] [0:11] [0:11] [0:10] [0:10] [0:12] [0:10] [0:9] [0:10] [0:12] [0:11] [0:10] [0:10] [0:12] [0:10] [0:10] [0:10] [0:12] [0:12] [0:11] [0:12] [0:12] [0:11] [0:9] [0:11] [0:12] [0:9] [0:10] [0:11] [0:11] [0:9] [0:10] [0:12] [0:12] [0:10] [0:10] [0:11] [0:10] [0:11] [0:10] [0:9] [0:14] [0:11] [0:10] [0:10] [0:14] [0:9] [0:13] [0:10] [0:11] [0:12] [0:11] [0:12] [0:10] [0:9] [0:11] [0:14] [0:10] [0:10] [0:11] [0:11] [0:9] [0:10] [0:11] [0:10] [0:11] [0:12] [0:10] [0:11] [0:9] [0:13] [0:12] [0:13] [0:12] [0:10] [0:11] [0:13] [0:12] [0:10] [0:11] [0:11] [0:13] [0:11] [0:11] [0:11] [0:10] [0:9] [0:10] [0:11] [0:12] [0:10] [0:11] [0:12] [0:14] [0:13] [0:9] [0:11] [0:13] [0:14] [0:10] [0:11] [0:11] [0:11] [0:11] [0:9] [0:13] [0:11] [0:10] [0:12] [0:12] [0:12] [0:9] [0:11] [0:11] [0:14] [0:10] [0:10] [0:12] [0:11] [0:11] [0:12] [0:12] [0:9] [0:15] [0:11] [0:12] [0:11] [0:11] [0:9] [0:12] [0:12] [0:10] [0:14] [0:13] [0:9] [0:9] [0:10] [0:11] [0:11] [0:10] [0:12] [0:10] [0:12] [0:10] [0:9] [0:13] [0:14] [0:10] [0:13] [0:10] [0:10] [0:11] [0:12] [0:10] [0:10] [0:9] [0:10] [0:10] [0:11] [0:11] [0:12] [0:10] [0:12] [0:11] [0:10] [0:11] [0:11] [0:9] [0:11] [0:9] [0:12] [0:11] [0:12] [0:11] [0:12] [0:13] [0:10] [0:11] [0:10] [0:11] [0:10] [0:11] [0:10] [0:13] [0:14] [0:11] [0:10] [0:10] [0:9] [0:11] [0:11] [0:12] [0:11] [0:10] [0:13] [0:10] [0:10] [0:14] [0:10] [0:11] [0:10] [0:11] [0:11] [0:11] [0:16] [0:12] [0:11] [0:10] [0:12] [0:11] [0:13] [0:12] [0:11] [0:10] [0:10] [0:13] [0:10] [0:10] [0:13] [0:11] [0:9] [0:11] [0:12] [0:12] [0:9] [0:10] [0:11] [0:10] [0:14] [0:12] [0:10] [0:11] [0:10] [0:12] [0:10] [0:10] [0:10] [0:10] [0:10] [0:11] [0:10] [0:10] [0:14] [0:10] [0:10] [0:11] [0:12] [0:10] [0:12] [0:10] [0:10] [0:13] [0:10] [0:11] [0:10] [0:10] [0:11] [0:13] [0:11] [0:13] [0:12] [0:10] [0:12] [0:10] [0:13] [0:13] [0:10] [0:11] [0:9] [0:10] [0:10] [0:12] [0:11] [0:9] [0:10] [0:12] [0:10] [0:10] [0:9] [0:11] [0:12] [0:10] [0:9] [0:10] [0:11] [0:10] [0:9] [0:11] [0:11] [0:10] [0:11] [0:10] [0:12] [0:13] [0:12] [0:11] [0:11] [0:11] [0:10] [0:13] [0:9] [0:12] [0:13] [0:11] [0:12] [0:11] [0:12] [0:10] [0:10] [0:10] [0:10] [0:9] [0:12] [0:13] [0:11] [0:11] [0:9] [0:13] [0:11] [0:11] [0:9] [0:12] [0:12] [0:11] [0:10] [0:9] [0:10] [0:10] [0:11] [0:12] [0:10] [0:11] [0:14] [0:11] [0:10] [0:10] [0:9] [0:11] [0:11] [0:13] [0:12] [0:11] [0:10] [0:10] [0:12] [0:12] [0:11] [0:13] [0:11] [0:11] [0:11] [0:10] [0:11] [0:13] [0:12] [0:11] [0:11] [0:9] [0:15] [0:12] [0:11] [0:11] [0:9] [0:11] [0:10] [0:9] [0:11] [0:12] [0:9] [0:16] [0:10] [0:10] [0:11] [0:13] [0:9] [0:10] [0:10] [0:9] [0:11] [0:12] [0:11] [0:11] [0:11] [0:11] [0:11] [0:10] [0:11] [0:12] [0:9] [0:11] [0:10] [0:12] [0:10] [0:11] [0:12] [0:10] [0:10] [0:12] [0:11] [0:11] [0:11] [0:11] [0:11] [0:9] [0:10] [0:9] [0:12] [0:12] [0:11] [0:16] [0:15] [0:14] [0:13] [0:12] [0:12] [0:10] [0:10] [0:11] [0:13] [0:11] [0:9] [0:13] [0:11] [0:14] [0:10] [0:13] [0:12] [0:15] [0:10] [0:12] [0:10] [0:10] [0:13] [0:11] [0:9] [0:13] [0:9] [0:13] [0:12] [0:12] [0:11] [0:11] [0:11] [0:10] [0:10] [0:11] [0:10] [0:11] [0:10] [0:11] [0:11] [0:10] [0:9] [0:11] [0:12] [0:13] [0:11] [0:11] [0:9] [0:11] [0:10] [0:10] [0:10] [0:11] [0:11] [0:10] [0:10] [0:10] [0:12] [0:12] [0:12] [0:11] [0:9] [0:9] [0:12] [0:13] [0:12] [0:11] [0:13] [0:9] [0:9] [0:11] [0:15] [0:12] [0:11] [0:10] [0:11] [0:10] [0:10] [0:12] [0:13] [0:11] [0:10] [0:10] [0:10] [0:10] [0:11] [0:12] [0:12] [0:10] [0:11] [0:10] [0:11] [0:10] [0:9] [0:11] [0:10] [0:11] [0:17] [0:11] [0:13] [0:10] [0:14] [0:13] [0:11] [0:11] [0:12] [0:10] [0:13] [0:13] [0:11] [0:12] [0:10] [0:11] [0:10] [0:14] [0:13] [0:11] [0:12] [0:10] [0:11] [0:11] [0:12] [0:11] [0:14] [0:11] [0:10] [0:10] [0:12] [0:10] [0:12] [0:10] [0:13] [0:11] [0:11] [0:10] [0:9] [0:12] [0:9] [0:12] [0:11] [0:11] [0:15] [0:10] [0:10] [0:10] [0:9] [0:9] [0:14] [0:12] [0:10] [0:12] [0:9] [0:9] [0:10] [0:10] [0:10] [0:11] [0:9] [0:9] [0:11] [0:10] [0:12] [0:11] [0:9] [0:10] [0:13] [0:9] [0:11] [0:10] [0:10] [0:11] [0:13] [0:12] [0:12] [0:11] [0:14] [0:12] [0:12] [0:10] [0:15] [0:9] [0:11] [0:11] [0:10] [0:13] [0:10] [0:11] [0:10] [0:9] [0:11] [0:11] [0:13] [0:11] [0:10] [0:10] [0:11] [0:10] [0:12] [0:11] [0:10] [0:12] [0:11] [0:10] [0:10] [0:10] [0:9] [0:11] [0:9] [0:10] [0:12] [0:9] [0:11] [0:11] [0:13] [0:10] [0:9] [0:11] [0:11] [0:13] [0:10] [0:12] [0:10] [0:11] [0:12] [0:11] [0:11] [0:9] [0:12] [0:11] [0:9] [0:9] [0:11] [0:12] [0:11] [0:12] [0:13] [0:10] [0:12] [0:10] [0:11] [0:11] [0:11] [0:10] [0:10] [0:10] [0:11] [0:15] [0:10] [0:12] [0:10] [0:12] [0:10] [0:12] [0:11] [0:11] [0:11] [0:17] [0:12] [0:9] [0:10] [0:12] [0:13] [0:11] [0:11] [0:10] [0:10] [0:12] [0:11] [0:13] [0:10] [0:9] [0:11] [0:12] [0:9] [0:9] [0:9] [0:10] [0:12] [0:10] [0:9] [0:13] [0:12] [0:12] [0:11] [0:12] [0:10] [0:11] [0:10] [0:13] [0:12] [0:10] [0:12] [0:11] [0:10] [0:12] [0:10] [0:11] [0:9] [0:12] [0:11] [0:10] [0:11] [0:11] [0:9] [0:9] [0:11] [0:10] [0:13] [0:10] [0:11] [0:10] [0:12] [0:10] [0:11] [0:11] [0:10] [0:14] [0:11] [0:9] [0:10] [0:11] [0:10] [0:10] [0:9] [0:10] [0:11] [0:10] [0:10] [0:12] [0:10] [0:12] [0:11] [0:11] [0:12] [0:12] [0:9] [0:14] [0:13] [0:10] [0:11] [0:10] [0:11] [0:12] [0:12] [0:13] [0:14] [0:9] [0:11] [0:12] [0:10] [0:10] [0:12] [0:12] [0:10] [0:11] [0:11] [0:11] [0:10] [0:10] [0:12] [0:10] [0:11] [0:12] [0:12] [0:14] [0:12] [0:10] [0:10] [0:10] [0:10] [0:11] [0:12] [0:12] [0:12] [0:14] [0:12] [0:10] [0:10] [0:13] [0:11] [0:9] [0:11] [0:10] [0:10] [0:9] [0:10] [0:12] [0:12] [0:14] [0:13] [0:9] [0:11] [0:10] [0:12] [0:13] [0:14] [0:9] [0:11] [0:12] [0:10] [0:12] [0:10] [0:11] [0:11] [0:11] [0:11] [0:12] [0:11] [0:9] [0:11] [0:14] [0:11] [0:11] [0:11] [0:12] [0:9] [0:10] [0:11] [0:11] [0:13] [0:11] [0:9] [0:12] [0:13] [0:9] [0:11] [0:13] [0:11] [0:10] [0:128] [-44:23] [-34:96] [-21:30] [-139:25] [-88:44] [-43:18] [-85:24] [-133:30] [-42:19] [-19:28] [-139:41] [-139:43] [-22:126] [-23:24] [-45:32] [-35:17] [-136:39] [-26:86] [-98:32] [-28:40] [-42:146] [-21:32] [-28:88] [-144:22] [-20:30] [-28:128] [-68:23] [-37:48] [-24:143] [-91:26] [-25:88] [-43:138] [-136:21] [-44:17] [-39:32] [-25:21] [-37:44] [-49:33] [-64:28] [-28:23] [-23:18] [-90:83] [-41:27] [-47:113] [-140:31] [-19:28] [-103:20] [-46:20] [-31:43] [-31:19] [-102:29] [-25:42] [-19:25] [-49:40] [-25:165] [-38:30] [-188:24] [-27:82] [-46:31] [-27:21] [-25:88] [-262:24] [-135:88] [-28:20] [-25:44] [-20:25] [-30:27] [-26:21] [-37:21] [-19:32] [-30:27] [-142:18] [-25:30] [-30:196] [-27:24] [-33:147] [-23:42] [-46:195] [-79:30] [-21:45] [-36:50] [-103:26] [-34:144] [-43:52] [-43:26] [-104:88] [-108:93] [-51:45] [-85:25] [-59:20] [-284:29] [-24:62] [-25:96] [-21:93] [-41:27] [-20:91] [-48:92] [-42:19] [-26:34] [-98:27] [-70:23] [-45:127] [-89:31] [-20:46] [-139:21] [-27:20] [-31:45] [-26:83] [-27:50] [-26:31] [-139:46] [-60:47] [-44:21] [-24:24] [-138:22] [-22:21] [-97:46] [-29:88] [-26:25] [-44:27] [-129:26] [-20:95] [-34:140] [-23:43] [-19:103] [-41:49] [-32:32] [-28:32] [0:4294967040] [0:4294960384] [0:4294967296] [0:4294967296] [0:4278468608] [0:4278296576] [0:4278190080] [0:4278190080] [0:4082706176] [0:4294915072] [0:4278190336] [0:4278304768] [0:4278255360] [0:4278268672] [0:2767389696] [0:2210958336] none [0:4294967296] [0:4294967296] [0:4294967296] [0:4294967296] [0:4294967296] [0:4294967296] [0:4294967296] [0:4294967296] [0:4294967296] [0:4294967296] [0:4294967296] [0:4294967296] [0:4294967296] none none [0:1] [0:1] [0:96] [-110283104256:82150850560] [-183617863680:166403997696] [-1702244480:73210322944] [-149939126272:123376746496] [-168824782848:131567509504] [-125175750656:151986388992] [-112996892672:119104602112] [-149369487360:168474411008] [-2860563968:149182709760] [-179285262336:157455679488] [-22012469248:130101551104] [-145499291648:135723130880] [-125791846400:5400305664] [-175819325440:183017848832] [-127007883264:1014191680] [-4220081152:63000887296] [-53364596736:4179072768] [-113137205248:165986713600] [-123376828416:153510215680] [-155229765632:160836042752] [-9803940864:3121905664] [-168191606784:162286387200] [-184274190336:145787043840] [-135803551744:127528812544] [-118286630912:118759464960] [-191055593472:169723510784] [-163814326272:20178905088] [-112569696256:196190683136] [-3683025152:3874013440] [-70802423808:167443775488] [-109288153088:5871660544] [-22308382720:128334708736] [0:75] [0:1] [0:1] [0:1] [0:1] [0:24] [0:1698525952] [-2768480768:1698465920] [0:1] [0:1] [0:1] [0:1] [0:1] none [0:1] [0:1] [0:1] [0:1] [0:1] none none [0:1] [0:1] none none [0:1] none [0:1] none none none none none none none none none none none [0:1] none [0:1] none none [0:1] [0:1] none none [0:1] none none none none none none [0:1] [0:1] [0:1] [0:1] [0:1] [0:1] [0:1] none [0:1] none [0:1] [0:1] none [0:1] none [0:1] none [0:1] none [0:1] [0:1] [0:1] [0:1] none [0:1] [0:1] [0:1] none [0:1] [0:1] none none [0:1] [0:1] [0:1] none none [0:1] none [0:1] [0:19] [0:11.023354530334473] [-4.6438188552856445:5.2560386657714844] [-2.8932483196258545:6.7398161888122559] [-2.8930988311767578:4.1221714019775391] [-3.5611085891723633:4.8207302093505859] [-4.4277505874633789:2.9043598175048828] [-4.4757866859436035:2.8472471237182617] [-2.8547775745391846:3.1961677074432373] [-3.6053235530853271:3.6537492275238037] [-3.3094079494476318:3.2908086776733398] [-2.9189867973327637:2.842839241027832] [-4.6456036567687988:3.0831613540649414] [-2.6647164821624756:2.8661355972290039] [-3.6620855331420898:2.7927772998809814] [-2.225454568862915:2.7642879486083984] [-2.5704107284545898:2.7665650844573975] [-2.7098395824432373:2.809593677520752] [-2.6355245113372803:2.443793773651123] [-3.2199676036834717:2.4457180500030518] [-2.667323112487793:2.4772353172302246] [-2.6569693088531494:2.1061131954193115] [-2.5550239086151123:2.513258695602417] [-2.3868513107299805:2.6507606506347656] [-2.291496753692627:2.0463781356811523] [-2.1703286170959473:2.5236320495605469] [-2.4938163757324219:2.6232771873474121] [-2.5829076766967773:2.529468297958374] [-2.4111328125:2.3762760162353516] [-2.902275562286377:2.3958280086517334] [-2.8120174407958984:2.3814160823822021] [-2.45694899559021:2.9860770702362061] [-2.4228906631469727:2.3138456344604492] [-2.2131524085998535:1.9654014110565186] [-2.2983384132385254:2.4147179126739502] [-2.2755835056304932:2.1467206478118896] [-3.1032156944274902:2.0729124546051025] [-1.9108787775039673:2.303579568862915] [-2.059316873550415:2.4982686042785645] [-2.3127572536468506:2.0470221042633057] [-2.3268804550170898:2.1352427005767822] [-1.9602171182632446:2.3520705699920654] [-1.9137890338897705:1.9237565994262695] [-1.8801919221878052:2.0034396648406982] [-1.9482393264770508:1.8291208744049072] [-2.1893656253814697:2.2751965522766113] [-2.0684762001037598:2.1633379459381104] [-1.9600894451141357:1.9836235046386719] [-2.0260918140411377:2.0093207359313965] [-2.0302469730377197:2.2134163379669189] [-1.8771543502807617:1.7197682857513428] [-1.8734742403030396:2.2316303253173828] [-2.1637251377105713:2.236170768737793] [-1.9072734117507935:1.8306576013565063] [-1.9759511947631836:2.4008562564849854] [-1.7898490428924561:2.1148436069488525] [-2.0892748832702637:1.8614202737808228] [-1.7736731767654419:2.0276243686676025] [-2.2894392013549805:1.8038979768753052] [-2.0992207527160645:1.7046946287155151] [-2.1501245498657227:1.7931950092315674] [-2.2489597797393799:1.9771636724472046] [-1.6788005828857422:1.8045247793197632] [-2.0427215099334717:1.8657413721084595] [-1.7865434885025024:1.6468710899353027] [-1.6386728286743164:1.7480560541152954] [-1.9805965423583984:1.8661019802093506] [-1.9017421007156372:1.4732518196105957] [-1.6073266267776489:1.584574818611145] [-1.6433382034301758:1.80413818359375] [-1.7073862552642822:2.4690065383911133] [-1.9027150869369507:1.6439305543899536] [-1.8860244750976562:1.8615925312042236] [-1.5350711345672607:1.9263762235641479] [-1.8814570903778076:1.592341423034668] [-1.5224627256393433:2.2408816814422607] [-1.7999244928359985:1.5084323883056641] [-2.0362753868103027:1.5643011331558228] [-1.852415919303894:1.5088310241699219] [-1.4323011636734009:1.6232644319534302] [-2.0197386741638184:1.7018030881881714] [-1.7406430244445801:2.0933308601379395] [-1.8176851272583008:1.6865214109420776] [-1.4601835012435913:1.7603610754013062] [-1.5545246601104736:1.7380034923553467] [-1.4565387964248657:1.5538828372955322] [-1.571149468421936:1.5142368078231812] [-1.4764975309371948:1.7322417497634888] [-1.3676606416702271:1.6608684062957764] [-1.650416374206543:1.7080627679824829] [-1.5706189870834351:1.3647763729095459] [-1.4647717475891113:1.6633836030960083] [-1.6113150119781494:1.9628138542175293] [-1.4835765361785889:1.7885053157806396] [-1.4852762222290039:1.2743505239486694] [-1.4778361320495605:1.4419206380844116] [-1.3767130374908447:1.5265383720397949] [-1.4687472581863403:1.4670227766036987] [-1.4141641855239868:1.4227757453918457] [-1.7229151725769043:1.5943375825881958] [-1.5577219724655151:1.6572879552841187] [-1.3302439451217651:1.5292809009552002] [-1.598258376121521:1.6219778060913086] [-1.5258427858352661:1.630851149559021] [-1.3137238025665283:1.2835723161697388] [-1.4506806135177612:1.2877109050750732] [-1.6465635299682617:1.6010236740112305] [-1.8040487766265869:1.2794427871704102] [-1.528329610824585:1.3831198215484619] [-1.6397374868392944:1.4614714384078979] [-1.4278595447540283:2.0904285907745361] [-1.3453826904296875:1.3768302202224731] [-1.3683481216430664:1.4067968130111694] [-1.5109817981719971:1.2378193140029907] [-1.4868843555450439:1.4677379131317139] [-1.3755307197570801:1.4055004119873047] [-1.4609484672546387:1.2700068950653076] [-1.9046162366867065:1.3630269765853882] [-1.360211968421936:1.2682585716247559] [-1.359991192817688:1.5476101636886597] [-1.3228799104690552:1.4739305973052979] [-1.6816221475601196:1.8462346792221069] [-1.4106501340866089:1.3887138366699219] [-1.3563816547393799:1.368080735206604] [-1.26691734790802:1.689639687538147] [-1.331159234046936:1.4819620847702026] [-1.3694688081741333:1.5135161876678467] [-1.34478759765625:1.3550453186035156] [-1.2407611608505249:1.0891737937927246] [-1.1723992824554443:1.2696113586425781] [-1.527713418006897:1.1638181209564209] [-1.2650731801986694:1.2122730016708374] [-1.3533411026000977:1.1233608722686768] [-1.0778231620788574:1.6557968854904175] [-1.190037727355957:1.3901937007904053] [-1.3353445529937744:1.384169340133667] [-1.5233124494552612:1.1404355764389038] [-1.3329653739929199:1.2251111268997192] [-1.3418228626251221:1.3913600444793701] [-1.1764727830886841:1.4868019819259644] [-1.3209879398345947:1.4428919553756714] [-1.2476118803024292:1.1501983404159546] [-1.0612972974777222:1.2659084796905518] [-1.169497013092041:1.0157994031906128] [-0.88942110538482666:1.0295600891113281] [-0.98844921588897705:1.2652988433837891] [-1.2004671096801758:1.3345178365707397] [-1.377519965171814:1.4115805625915527] [-1.1029857397079468:1.2741266489028931] [-1.3076164722442627:1.2984282970428467] [-1.2198063135147095:1.4039294719696045] [-1.1774399280548096:1.0707459449768066] [-1.2248444557189941:1.2293227910995483] [-1.209331750869751:1.1531116962432861] [-1.1416914463043213:1.0571271181106567] [-1.1611062288284302:1.4132658243179321] [-1.0237162113189697:0.9971233606338501] [-1.432985782623291:1.2965935468673706] [-1.055113673210144:1.0360121726989746] [-1.0951840877532959:1.368931770324707] [-1.4070230722427368:1.5838435888290405] [-1.2580386400222778:1.4342596530914307] [-1.1962857246398926:1.5096615552902222] [-1.5746973752975464:1.3364605903625488] [-1.3995672464370728:1.3453876972198486] [-1.459015965461731:1.2665448188781738] [-1.1649465560913086:1.1731520891189575] [-1.2850238084793091:1.2878768444061279] [-0.99741131067276001:1.1061223745346069] [-1.3953598737716675:1.2400588989257812] [-1.0869154930114746:1.4437873363494873] [-1.308201789855957:1.1818236112594604] [-1.0828644037246704:1.265478253364563] [-1.2770122289657593:1.0648424625396729] [-1.0575462579727173:1.1919082403182983] [-1.2288593053817749:1.1131541728973389] [-1.1383181810379028:1.2425645589828491] [-1.051726222038269:1.3522709608078003] [-1.1122039556503296:1.2042768001556396] [-0.78677564859390259:1.0736647844314575] [-1.1645022630691528:1.0494639873504639] [-1.0712449550628662:1.2730065584182739] [-1.0222172737121582:1.43024742603302] [-1.0395214557647705:1.1687048673629761] [-0.99108922481536865:1.2851808071136475] [-1.1739516258239746:1.0098884105682373] [-0.94524312019348145:1.2085385322570801] [-0.98393446207046509:0.91853302717208862] [-1.0280020236968994:1.8005352020263672] [-0.98422050476074219:1.1230998039245605] [-1.0130852460861206:1.001153826713562] [-1.1742154359817505:1.1651159524917603] [-0.86290651559829712:1.2269594669342041] [-1.1859747171401978:0.94111442565917969] [-1.0553456544876099:1.0592446327209473] [-0.9624677300453186:0.97975480556488037] [-1.041046142578125:1.2912771701812744] [-1.106941819190979:1.0374163389205933] [-0.86982697248458862:1.2213301658630371] [-0.90816009044647217:1.1145460605621338] [-1.2058662176132202:0.82990384101867676] [-1.2174373865127563:1.0938163995742798] [-1.0415738821029663:1.0847649574279785] [-1.0500072240829468:0.87808787822723389] [-0.78633546829223633:0.89297342300415039] [-1.235601544380188:0.845630943775177] [-1.056873083114624:0.83546066284179688] [-0.7559320330619812:1.0829994678497314] [-1.3327318429946899:1.1377992630004883] [-0.7204088568687439:1.3001770973205566] [-0.81901872158050537:0.97665828466415405] [-0.89726775884628296:0.95791232585906982] [-0.80811107158660889:1.6506195068359375] [-0.86352050304412842:1.1909457445144653] [-0.89222925901412964:0.85597014427185059] [-0.99239170551300049:0.94364392757415771] [-1.1812397241592407:0.91275745630264282] [-0.85252612829208374:1.0786831378936768] [-0.86811280250549316:1.1011041402816772] [-0.98306089639663696:0.93289202451705933] [-0.82823753356933594:0.98677748441696167] [-0.9773290753364563:0.83409160375595093] [-0.93222182989120483:0.94395333528518677] [-1.0413627624511719:1.053534984588623] [-1.2116057872772217:0.81838983297348022] [-0.74522334337234497:1.1966981887817383] [-1.0528408288955688:0.84898144006729126] [-0.86257022619247437:0.94087773561477661] [-0.99676668643951416:1.0056475400924683] [-1.1584066152572632:0.83648824691772461] [-0.87718075513839722:0.80907231569290161] [-0.99778640270233154:0.78087848424911499] [-1.1131588220596313:1.1014425754547119] [-0.88858604431152344:0.8103596568107605] [-0.91174232959747314:0.75300580263137817] [-1.0971341133117676:0.87347543239593506] [-1.4735230207443237:1.491809606552124] [-0.76982545852661133:0.89000838994979858] [-0.681224524974823:1.3121302127838135] [-1.0879999399185181:0.89711344242095947] [-0.76602756977081299:0.68809151649475098] [-0.74040746688842773:1.1676620244979858] [-0.70427983999252319:0.67774689197540283] [-0.85209435224533081:1.0055100917816162] [-0.95088624954223633:1.1471878290176392] [-0.6169593334197998:0.76161015033721924] [-0.82136714458465576:0.68900501728057861] [-0.73764681816101074:0.88844907283782959] [-0.69776493310928345:0.9870951771736145] [-1.5444434881210327:0.96379131078720093] [-0.90959101915359497:1.0109562873840332] [-0.86820578575134277:0.75907385349273682] [-0.87988495826721191:0.65310007333755493] [-1.1292111873626709:0.87676364183425903] [-0.78239768743515015:0.91909044981002808] [-0.89210325479507446:0.81630158424377441] [-0.71747517585754395:0.93317615985870361]
tree_sizes=6268 7171 7178 7158 7161 7167 7177 7170 7200 7190 7190 7189 7234 7176 7220 7185 7210 7247 7205 7237 7213 7217 7205 7230 7246 7204 7245 7229 7244 7202 7254 7244 7245 7252 7235 7245 7259 7251 7249 7239 7244 7220 7242 7273 7225 7283 7249 7298 7258 7279 7239 7289 7278 7304 7283 7282 7267 7286 7283 7297 7286 7285 7282 7277 7286 7320 7310 7295 7267 7331 7334 7297 7286 7262 7325 7279 7322 7255 7293 7316 7306 7310 7285 7313 7304 7290 7308 7302 7319 7293 7287 7260 7289 7252 7326 7293 7292 7346 7271 7325 7292 7264 7303 7292 7317 7295 7288 7303 7318 7322 7260 7285 7299 7301 7311 7272 7320 7310 7332 7315 7253 7326 7289 7283 7303 7283 7282 7303 7335 7325 7308 7337 7261 7333 7315 7306 7250 7274 7312 7316 7287 7299 7299 7277 7270 7267 7279 7270 7274 7280 7304 7256 7285 7303 7252 7292 7298 7303 7286 7279 7292 7297 7309 7263 7283 7314 7254 7275 7279 7320 7309 7306 7313 7294 7235 7278 7259 7253 7270 7263 7267 7307 7249 7307 7281 7296 7313 7284 7320 7258 7290 7254 7249 7277 7330 7280 7292 7272 7228 7297 7298 7333 7264 7271 7279 7300 7262 7298 7312 7303 7255 7284 7287 7282 7274 7282 7326 7310 7284 7297 7267 7307 7257 7299 7288 7263 7324 7263 7280 7268 7293 7307 7304 7330 7312 7235 7281 7234 7244 7298 7273 7304 7287 7317 7366 7237 7263 7318 7236 7312 7241 7302 7273 7257 7280 7323 7277 7276 7257 7294 7317 7300 7283 7263 7263 7285 7296 7302 7326 7288 7319 7271 7315 7322 7307 7290 7331 7290 7308 7306 7227 7273 7267 7303 7357 7293 7299 7294 7275 7253 7294 7253 7305 7280 7292 7269 7270 7329 7257 7283 7240 7324 7290 7303 7290 7308 7280 7269 7344 7319 7293 7298 7285 7287 7253 7300 7266 7290 7229 7317 7296 7297 7312 7272 7287 7252 7294 7303 7311 7270 7302 7293 7326 7270 7287 7275 7207 7259 7263 7328 7262 7335 7301 7301 7258 7307 7283 7260 7301 7277 7253 7287 7311 7313 7287 7278 7298 7339 7303 7235 7301 7321 7323 7274 7314 7258 7280 7282 7302 7287 7321 7270 7288 7302 7301 7328 7242 7271 7263 7323 7283 7282 7316 7295 7287 7317 7258 7300 7307 7326 7312 7264 7268 7317 7300 7303 7291 7300 7222 7275 7268 7248 7277 7347 7301 7280 7216 7268 7277 7311 7325 7265 7332 7344 7308 7294 7313 7325 7277 7331 7323 7318 7293 7358 7278 7310 7271 7316 7275 7309 7308 7221 7305 7270 7288 7311 7278 7261 7306 7306 7308 7279 7309 7316 7334 7258 7309 7278 7294 7314 7297 7323 7305 7262 7336 7291 7280 7294 7299 7299 7282 7306 7307 7306 7271 7283 7300 7303 7248 7287 7315 7275 7287 7307 7302 7293 7255 7320 7299 7321 7273 7314 7335 7291 7278 7302 7300 7375 7275 7274 7266 7289 7309 7313 7332 7316

Tree=0
num_leaves=64
num_cat=1
split_feature=739 2478 1910 2547 1748 2547 2547 1995 874 2479 709 1908 1818 701 2276 696 2477 722 520 1725 822 991 2516 2429 695 994 1766 722 786 520 2479 2416 54 591 39 994 724 2429 913 526 713 696 664 180 1807 913 913 459 1996 860 613 913 775 381 991 503 792 140 724 654 2071 924 2410
split_gain=198912 70696.5 10320.6 3799.41 4532.23 3536.09 3411.97 2535.67 2105.51 2095.95 2024.03 1764.53 1475.2 1446.85 1416.15 1303.4 1208.24 1003.39 949.254 892.735 801.871 786.808 779.175 702.979 701.266 686.334 674.991 650.381 640.505 603.637 603.477 593.173 596.02 552.322 500.129 455.692 444.107 437.731 398.197 391.842 515.772 569.17 381.704 380.691 380.3 375.229 347.485 316.193 307.467 302.968 300.494 295.079 291.514 286.542 282.4 272.75 265.204 261.49 260.319 259.561 259.37 270.803 259.077
threshold=1.0000000180025095e-35 1332795968.0000002 1.0000000180025095e-35 1.0000000180025095e-35 1.0000000180025095e-35 1.0000000180025095e-35 1.0000000180025095e-35 1.0000000180025095e-35 490.00000000000006 -358545.48437499994 9.0000000000000018 1.0000000180025095e-35 1.0000000180025095e-35 0 1.0000000180025095e-35 1698442880.0000002 1.5000000000000002 65600.000000000015 11.422851562500002 1.0000000180025095e-35 -29567.999999999996 4082563.5000000005 1.0000000180025095e-35 698.00000000000011 4.5000000000000009 3.5000000000000004 1.0000000180025095e-35 1146880.0000000002 -66815.999999999985 11.592704296112062 1.0000000180025095e-35 45602816.000000007 0.00065790390362963091 0.031633106991648681 0.0052297415677458057 164.50000000000003 15335.500000000002 370.00000000000006 -4.8602378368377677 0.0038055148907005791 135416.00000000003 1404244032.0000002 9.5000000000000018 0.0019396527786739173 1.0000000180025095e-35 -7.0289235115051261 -1.0000000180025095e-35 0.0001131414064730052 1.0000000180025095e-35 8564.0000000000018 0.0004165550926700235 -7.5196321010589591 6.5534713268280038 0.00038743387267459189 57.500000000000007 9.8385764431441216e-05 -63487.999999999993 0.0036180299939587717 437.00000000000006 3.5000000000000004 1.0000000180025095e-35 5.5169708728790292 226208.00000000003
decision_type=2 2 2 2 2 2 2 2 2 2 2 2 2 9 2 2 2 2 2 2 2 2 2 2 2 2 2 2 2 2 2 2 2 2 2 2 2 2 2 2 2 2 2 2 2 2 2 2 2 2 2 2 2 2 2 2 2 2 2 2 2 2 2
left_child=1 2 3 4 7 8 22 10 44 15 11 13 18 14 16 -3 19 -5 21 26 -6 -10 29 -21 55 57 31 -7 -12 36 33 32 34 -8 -1 -14 38 -9 -2 52 41 -41 -27 -17 -4 -44 50 -23 60 -26 -36 -38 -22 54 -37 -16 -34 -11 -31 -35 61 -20 -33
right_child=6 9 5 17 20 27 30 37 12 25 28 -13 35 -15 24 43 -18 -19 48 23 39 47 -24 -25 49 42 -28 -29 -30 58 -32 62 56 59 46 53 51 -39 -40 40 -42 -43 45 -45 -46 -47 -48 -49 -50 -51 -52 -53 -54 -55 -56 -57 -58 -59 -60 -61 -62 -63 -64
leaf_value=0.17005820721769502 0.039554317548746526 0.19698113207547172 0.15863570391872281 -0.075555555555555556 -0.108356290174472 -0.10256410256410256 0.15186846038863977 0.098113207547169817 0.1255872220482305 -0.073092369477911645 0.1967741935483871 -0.067561521252796422 0.080091533180778038 -0.18095238095238098 -0.0891566265060241 -0.15381750465549349 -0.040892193308550186 0.19843889486574953 -0.053526970954356851 0.1364522417153996 0.12439862542955327 -0.12710706150341686 0.10985915492957748 -0.1217877094972067 -0.072218917311124328 -0.013458528951486699 -0.027522935779816515 0.19679001337494428 -0.16115384615384618 -0.17647197362223269 -0.16768402154398565 -0.17404580152671756 -0.074213836477987419 -0.087794432548179868 -0.0063010501750291716 0.081967213114754106 0.085714285714285715 -0.11060515278609946 -0.12242545727887749 -0.11664964249233911 0.11052984574111335 0.18780487804878049 -0.01239530988274707 0.10133333333333334 -0.11705069124423964 -0.17304666687560724 0.15759084121453459 0.053448275862068961 -0.12343665035345297 0.15571955719557196 0.11400247831474597 -0.17771186440677966 -0.099236641221374045 -0.15679473106476402 -0.10970081595648232 0.18716773602199818 0.18603901026948791 0.13559322033898305 -0.19691652297393247 0.10528967254408061 -0.15388235294117647 0.10034443168771529 0.09736842105263159
leaf_weight=2146.5 178.5 264 688 134 543.5 77 333.5 131.5 797.25 185.75 61 334.25 108.25 115 40.5 267.5 268 21842.5 240 255.5 71.75 218.5 87.75 178 419.25 158.75 162.5 1120.5 259 8491 138.25 64.5 38.75 232.5 427.5 105.75 42.75 416.25 996.75 243.75 744.5 81 148.25 74 53.25 7975.75 501.25 173 458.75 66.75 402.5 2359 293.75 1137.75 274.75 271.75 18135.25 87.5 24646.5 98.25 105.25 216.75 75
leaf_count=8586 714 1056 2752 536 2174 308 1334 526 3189 743 244 1337 433 460 162 1070 1072 87370 960 1022 287 874 351 712 1677 635 650 4482 1036 33964 553 258 155 930 1710 423 171 1665 3987 975 2978 324 593 296 213 31903 2005 692 1835 267 1610 9436 1175 4551 1099 1087 72541 350 98586 393 421 867 300
internal_value=4.78931e-05 0.107764 0.15097 0.165951 0.140627 0.0245596 -0.182303 0.15226 -0.0154753 -0.14925 0.157071 0.160416 -0.0452958 0.163652 0.165356 0.0305029 0.170039 0.196765 0.00791676 0.172566 -0.00502716 0.0686279 -0.186751 0.0303797 0.0344698 -0.161973 0.175372 0.177472 -0.0925234 -0.187463 0.0216553 0.176886 0.178211 0.0612552 0.14018 -0.117542 -0.148323 -0.06041 -0.0978108 0.0341633 0.0647045 -0.0403684 -0.167116 -0.0983942 0.1387 -0.170117 0.0919122 -0.0473885 -0.0627844 -0.0406571 0.0521059 -0.172989 -0.055116 -0.131677 -0.0563565 0.151157 0.18548 -0.00601641 -0.191683 -0.0302939 -0.0131439 0.0195522 -0.0284698
internal_weight=101266 63661.5 54500 48725.2 26748.8 5774.75 37604.8 24770.5 4577.25 9161.5 24222.8 23902.8 3836 23568.5 23453.5 605.5 22655.2 21976.5 2209.5 22387.2 1978.25 1188.75 36802.2 433.5 798.25 8556 21953.8 1197.5 320 36714.5 802.5 21791.2 21651.8 664.25 3477.75 1626.5 3577 547.75 1175.25 1434.75 1069.25 324.75 8282.75 341.5 741.25 8124 1331.25 391.5 1020.75 486 830 2401.75 365.5 1518.25 380.5 312.25 18174 273.25 33137.5 330.75 562 456.75 139.5
internal_count=405065 254646 218000 194901 106995 23099 150419 99082 18309 36646 96891 95611 15344 94274 93814 2422 90621 87906 8838 89549 7913 4755 147209 1734 3193 34224 87815 4790 1280 146858 3210 87165 86607 2657 13911 6506 14308 2191 4701 5739 4277 1299 33131 1366 2965 32496 5325 1566 4083 1944 3320 9607 1462 6073 1522 1249 72696 1093 132550 1323 2248 1827 558
cat_boundaries=0 2
cat_threshold=3 1
is_linear=0
shrinkage=0.1


Tree=1
num_leaves=64
num_cat=2
split_feature=739 2479 1910 2547 1748 2547 2547 709 1995 2409 2413 1908 2413 701 1818 2276 520 722 696 1818 1803 2414 618 872 992 2547 786 2413 695 2567 2113 860 2479 2237 956 699 933 962 775 2309 2071 381 712 775 2145 1830 2429 1996 520 2468 412 1861 696 775 724 2409 2405 562 913 786 413 2477 702
split_gain=162764 57825 8692.41 3315.41 3711.2 2984.06 2731.73 2267.29 2075.02 1764.29 1512.36 1284.27 1192.22 1152.33 1080.81 1055.81 874.639 786.143 735.202 1173.35 727.081 699.177 650.885 637.793 636.63 600.604 573.842 546.56 529.536 519.372 515.857 506.871 495.708 477.934 460.65 453.03 434.54 425.129 420.029 399.7 382.491 367.267 359.351 353.714 342.441 336.62 333.203 327.877 317.145 397.136 310.087 451.356 548.857 309.233 307.397 339.017 580.866 591.151 293.285 293.173 288.452 285.936 284.922
threshold=1.0000000180025095e-35 1.0000000180025095e-35 1.0000000180025095e-35 1.0000000180025095e-35 1.0000000180025095e-35 1.0000000180025095e-35 1.0000000180025095e-35 9.0000000000000018 1.0000000180025095e-35 570.00000000000011 2956.0000000000005 1.0000000180025095e-35 7428.0000000000009 0 1.0000000180025095e-35 1.0000000180025095e-35 11.422851562500002 65600.000000000015 1243761536.0000002 1.0000000180025095e-35 1.0000000180025095e-35 13321216.000000002 6.1591317653656015 -29292.499999999996 0.7698098123073579 1.0000000180025095e-35 -66815.999999999985 6028.0000000000009 4.5000000000000009 4.5000000000000009 1.0000000180025095e-35 21982.000000000004 1.0000000180025095e-35 1.0000000180025095e-35 1.0000000180025095e-35 236.00000000000003 3.5000000000000004 1.5000000000000002 6.7327220439910898 4.5000000000000009 1.0000000180025095e-35 0.00046314002247527247 624.00000000000011 6.486077308654786 1.0000000180025095e-35 1.0000000180025095e-35 370.00000000000006 1.0000000180025095e-35 15.007815837860109 -1.0000000180025095e-35 0.0019159268122166397 1.0000000180025095e-35 1694776000.0000002 6.5646393299102792 10507.000000000002 714.00000000000011 82.500000000000014 0.0044298106804490098 -7.0289235115051261 -6079.9999999999991 0.00025143160019069915 1.5000000000000002 1
decision_type=2 2 2 2 2 2 2 2 2 2 2 2 2 9 2 2 2 2 2 2 2 2 2 2 2 2 2 2 2 2 2 2 2 2 2 2 2 2 2 2 2 2 2 2 2 2 2 2 2 2 2 2 2 2 2 2 2 2 2 2 2 2 9
left_child=1 2 3 4 7 9 22 8 10 44 11 13 25 15 16 18 21 -5 19 30 48 31 29 -6 -21 -3 -9 35 -17 54 -1 43 34 45 38 -24 40 -7 -8 -40 -20 -16 -14 -11 -4 -32 -10 -18 49 -12 51 -25 -53 -52 55 56 57 -2 -44 -37 -33 -50 -35
right_child=6 12 5 17 23 37 32 26 46 14 20 -13 42 -15 41 28 47 -19 36 24 -22 -23 27 50 -26 -27 -28 -29 -30 -31 33 60 -34 62 -36 59 -38 -39 39 -41 -42 -43 58 -45 -46 -47 -48 -49 61 -51 53 52 -54 -55 -56 -57 -58 -59 -60 -61 -62 -63 -64
leaf_value=0.16285542099094219 -0.12492233768848048 -0.078215407143962051 0.1433670087196279 -0.06508321609229599 -0.096417017117263998 0.17919333187749642 -0.085556283036955047 0.1791837442104689 0.084682632295493721 -0.12805759457544938 -0.078555402894673693 -0.054243342064318127 -0.022346119618793105 -0.1654037208668323 -0.031114992964273905 0.1403684782318548 -0.0084813940740971674 0.18060870608459534 0.17225364921230438 0.061766933025140108 -0.1011950896042694 -0.16540588411878093 -0.089049117361296545 0.10389440505791665 -0.16414619416825166 0.11227353843610235 -0.15328734318605922 -0.17082503657463299 -0.031716084258819333 -0.0031904610435212659 0.098318618349211309 -0.14061676650877905 -0.15440944264697892 0.14491868647732911 -0.084444052123403987 -0.14853813780881048 -0.011755489527709564 -0.072540450109725096 0.17968607356385402 -0.18928095874214951 -0.0016884455129146476 -0.13613774639466764 -0.014226523663066901 0.14603999363293493 -0.14486305639473662 -0.11666134701787079 -0.10005082384082804 -0.11753136391703618 0.12626802676319379 0.14091293525059531 0.12589742743893587 -0.10118835923688362 0.17894389715747305 -0.10445164835744421 -0.17869417928703835 -0.16785852566292384 -0.16383918310641202 0.047335484488284951 -0.16044505848578361 0.15635049416986521 0.058842869304701555 -0.078132784545287007 -0.062248128256076576
leaf_weight=3239.6364298015833 503.29267671704292 731.02565132081509 694.48372927308083 130.56357629597187 556.04269570112228 1090.7367784529924 93.524140655994415 60.660905763506889 128.19125011563301 49.557434946298599 93.382260590791702 299.9076259881258 201.6039886623621 106.37682862579823 472.9376510232687 299.62256383895874 556.32049123942852 21519.553989887238 16471.36499209702 403.64732520282269 280.08240899443626 121.83017824590206 441.36655697226524 695.8737038820982 179.33168496191502 212.93695099651814 331.17553736269474 530.87597700953484 440.63480852544308 180.95649601519108 125.29518535733223 124.0558120906353 137.77920909225941 643.574986577034 176.37824466824532 38.770920559763908 131.12330050766468 70.959537401795387 357.79443745315075 31.17171673476696 127.37726423144341 1129.9577128142118 139.96787886321545 733.19627851247787 43.033812865614891 171.14979346096516 400.26246020197868 545.95193690061569 103.71238471567631 668.45555792748928 73.913363352417946 282.56251467764378 91.863544493913651 262.56177870929241 25818.028761148453 7145.8309519290924 1309.5296391844749 328.62291108071804 7425.607353001833 153.61928610503674 171.62554639577866 196.5781481564045 72.21438080072403
leaf_count=13063 2028 2938 2795 523 2231 4405 375 245 514 199 376 1201 809 429 1897 1208 2231 86928 66429 1625 1126 489 1776 2792 721 858 1333 2141 1766 729 505 498 555 2592 708 156 528 285 1438 125 512 4547 560 2944 173 688 1606 2193 418 2693 297 1134 370 1053 104263 28797 5276 1323 29923 617 688 790 290
internal_value=7.46828e-06 0.0978536 0.136163 0.149981 0.126551 0.0205012 -0.165756 0.136957 0.140761 -0.0153725 0.145068 0.151164 -0.141335 0.153915 -0.0421663 0.15545 0.00173338 0.179124 0.15955 0.125141 0.0418855 0.0607724 -0.169759 -0.00584629 -0.00788887 -0.035172 -0.101492 -0.0960704 0.0380313 -0.172188 0.143378 0.0864532 0.0174092 0.0809429 0.0535185 -0.0332805 0.169486 0.163768 0.104022 0.149708 0.170919 -0.105189 -0.154231 0.128545 0.126376 -0.025773 -0.0551632 -0.0625511 0.0796754 0.113944 0.0299958 0.0563105 -0.0321658 -0.0536278 -0.173059 -0.157378 -0.122342 -0.056902 -0.157742 0.0944583 -0.0250341 -0.00735338 0.125114
internal_weight=100350 63102.5 54391.3 48586.7 26936.6 5804.65 37247.5 24973.8 24581.9 4642.95 24053.5 22711.3 8711.14 22411.3 3905.43 22305 2302.54 21650.1 21564.7 4834.85 1342.21 1200.27 36450.9 1962.82 582.979 943.963 391.836 1164.63 740.257 35286.3 4251.87 1078.44 796.648 1012.23 658.869 633.757 16729.9 1161.7 482.49 388.966 16598.7 1602.9 7767.18 782.754 737.518 296.445 528.454 1102.27 1062.13 761.838 1406.77 1070.3 374.426 336.475 35105.3 9287.28 2141.45 831.916 7565.58 192.39 295.681 300.291 715.789
internal_count=404725 254418 219330 195986 108535 23344 150307 100658 99080 18654 96960 91557 35088 90356 15686 89927 9242 87451 86953 19484 5403 4818 147106 7877 2346 3796 1578 4690 2974 142416 17138 4329 3201 4075 2646 2549 67469 4690 1938 1563 66941 6444 31292 3143 2968 1193 2120 4424 4277 3069 5646 4296 1504 1350 141687 37424 8627 3351 30483 773 1186 1208 2882
cat_boundaries=0 2 3
cat_threshold=3 1 4
is_linear=0
shrinkage=0.1


Tree=2
num_leaves=64
num_cat=1
split_feature=739 2478 1452 2547 1748 2547 709 2547 1908 1861 2479 2414 722 701 2417 123 913 666 2497 2126 664 895 1766 618 1943 1995 504 604 517 993 1687 520 466 696 696 1278 824 512 712 560 1464 1350 994 509 724 520 2477 2478 724 2417 708 924 715 913 506 1707 711 471 628 215 886 919 1197
split_gain=135357 47987.9 7112.2 3396.88 4563.91 2344.39 2150.79 2006.96 1729.82 1470.17 1454.17 1246.81 1075.73 1036.96 971.129 732.955 707.275 661.936 659.664 647.643 571.623 554.676 511.855 506.355 499.733 487.894 472.922 468.683 423.005 422.33 410.653 403.067 498.952 394.476 372.938 351.604 330.594 326.92 325.672 319.784 317.603 313.221 309.687 286.773 286.647 303.619 286.598 281.438 279.775 321.866 266.08 263.768 248.647 247.431 244.91 254.639 240.737 240.468 232.412 237.044 223.925 217.078 214.455
threshold=1.0000000180025095e-35 1337352320.0000002 1.0000000180025095e-35 1.0000000180025095e-35 1.0000000180025095e-35 1.0000000180025095e-35 9.0000000000000018 1.0000000180025095e-35 1.0000000180025095e-35 1.0000000180025095e-35 -358545.48437499994 10776872.000000002 65600.000000000015 0 83.500000000000014 0.010850991122424604 -0.036232694983482354 1.0000000180025095e-35 1.0000000180025095e-35 1.0000000180025095e-35 9.5000000000000018 6.2067956924438485 1.0000000180025095e-35 6.1481122970581064 1.0000000180025095e-35 1.0000000180025095e-35 0.0002110425411956385 0.023515705950558189 0.0026044151745736603 7.3838565349578866 1.5000000000000002 13.249475955963137 2.1923060558037836e-05 1235519744.0000002 1688012224.0000002 1.0000000180025095e-35 28276.000000000004 0.0047772577963769445 624.00000000000011 0.0047184983268380174 1.0000000180025095e-35 1.5000000000000002 164.50000000000003 0.0012498434516601267 10507.000000000002 15.262392997741701 1.5000000000000002 1499334336.0000002 15335.500000000002 14.500000000000002 1.5000000000000002 7.6192739009857187 7696.0000000000009 -7.0289235115051261 0.0011731856502592566 1.0000000180025095e-35 3256576.0000000005 0.0083856917917728441 2.5000000000000004 0.00048829315346665691 -5.4211819171905509 1.2761909365653994 1.0000000180025095e-35
decision_type=2 2 2 2 2 2 2 2 2 2 2 2 2 9 2 2 2 2 2 2 2 2 2 2 2 2 2 2 2 2 2 2 2 2 2 2 2 2 2 2 2 2 2 2 2 2 2 2 2 2 2 2 2 2 2 2 2 2 2 2 2 2 2
left_child=1 2 3 4 6 18 8 17 9 11 14 13 -5 15 -3 22 33 24 23 31 57 30 25 44 26 35 -4 47 -10 36 39 32 34 43 -6 46 60 -8 -22 62 -27 48 -19 -17 45 54 -1 -7 50 -50 61 -44 -21 -40 -2 -56 -41 -12 -47 -60 -25 -35 -11
right_child=5 10 7 12 19 27 37 -9 28 21 20 -13 -14 -15 -16 16 -18 42 -20 52 38 -23 -24 29 -26 40 -28 -29 -30 -31 -32 -33 -34 41 -36 -37 -38 -39 53 56 -42 -43 51 -45 -46 58 -48 -49 49 -51 -52 -53 -54 -55 55 -57 -58 -59 59 -61 -62 -63 -64
leaf_value=0.15800014231340975 -0.13122255355244841 0.12216283759749286 -0.078523624333093955 -0.071455133844830834 -0.076646595367593814 0.12428773136525909 -0.14861029837849235 0.15590183356573498 -0.10939700183726833 -0.10225252530753193 0.16510405778645976 -0.099524275482062691 0.16690346961204244 -0.15441335428281686 -0.14564342898111696 -0.042075542255985483 0.15003041492450031 0.071746340197188632 0.09102442002587767 -0.13614685453430933 -0.019591928365345877 0.15513350728303971 -0.073308284869461546 -0.079249477647593353 -0.14742133680291969 0.12948597676090765 0.11063336674492147 -0.060635339324734285 0.10347094278151313 -0.15573868647980904 -0.11168635534072174 -0.076054738824577028 0.074832356630043603 0.14002697823636998 0.16606989946819523 -0.049018346780228372 -0.12472141445209045 0.093985117076365754 -0.015817860247220632 0.089271566566594449 -0.11629457046894826 -0.14546520820478584 -0.11171903545607489 0.10439070970357155 -0.16507872381833411 -0.1595970150119313 0.019555113531673732 -0.12963698434944301 0.10404404831204189 -0.033621820210856711 -0.13894110478998278 0.042219009426682982 0.092641088717646591 -0.14553812903080232 -0.079417623370594076 0.14914486524607826 -0.11444755205789772 -0.062007404442821226 0.18339293830306336 -0.14793651454459963 0.079656751391872282 -0.10711879459334327 0.058634674026508016
leaf_weight=16845.235825628042 2524.9210154563189 379.40622478723526 183.70785772800446 190.49371019005775 468.07146544754505 352.70263656973839 325.31355760991573 535.35521470010281 372.41049507260323 218.32560785114765 81.234594911336899 216.50843515992165 21686.369755268097 111.86788998544216 209.26423341035843 416.99757158756256 2362.1481211483479 110.14524441957474 106.67068156599998 482.50743387639523 219.88729152083397 348.03461255133152 99.170300751924515 138.80008326470852 145.56111824512482 100.2734277099371 464.84088869392872 389.91127797961235 123.59368450939655 576.78087063133717 217.90946839749813 425.08252319693565 1019.4954698979855 1366.7262755781412 72.225081503391266 83.011864826083183 258.45625814795494 66.229650497436523 150.15212126076221 727.39294655621052 108.34091246128082 51.817127674818039 1567.3820270299911 195.53358674049377 25256.788679286838 5966.3923546820879 151.17079696059227 48.968175441026688 430.83309832215309 279.27874326705933 35.974465668201447 119.3090995401144 51.981677666306496 7740.6886542141438 461.59723106026649 53.55748338997364 62.177860289812088 106.78717286884785 39.565608009696007 45.169249206781387 241.64828553795815 35.795519202947617 132.31801281869411
leaf_count=69382 10353 1550 744 766 1895 1440 1328 2214 1500 884 326 876 89888 460 851 1688 9735 443 431 1955 883 1429 399 565 592 405 1892 1580 499 2373 880 1719 4119 5599 298 337 1052 272 601 2968 438 210 6355 799 104600 24558 608 201 1761 1136 146 482 210 31802 1890 218 252 429 163 186 978 144 538
internal_value=3.12905e-05 0.0900705 0.126125 0.135295 0.112221 -0.152809 0.124914 -0.020183 0.128544 0.132273 -0.124959 0.138947 0.164825 0.141229 0.0268759 0.142706 0.109684 -0.0566127 -0.156586 -0.0161689 -0.135731 0.0426923 0.15261 -0.157332 0.0194028 0.15391 0.0570144 0.0173864 -0.0562534 -0.0937737 0.013785 0.0101558 0.0336841 0.0757623 -0.0439542 0.155767 -0.0376779 -0.10744 -0.139727 0.037841 0.00189746 0.0955122 -0.0901998 0.00477369 -0.159578 -0.144281 0.15677 0.0930864 0.101389 0.0499305 0.126739 -0.100812 -0.113765 -0.143072 -0.118399 -0.0554125 0.0731044 0.0364702 -0.157262 0.00710712 0.0216268 0.133647 -0.0415464
internal_weight=98356.3 61894.3 53006.9 49880.6 28003.8 36461.9 25484.4 3126.3 25092.8 24596.8 8887.42 22890.7 21876.9 22674.2 588.67 22562.3 5175.1 2590.95 35670.3 2519.36 8298.75 1706.16 17387.2 35563.7 794.11 17288 648.549 791.582 496.004 1215.69 1358.12 1984.87 1559.79 2812.96 540.297 17079.4 638.905 391.543 8110.73 1140.21 208.614 2200.43 1796.84 612.531 34348 9091.2 16996.4 401.671 2148.61 710.112 1438.5 1686.69 534.489 7890.84 3040.08 515.155 789.571 188.022 6051.13 84.7349 380.448 1402.52 350.644
internal_count=405275 254687 218245 205523 114869 150588 104673 12722 103073 101074 36442 94123 90654 93247 2401 92787 21218 10508 147367 10196 34041 6951 71569 146936 3228 71170 2636 3221 1999 4968 5522 8031 6312 11483 2193 70327 2595 1600 33286 4642 843 8996 7280 2487 141968 37368 69990 1641 8786 2897 5889 6837 2165 32403 12461 2108 3220 755 24907 349 1543 5743 1422
cat_boundaries=0 2
cat_threshold=3 1
is_linear=0
shrinkage=0.1


Tree=3
num_leaves=64
num_cat=1
