tree
version=v4
num_class=1
num_tree_per_iteration=1
label_index=0
max_feature_idx=2631
objective=binary sigmoid:1
feature_names=Column_0 Column_1 Column_2 Column_3 Column_4 Column_5 Column_6 Column_7 Column_8 Column_9 Column_10 Column_11 Column_12 Column_13 Column_14 Column_15 Column_16 Column_17 Column_18 Column_19 Column_20 Column_21 Column_22 Column_23 Column_24 Column_25 Column_26 Column_27 Column_28 Column_29 Column_30 Column_31 Column_32 Column_33 Column_34 Column_35 Column_36 Column_37 Column_38 Column_39 Column_40 Column_41 Column_42 Column_43 Column_44 Column_45 Column_46 Column_47 Column_48 Column_49 Column_50 Column_51 Column_52 Column_53 Column_54 Column_55 Column_56 Column_57 Column_58 Column_59 Column_60 Column_61 Column_62 Column_63 Column_64 Column_65 Column_66 Column_67 Column_68 Column_69 Column_70 Column_71 Column_72 Column_73 Column_74 Column_75 Column_76 Column_77 Column_78 Column_79 Column_80 Column_81 Column_82 Column_83 Column_84 Column_85 Column_86 Column_87 Column_88 Column_89 Column_90 Column_91 Column_92 Column_93 Column_94 Column_95 Column_96 Column_97 Column_98 Column_99 Column_100 Column_101 Column_102 Column_103 Column_104 Column_105 Column_106 Column_107 Column_108 Column_109 Column_110 Column_111 Column_112 Column_113 Column_114 Column_115 Column_116 Column_117 Column_118 Column_119 Column_120 Column_121 Column_122 Column_123 Column_124 Column_125 Column_126 Column_127 Column_128 Column_129 Column_130 Column_131 Column_132 Column_133 Column_134 Column_135 Column_136 Column_137 Column_138 Column_139 Column_140 Column_141 Column_142 Column_143 Column_144 Column_145 Column_146 Column_147 Column_148 Column_149 Column_150 Column_151 Column_152 Column_153 Column_154 Column_155 Column_156 Column_157 Column_158 Column_159 Column_160 Column_161 Column_162 Column_163 Column_164 Column_165 Column_166 Column_167 Column_168 Column_169 Column_170 Column_171 Column_172 Column_173 Column_174 Column_175 Column_176 Column_177 Column_178 Column_179 Column_180 Column_181 Column_182 Column_183 Column_184 Column_185 Column_186 Column_187 Column_188 Column_189 Column_190 Column_191 Column_192 Column_193 Column_194 Column_195 Column_196 Column_197 Column_198 Column_199 Column_200 Column_201 Column_202 Column_203 Column_204 Column_205 Column_206 Column_207 Column_208 Column_209 Column_210 Column_211 Column_212 Column_213 Column_214 Column_215 Column_216 Column_217 Column_218 Column_219 Column_220 Column_221 Column_222 Column_223 Column_224 Column_225 Column_226 Column_227 Column_228 Column_229 Column_230 Column_231 Column_232 Column_233 Column_234 Column_235 Column_236 Column_237 Column_238 Column_239 Column_240 Column_241 Column_242 Column_243 Column_244 Column_245 Column_246 Column_247 Column_248 Column_249 Column_250 Column_251 Column_252 Column_253 Column_254 Column_255 Column_256 Column_257 Column_258 Column_259 Column_260 Column_261 Column_262 Column_263 Column_264 Column_265 Column_266 Column_267 Column_268 Column_269 Column_270 Column_271 Column_272 Column_273 Column_274 Column_275 Column_276 Column_277 Column_278 Column_279 Column_280 Column_281 Column_282 Column_283 Column_284 Column_285 Column_286 Column_287 Column_288 Column_289 Column_290 Column_291 Column_292 Column_293 Column_294 Column_295 Column_296 Column_297 Column_298 Column_299 Column_300 Column_301 Column_302 Column_303 Column_304 Column_305 Column_306 Column_307 Column_308 Column_309 Column_310 Column_311 Column_312 Column_313 Column_314 Column_315 Column_316 Column_317 Column_318 Column_319 Column_320 Column_321 Column_322 Column_323 Column_324 Column_325 Column_326 Column_327 Column_328 Column_329 Column_330 Column_331 Column_332 Column_333 Column_334 Column_335 Column_336 Column_337 Column_338 Column_339 Column_340 Column_341 Column_342 Column_343 Column_344 Column_345 Column_346 Column_347 Column_348 Column_349 Column_350 Column_351 Column_352 Column_353 Column_354 Column_355 Column_356 Column_357 Column_358 Column_359 Column_360 Column_361 Column_362 Column_363 Column_364 Column_365 Column_366 Column_367 Column_368 Column_369 Column_370 Column_371 Column_372 Column_373 Column_374 Column_375 Column_376 Column_377 Column_378 Column_379 Column_380 Column_381 Column_382 Column_383 Column_384 Column_385 Column_386 Column_387 Column_388 Column_389 Column_390 Column_391 Column_392 Column_393 Column_394 Column_395 Column_396 Column_397 Column_398 Column_399 Column_400 Column_401 Column_402 Column_403 Column_404 Column_405 Column_406 Column_407 Column_408 Column_409 Column_410 Column_411 Column_412 Column_413 Column_414 Column_415 Column_416 Column_417 Column_418 Column_419 Column_420 Column_421 Column_422 Column_423 Column_424 Column_425 Column_426 Column_427 Column_428 Column_429 Column_430 Column_431 Column_432 Column_433 Column_434 Column_435 Column_436 Column_437 Column_438 Column_439 Column_440 Column_441 Column_442 Column_443 Column_444 Column_445 Column_446 Column_447 Column_448 Column_449 Column_450 Column_451 Column_452 Column_453 Column_454 Column_455 Column_456 Column_457 Column_458 Column_459 Column_460 Column_461 Column_462 Column_463 Column_464 Column_465 Column_466 Column_467 Column_468 Column_469 Column_470 Column_471 Column_472 Column_473 Column_474 Column_475 Column_476 Column_477 Column_478 Column_479 Column_480 Column_481 Column_482 Column_483 Column_484 Column_485 Column_486 Column_487 Column_488 Column_489 Column_490 Column_491 Column_492 Column_493 Column_494 Column_495 Column_496 Column_497 Column_498 Column_499 Column_500 Column_501 Column_502 Column_503 Column_504 Column_505 Column_506 Column_507 Column_508 Column_509 Column_510 Column_511 Column_512 Column_513 Column_514 Column_515 Column_516 Column_517 Column_518 Column_519 Column_520 Column_521 Column_522 Column_523 Column_524 Column_525 Column_526 Column_527 Column_528 Column_529 Column_530 Column_531 Column_532 Column_533 Column_534 Column_535 Column_536 Column_537 Column_538 Column_539 Column_540 Column_541 Column_542 Column_543 Column_544 Column_545 Column_546 Column_547 Column_548 Column_549 Column_550 Column_551 Column_552 Column_553 Column_554 Column_555 Column_556 Column_557 Column_558 Column_559 Column_560 Column_561 Column_562 Column_563 Column_564 Column_565 Column_566 Column_567 Column_568 Column_569 Column_570 Column_571 Column_572 Column_573 Column_574 Column_575 Column_576 Column_577 Column_578 Column_579 Column_580 Column_581 Column_582 Column_583 Column_584 Column_585 Column_586 Column_587 Column_588 Column_589 Column_590 Column_591 Column_592 Column_593 Column_594 Column_595 Column_596 Column_597 Column_598 Column_599 Column_600 Column_601 Column_602 Column_603 Column_604 Column_605 Column_606 Column_607 Column_608 Column_609 Column_610 Column_611 Column_612 Column_613 Column_614 Column_615 Column_616 Column_617 Column_618 Column_619 Column_620 Column_621 Column_622 Column_623 Column_624 Column_625 Column_626 Column_627 Column_628 Column_629 Column_630 Column_631 Column_632 Column_633 Column_634 Column_635 Column_636 Column_637 Column_638 Column_639 Column_640 Column_641 Column_642 Column_643 Column_644 Column_645 Column_646 Column_647 Column_648 Column_649 Column_650 Column_651 Column_652 Column_653 Column_654 Column_655 Column_656 Column_657 Column_658 Column_659 Column_660 Column_661 Column_662 Column_663 Column_664 Column_665 Column_666 Column_667 Column_668 Column_669 Column_670 Column_671 Column_672 Column_673 Column_674 Column_675 Column_676 Column_677 Column_678 Column_679 Column_680 Column_681 Column_682 Column_683 Column_684 Column_685 Column_686 Column_687 Column_688 Column_689 Column_690 Column_691 Column_692 Column_693 Column_694 Column_695 Column_696 Column_697 Column_698 Column_699 Column_700 Column_701 Column_702 Column_703 Column_704 Column_705 Column_706 Column_707 Column_708 Column_709 Column_710 Column_711 Column_712 Column_713 Column_714 Column_715 Column_716 Column_717 Column_718 Column_719 Column_720 Column_721 Column_722 Column_723 Column_724 Column_725 Column_726 Column_727 Column_728 Column_729 Column_730 Column_731 Column_732 Column_733 Column_734 Column_735 Column_736 Column_737 Column_738 Column_739 Column_740 Column_741 Column_742 Column_743 Column_744 Column_745 Column_746 Column_747 Column_748 Column_749 Column_750 Column_751 Column_752 Column_753 Column_754 Column_755 Column_756 Column_757 Column_758 Column_759 Column_760 Column_761 Column_762 Column_763 Column_764 Column_765 Column_766 Column_767 Column_768 Column_769 Column_770 Column_771 Column_772 Column_773 Column_774 Column_775 Column_776 Column_777 Column_778 Column_779 Column_780 Column_781 Column_782 Column_783 Column_784 Column_785 Column_786 Column_787 Column_788 Column_789 Column_790 Column_791 Column_792 Column_793 Column_794 Column_795 Column_796 Column_797 Column_798 Column_799 Column_800 Column_801 Column_802 Column_803 Column_804 Column_805 Column_806 Column_807 Column_808 Column_809 Column_810 Column_811 Column_812 Column_813 Column_814 Column_815 Column_816 Column_817 Column_818 Column_819 Column_820 Column_821 Column_822 Column_823 Column_824 Column_825 Column_826 Column_827 Column_828 Column_829 Column_830 Column_831 Column_832 Column_833 Column_834 Column_835 Column_836 Column_837 Column_838 Column_839 Column_840 Column_841 Column_842 Column_843 Column_844 Column_845 Column_846 Column_847 Column_848 Column_849 Column_850 Column_851 Column_852 Column_853 Column_854 Column_855 Column_856 Column_857 Column_858 Column_859 Column_860 Column_861 Column_862 Column_863 Column_864 Column_865 Column_866 Column_867 Column_868 Column_869 Column_870 Column_871 Column_872 Column_873 Column_874 Column_875 Column_876 Column_877 Column_878 Column_879 Column_880 Column_881 Column_882 Column_883 Column_884 Column_885 Column_886 Column_887 Column_888 Column_889 Column_890 Column_891 Column_892 Column_893 Column_894 Column_895 Column_896 Column_897 Column_898 Column_899 Column_900 Column_901 Column_902 Column_903 Column_904 Column_905 Column_906 Column_907 Column_908 Column_909 Column_910 Column_911 Column_912 Column_913 Column_914 Column_915 Column_916 Column_917 Column_918 Column_919 Column_920 Column_921 Column_922 Column_923 Column_924 Column_925 Column_926 Column_927 Column_928 Column_929 Column_930 Column_931 Column_932 Column_933 Column_934 Column_935 Column_936 Column_937 Column_938 Column_939 Column_940 Column_941 Column_942 Column_943 Column_944 Column_945 Column_946 Column_947 Column_948 Column_949 Column_950 Column_951 Column_952 Column_953 Column_954 Column_955 Column_956 Column_957 Column_958 Column_959 Column_960 Column_961 Column_962 Column_963 Column_964 Column_965 Column_966 Column_967 Column_968 Column_969 Column_970 Column_971 Column_972 Column_973 Column_974 Column_975 Column_976 Column_977 Column_978 Column_979 Column_980 Column_981 Column_982 Column_983 Column_984 Column_985 Column_986 Column_987 Column_988 Column_989 Column_990 Column_991 Column_992 Column_993 Column_994 Column_995 Column_996 Column_997 Column_998 Column_999 Column_1000 Column_1001 Column_1002 Column_1003 Column_1004 Column_1005 Column_1006 Column_1007 Column_1008 Column_1009 Column_1010 Column_1011 Column_1012 Column_1013 Column_1014 Column_1015 Column_1016 Column_1017 Column_1018 Column_1019 Column_1020 Column_1021 Column_1022 Column_1023 Column_1024 Column_1025 Column_1026 Column_1027 Column_1028 Column_1029 Column_1030 Column_1031 Column_1032 Column_1033 Column_1034 Column_1035 Column_1036 Column_1037 Column_1038 Column_1039 Column_1040 Column_1041 Column_1042 Column_1043 Column_1044 Column_1045 Column_1046 Column_1047 Column_1048 Column_1049 Column_1050 Column_1051 Column_1052 Column_1053 Column_1054 Column_1055 Column_1056 Column_1057 Column_1058 Column_1059 Column_1060 Column_1061 Column_1062 Column_1063 Column_1064 Column_1065 Column_1066 Column_1067 Column_1068 Column_1069 Column_1070 Column_1071 Column_1072 Column_1073 Column_1074 Column_1075 Column_1076 Column_1077 Column_1078 Column_1079 Column_1080 Column_1081 Column_1082 Column_1083 Column_1084 Column_1085 Column_1086 Column_1087 Column_1088 Column_1089 Column_1090 Column_1091 Column_1092 Column_1093 Column_1094 Column_1095 Column_1096 Column_1097 Column_1098 Column_1099 Column_1100 Column_1101 Column_1102 Column_1103 Column_1104 Column_1105 Column_1106 Column_1107 Column_1108 Column_1109 Column_1110 Column_1111 Column_1112 Column_1113 Column_1114 Column_1115 Column_1116 Column_1117 Column_1118 Column_1119 Column_1120 Column_1121 Column_1122 Column_1123 Column_1124 Column_1125 Column_1126 Column_1127 Column_1128 Column_1129 Column_1130 Column_1131 Column_1132 Column_1133 Column_1134 Column_1135 Column_1136 Column_1137 Column_1138 Column_1139 Column_1140 Column_1141 Column_1142 Column_1143 Column_1144 Column_1145 Column_1146 Column_1147 Column_1148 Column_1149 Column_1150 Column_1151 Column_1152 Column_1153 Column_1154 Column_1155 Column_1156 Column_1157 Column_1158 Column_1159 Column_1160 Column_1161 Column_1162 Column_1163 Column_1164 Column_1165 Column_1166 Column_1167 Column_1168 Column_1169 Column_1170 Column_1171 Column_1172 Column_1173 Column_1174 Column_1175 Column_1176 Column_1177 Column_1178 Column_1179 Column_1180 Column_1181 Column_1182 Column_1183 Column_1184 Column_1185 Column_1186 Column_1187 Column_1188 Column_1189 Column_1190 Column_1191 Column_1192 Column_1193 Column_1194 Column_1195 Column_1196 Column_1197 Column_1198 Column_1199 Column_1200 Column_1201 Column_1202 Column_1203 Column_1204 Column_1205 Column_1206 Column_1207 Column_1208 Column_1209 Column_1210 Column_1211 Column_1212 Column_1213 Column_1214 Column_1215 Column_1216 Column_1217 Column_1218 Column_1219 Column_1220 Column_1221 Column_1222 Column_1223 Column_1224 Column_1225 Column_1226 Column_1227 Column_1228 Column_1229 Column_1230 Column_1231 Column_1232 Column_1233 Column_1234 Column_1235 Column_1236 Column_1237 Column_1238 Column_1239 Column_1240 Column_1241 Column_1242 Column_1243 Column_1244 Column_1245 Column_1246 Column_1247 Column_1248 Column_1249 Column_1250 Column_1251 Column_1252 Column_1253 Column_1254 Column_1255 Column_1256 Column_1257 Column_1258 Column_1259 Column_1260 Column_1261 Column_1262 Column_1263 Column_1264 Column_1265 Column_1266 Column_1267 Column_1268 Column_1269 Column_1270 Column_1271 Column_1272 Column_1273 Column_1274 Column_1275 Column_1276 Column_1277 Column_1278 Column_1279 Column_1280 Column_1281 Column_1282 Column_1283 Column_1284 Column_1285 Column_1286 Column_1287 Column_1288 Column_1289 Column_1290 Column_1291 Column_1292 Column_1293 Column_1294 Column_1295 Column_1296 Column_1297 Column_1298 Column_1299 Column_1300 Column_1301 Column_1302 Column_1303 Column_1304 Column_1305 Column_1306 Column_1307 Column_1308 Column_1309 Column_1310 Column_1311 Column_1312 Column_1313 Column_1314 Column_1315 Column_1316 Column_1317 Column_1318 Column_1319 Column_1320 Column_1321 Column_1322 Column_1323 Column_1324 Column_1325 Column_1326 Column_1327 Column_1328 Column_1329 Column_1330 Column_1331 Column_1332 Column_1333 Column_1334 Column_1335 Column_1336 Column_1337 Column_1338 Column_1339 Column_1340 Column_1341 Column_1342 Column_1343 Column_1344 Column_1345 Column_1346 Column_1347 Column_1348 Column_1349 Column_1350 Column_1351 Column_1352 Column_1353 Column_1354 Column_1355 Column_1356 Column_1357 Column_1358 Column_1359 Column_1360 Column_1361 Column_1362 Column_1363 Column_1364 Column_1365 Column_1366 Column_1367 Column_1368 Column_1369 Column_1370 Column_1371 Column_1372 Column_1373 Column_1374 Column_1375 Column_1376 Column_1377 Column_1378 Column_1379 Column_1380 Column_1381 Column_1382 Column_1383 Column_1384 Column_1385 Column_1386 Column_1387 Column_1388 Column_1389 Column_1390 Column_1391 Column_1392 Column_1393 Column_1394 Column_1395 Column_1396 Column_1397 Column_1398 Column_1399 Column_1400 Column_1401 Column_1402 Column_1403 Column_1404 Column_1405 Column_1406 Column_1407 Column_1408 Column_1409 Column_1410 Column_1411 Column_1412 Column_1413 Column_1414 Column_1415 Column_1416 Column_1417 Column_1418 Column_1419 Column_1420 Column_1421 Column_1422 Column_1423 Column_1424 Column_1425 Column_1426 Column_1427 Column_1428 Column_1429 Column_1430 Column_1431 Column_1432 Column_1433 Column_1434 Column_1435 Column_1436 Column_1437 Column_1438 Column_1439 Column_1440 Column_1441 Column_1442 Column_1443 Column_1444 Column_1445 Column_1446 Column_1447 Column_1448 Column_1449 Column_1450 Column_1451 Column_1452 Column_1453 Column_1454 Column_1455 Column_1456 Column_1457 Column_1458 Column_1459 Column_1460 Column_1461 Column_1462 Column_1463 Column_1464 Column_1465 Column_1466 Column_1467 Column_1468 Column_1469 Column_1470 Column_1471 Column_1472 Column_1473 Column_1474 Column_1475 Column_1476 Column_1477 Column_1478 Column_1479 Column_1480 Column_1481 Column_1482 Column_1483 Column_1484 Column_1485 Column_1486 Column_1487 Column_1488 Column_1489 Column_1490 Column_1491 Column_1492 Column_1493 Column_1494 Column_1495 Column_1496 Column_1497 Column_1498 Column_1499 Column_1500 Column_1501 Column_1502 Column_1503 Column_1504 Column_1505 Column_1506 Column_1507 Column_1508 Column_1509 Column_1510 Column_1511 Column_1512 Column_1513 Column_1514 Column_1515 Column_1516 Column_1517 Column_1518 Column_1519 Column_1520 Column_1521 Column_1522 Column_1523 Column_1524 Column_1525 Column_1526 Column_1527 Column_1528 Column_1529 Column_1530 Column_1531 Column_1532 Column_1533 Column_1534 Column_1535 Column_1536 Column_1537 Column_1538 Column_1539 Column_1540 Column_1541 Column_1542 Column_1543 Column_1544 Column_1545 Column_1546 Column_1547 Column_1548 Column_1549 Column_1550 Column_1551 Column_1552 Column_1553 Column_1554 Column_1555 Column_1556 Column_1557 Column_1558 Column_1559 Column_1560 Column_1561 Column_1562 Column_1563 Column_1564 Column_1565 Column_1566 Column_1567 Column_1568 Column_1569 Column_1570 Column_1571 Column_1572 Column_1573 Column_1574 Column_1575 Column_1576 Column_1577 Column_1578 Column_1579 Column_1580 Column_1581 Column_1582 Column_1583 Column_1584 Column_1585 Column_1586 Column_1587 Column_1588 Column_1589 Column_1590 Column_1591 Column_1592 Column_1593 Column_1594 Column_1595 Column_1596 Column_1597 Column_1598 Column_1599 Column_1600 Column_1601 Column_1602 Column_1603 Column_1604 Column_1605 Column_1606 Column_1607 Column_1608 Column_1609 Column_1610 Column_1611 Column_1612 Column_1613 Column_1614 Column_1615 Column_1616 Column_1617 Column_1618 Column_1619 Column_1620 Column_1621 Column_1622 Column_1623 Column_1624 Column_1625 Column_1626 Column_1627 Column_1628 Column_1629 Column_1630 Column_1631 Column_1632 Column_1633 Column_1634 Column_1635 Column_1636 Column_1637 Column_1638 Column_1639 Column_1640 Column_1641 Column_1642 Column_1643 Column_1644 Column_1645 Column_1646 Column_1647 Column_1648 Column_1649 Column_1650 Column_1651 Column_1652 Column_1653 Column_1654 Column_1655 Column_1656 Column_1657 Column_1658 Column_1659 Column_1660 Column_1661 Column_1662 Column_1663 Column_1664 Column_1665 Column_1666 Column_1667 Column_1668 Column_1669 Column_1670 Column_1671 Column_1672 Column_1673 Column_1674 Column_1675 Column_1676 Column_1677 Column_1678 Column_1679 Column_1680 Column_1681 Column_1682 Column_1683 Column_1684 Column_1685 Column_1686 Column_1687 Column_1688 Column_1689 Column_1690 Column_1691 Column_1692 Column_1693 Column_1694 Column_1695 Column_1696 Column_1697 Column_1698 Column_1699 Column_1700 Column_1701 Column_1702 Column_1703 Column_1704 Column_1705 Column_1706 Column_1707 Column_1708 Column_1709 Column_1710 Column_1711 Column_1712 Column_1713 Column_1714 Column_1715 Column_1716 Column_1717 Column_1718 Column_1719 Column_1720 Column_1721 Column_1722 Column_1723 Column_1724 Column_1725 Column_1726 Column_1727 Column_1728 Column_1729 Column_1730 Column_1731 Column_1732 Column_1733 Column_1734 Column_1735 Column_1736 Column_1737 Column_1738 Column_1739 Column_1740 Column_1741 Column_1742 Column_1743 Column_1744 Column_1745 Column_1746 Column_1747 Column_1748 Column_1749 Column_1750 Column_1751 Column_1752 Column_1753 Column_1754 Column_1755 Column_1756 Column_1757 Column_1758 Column_1759 Column_1760 Column_1761 Column_1762 Column_1763 Column_1764 Column_1765 Column_1766 Column_1767 Column_1768 Column_1769 Column_1770 Column_1771 Column_1772 Column_1773 Column_1774 Column_1775 Column_1776 Column_1777 Column_1778 Column_1779 Column_1780 Column_1781 Column_1782 Column_1783 Column_1784 Column_1785 Column_1786 Column_1787 Column_1788 Column_1789 Column_1790 Column_1791 Column_1792 Column_1793 Column_1794 Column_1795 Column_1796 Column_1797 Column_1798 Column_1799 Column_1800 Column_1801 Column_1802 Column_1803 Column_1804 Column_1805 Column_1806 Column_1807 Column_1808 Column_1809 Column_1810 Column_1811 Column_1812 Column_1813 Column_1814 Column_1815 Column_1816 Column_1817 Column_1818 Column_1819 Column_1820 Column_1821 Column_1822 Column_1823 Column_1824 Column_1825 Column_1826 Column_1827 Column_1828 Column_1829 Column_1830 Column_1831 Column_1832 Column_1833 Column_1834 Column_1835 Column_1836 Column_1837 Column_1838 Column_1839 Column_1840 Column_1841 Column_1842 Column_1843 Column_1844 Column_1845 Column_1846 Column_1847 Column_1848 Column_1849 Column_1850 Column_1851 Column_1852 Column_1853 Column_1854 Column_1855 Column_1856 Column_1857 Column_1858 Column_1859 Column_1860 Column_1861 Column_1862 Column_1863 Column_1864 Column_1865 Column_1866 Column_1867 Column_1868 Column_1869 Column_1870 Column_1871 Column_1872 Column_1873 Column_1874 Column_1875 Column_1876 Column_1877 Column_1878 Column_1879 Column_1880 Column_1881 Column_1882 Column_1883 Column_1884 Column_1885 Column_1886 Column_1887 Column_1888 Column_1889 Column_1890 Column_1891 Column_1892 Column_1893 Column_1894 Column_1895 Column_1896 Column_1897 Column_1898 Column_1899 Column_1900 Column_1901 Column_1902 Column_1903 Column_1904 Column_1905 Column_1906 Column_1907 Column_1908 Column_1909 Column_1910 Column_1911 Column_1912 Column_1913 Column_1914 Column_1915 Column_1916 Column_1917 Column_1918 Column_1919 Column_1920 Column_1921 Column_1922 Column_1923 Column_1924 Column_1925 Column_1926 Column_1927 Column_1928 Column_1929 Column_1930 Column_1931 Column_1932 Column_1933 Column_1934 Column_1935 Column_1936 Column_1937 Column_1938 Column_1939 Column_1940 Column_1941 Column_1942 Column_1943 Column_1944 Column_1945 Column_1946 Column_1947 Column_1948 Column_1949 Column_1950 Column_1951 Column_1952 Column_1953 Column_1954 Column_1955 Column_1956 Column_1957 Column_1958 Column_1959 Column_1960 Column_1961 Column_1962 Column_1963 Column_1964 Column_1965 Column_1966 Column_1967 Column_1968 Column_1969 Column_1970 Column_1971 Column_1972 Column_1973 Column_1974 Column_1975 Column_1976 Column_1977 Column_1978 Column_1979 Column_1980 Column_1981 Column_1982 Column_1983 Column_1984 Column_1985 Column_1986 Column_1987 Column_1988 Column_1989 Column_1990 Column_1991 Column_1992 Column_1993 Column_1994 Column_1995 Column_1996 Column_1997 Column_1998 Column_1999 Column_2000 Column_2001 Column_2002 Column_2003 Column_2004 Column_2005 Column_2006 Column_2007 Column_2008 Column_2009 Column_2010 Column_2011 Column_2012 Column_2013 Column_2014 Column_2015 Column_2016 Column_2017 Column_2018 Column_2019 Column_2020 Column_2021 Column_2022 Column_2023 Column_2024 Column_2025 Column_2026 Column_2027 Column_2028 Column_2029 Column_2030 Column_2031 Column_2032 Column_2033 Column_2034 Column_2035 Column_2036 Column_2037 Column_2038 Column_2039 Column_2040 Column_2041 Column_2042 Column_2043 Column_2044 Column_2045 Column_2046 Column_2047 Column_2048 Column_2049 Column_2050 Column_2051 Column_2052 Column_2053 Column_2054 Column_2055 Column_2056 Column_2057 Column_2058 Column_2059 Column_2060 Column_2061 Column_2062 Column_2063 Column_2064 Column_2065 Column_2066 Column_2067 Column_2068 Column_2069 Column_2070 Column_2071 Column_2072 Column_2073 Column_2074 Column_2075 Column_2076 Column_2077 Column_2078 Column_2079 Column_2080 Column_2081 Column_2082 Column_2083 Column_2084 Column_2085 Column_2086 Column_2087 Column_2088 Column_2089 Column_2090 Column_2091 Column_2092 Column_2093 Column_2094 Column_2095 Column_2096 Column_2097 Column_2098 Column_2099 Column_2100 Column_2101 Column_2102 Column_2103 Column_2104 Column_2105 Column_2106 Column_2107 Column_2108 Column_2109 Column_2110 Column_2111 Column_2112 Column_2113 Column_2114 Column_2115 Column_2116 Column_2117 Column_2118 Column_2119 Column_2120 Column_2121 Column_2122 Column_2123 Column_2124 Column_2125 Column_2126 Column_2127 Column_2128 Column_2129 Column_2130 Column_2131 Column_2132 Column_2133 Column_2134 Column_2135 Column_2136 Column_2137 Column_2138 Column_2139 Column_2140 Column_2141 Column_2142 Column_2143 Column_2144 Column_2145 Column_2146 Column_2147 Column_2148 Column_2149 Column_2150 Column_2151 Column_2152 Column_2153 Column_2154 Column_2155 Column_2156 Column_2157 Column_2158 Column_2159 Column_2160 Column_2161 Column_2162 Column_2163 Column_2164 Column_2165 Column_2166 Column_2167 Column_2168 Column_2169 Column_2170 Column_2171 Column_2172 Column_2173 Column_2174 Column_2175 Column_2176 Column_2177 Column_2178 Column_2179 Column_2180 Column_2181 Column_2182 Column_2183 Column_2184 Column_2185 Column_2186 Column_2187 Column_2188 Column_2189 Column_2190 Column_2191 Column_2192 Column_2193 Column_2194 Column_2195 Column_2196 Column_2197 Column_2198 Column_2199 Column_2200 Column_2201 Column_2202 Column_2203 Column_2204 Column_2205 Column_2206 Column_2207 Column_2208 Column_2209 Column_2210 Column_2211 Column_2212 Column_2213 Column_2214 Column_2215 Column_2216 Column_2217 Column_2218 Column_2219 Column_2220 Column_2221 Column_2222 Column_2223 Column_2224 Column_2225 Column_2226 Column_2227 Column_2228 Column_2229 Column_2230 Column_2231 Column_2232 Column_2233 Column_2234 Column_2235 Column_2236 Column_2237 Column_2238 Column_2239 Column_2240 Column_2241 Column_2242 Column_2243 Column_2244 Column_2245 Column_2246 Column_2247 Column_2248 Column_2249 Column_2250 Column_2251 Column_2252 Column_2253 Column_2254 Column_2255 Column_2256 Column_2257 Column_2258 Column_2259 Column_2260 Column_2261 Column_2262 Column_2263 Column_2264 Column_2265 Column_2266 Column_2267 Column_2268 Column_2269 Column_2270 Column_2271 Column_2272 Column_2273 Column_2274 Column_2275 Column_2276 Column_2277 Column_2278 Column_2279 Column_2280 Column_2281 Column_2282 Column_2283 Column_2284 Column_2285 Column_2286 Column_2287 Column_2288 Column_2289 Column_2290 Column_2291 Column_2292 Column_2293 Column_2294 Column_2295 Column_2296 Column_2297 Column_2298 Column_2299 Column_2300 Column_2301 Column_2302 Column_2303 Column_2304 Column_2305 Column_2306 Column_2307 Column_2308 Column_2309 Column_2310 Column_2311 Column_2312 Column_2313 Column_2314 Column_2315 Column_2316 Column_2317 Column_2318 Column_2319 Column_2320 Column_2321 Column_2322 Column_2323 Column_2324 Column_2325 Column_2326 Column_2327 Column_2328 Column_2329 Column_2330 Column_2331 Column_2332 Column_2333 Column_2334 Column_2335 Column_2336 Column_2337 Column_2338 Column_2339 Column_2340 Column_2341 Column_2342 Column_2343 Column_2344 Column_2345 Column_2346 Column_2347 Column_2348 Column_2349 Column_2350 Column_2351 Column_2352 Column_2353 Column_2354 Column_2355 Column_2356 Column_2357 Column_2358 Column_2359 Column_2360 Column_2361 Column_2362 Column_2363 Column_2364 Column_2365 Column_2366 Column_2367 Column_2368 Column_2369 Column_2370 Column_2371 Column_2372 Column_2373 Column_2374 Column_2375 Column_2376 Column_2377 Column_2378 Column_2379 Column_2380 Column_2381 Column_2382 Column_2383 Column_2384 Column_2385 Column_2386 Column_2387 Column_2388 Column_2389 Column_2390 Column_2391 Column_2392 Column_2393 Column_2394 Column_2395 Column_2396 Column_2397 Column_2398 Column_2399 Column_2400 Column_2401 Column_2402 Column_2403 Column_2404 Column_2405 Column_2406 Column_2407 Column_2408 Column_2409 Column_2410 Column_2411 Column_2412 Column_2413 Column_2414 Column_2415 Column_2416 Column_2417 Column_2418 Column_2419 Column_2420 Column_2421 Column_2422 Column_2423 Column_2424 Column_2425 Column_2426 Column_2427 Column_2428 Column_2429 Column_2430 Column_2431 Column_2432 Column_2433 Column_2434 Column_2435 Column_2436 Column_2437 Column_2438 Column_2439 Column_2440 Column_2441 Column_2442 Column_2443 Column_2444 Column_2445 Column_2446 Column_2447 Column_2448 Column_2449 Column_2450 Column_2451 Column_2452 Column_2453 Column_2454 Column_2455 Column_2456 Column_2457 Column_2458 Column_2459 Column_2460 Column_2461 Column_2462 Column_2463 Column_2464 Column_2465 Column_2466 Column_2467 Column_2468 Column_2469 Column_2470 Column_2471 Column_2472 Column_2473 Column_2474 Column_2475 Column_2476 Column_2477 Column_2478 Column_2479 Column_2480 Column_2481 Column_2482 Column_2483 Column_2484 Column_2485 Column_2486 Column_2487 Column_2488 Column_2489 Column_2490 Column_2491 Column_2492 Column_2493 Column_2494 Column_2495 Column_2496 Column_2497 Column_2498 Column_2499 Column_2500 Column_2501 Column_2502 Column_2503 Column_2504 Column_2505 Column_2506 Column_2507 Column_2508 Column_2509 Column_2510 Column_2511 Column_2512 Column_2513 Column_2514 Column_2515 Column_2516 Column_2517 Column_2518 Column_2519 Column_2520 Column_2521 Column_2522 Column_2523 Column_2524 Column_2525 Column_2526 Column_2527 Column_2528 Column_2529 Column_2530 Column_2531 Column_2532 Column_2533 Column_2534 Column_2535 Column_2536 Column_2537 Column_2538 Column_2539 Column_2540 Column_2541 Column_2542 Column_2543 Column_2544 Column_2545 Column_2546 Column_2547 Column_2548 Column_2549 Column_2550 Column_2551 Column_2552 Column_2553 Column_2554 Column_2555 Column_2556 Column_2557 Column_2558 Column_2559 Column_2560 Column_2561 Column_2562 Column_2563 Column_2564 Column_2565 Column_2566 Column_2567 Column_2568 Column_2569 Column_2570 Column_2571 Column_2572 Column_2573 Column_2574 Column_2575 Column_2576 Column_2577 Column_2578 Column_2579 Column_2580 Column_2581 Column_2582 Column_2583 Column_2584 Column_2585 Column_2586 Column_2587 Column_2588 Column_2589 Column_2590 Column_2591 Column_2592 Column_2593 Column_2594 Column_2595 Column_2596 Column_2597 Column_2598 Column_2599 Column_2600 Column_2601 Column_2602 Column_2603 Column_2604 Column_2605 Column_2606 Column_2607 Column_2608 Column_2609 Column_2610 Column_2611 Column_2612 Column_2613 Column_2614 Column_2615 Column_2616 Column_2617 Column_2618 Column_2619 Column_2620 Column_2621 Column_2622 Column_2623 Column_2624 Column_2625 Column_2626 Column_2627 Column_2628 Column_2629 Column_2630 Column_2631
feature_infos=[134:99925144] [0.0011254069395363331:7.9999971389770508] -1:1 none none -1:144:80:120:64:128:0:96:149:155:225:229:169:10:84:82:108:111:143:252:207:216:118:75:116:57:195:101:220:112:49:69:102:31:60:65:50:6:21:78:160:15:54:33:56:79:196:40:97:185:36:51:55:98:186:1:117:161:211:16:34:48:53:72:76:11:41:52:74:104:113:122:150:184:248:86:93:107:119:163:7:26:66:99:109:126:148:193:208:210:221:255:32:44:68:106:133:165:180:204:212:219:234:235:4:46:85:95:103:115:134:135:142:152:154:158:173:181:182:197:215:218:227 -1:0:59:221:117:92:118:80:172:237:232:1:61:198:69:114:244:82:110:68:133:160:63:106:206:227:167:153:109:119:15:83:100:71:226:36:122:85:159:191:253:56:138:144:225:48:52:90:230:2:53:112:170:195:32:95:136:176:196:210:212:28:31:35:97:99:101:105:121:143:243:41:103:113:120:131:220:222:223:43:51:54:74:111:134:145:151:177:182:183:192:215:231:239:4:13:14:49:58:98:102:107:130:155:168:185:186:216:228:255 [0:0.99994945526123047] [0:0.87765049934387207] [0:0.57271981239318848] [0:0.41602855920791626] [0:0.44136404991149902] [0:0.60817825794219971] [0:0.58386999368667603] [0:0.57203811407089233] [0:0.32165136933326721] [0:0.34651079773902893] [0:0.58947664499282837] [0:0.36354833841323853] [0:0.35573884844779968] [0:0.36449363827705383] [0:0.43085590004920959] [0:0.16451689600944519] [0:0.35161611437797546] [0:0.61102294921875] [0:0.26158025860786438] [0:0.36890444159507751] [0:0.68300491571426392] [0:0.34704434871673584] [0:0.30411094427108765] [0:0.37181127071380615] [0:0.16826367378234863] [0:0.16619904339313507] [0:0.530964195728302] [0:0.36597788333892822] [0:0.27637457847595215] [0:0.43075358867645264] [0:0.56212610006332397] [0:0.2737821638584137] [0:0.74241584539413452] [0:0.19986572861671448] [0:0.30699875950813293] [0:0.49716633558273315] [0:0.46303215622901917] [0:0.36993968486785889] [0:0.17734494805335999] [0:0.76741421222686768] [0:0.16757497191429138] [0:0.22163723409175873] [0:0.20000441372394562] [0:0.28703710436820984] [0:0.24836699664592743] [0:0.19460076093673706] [0:0.92714208364486694] [0:0.82222050428390503] [0:0.98963814973831177] [0:0.55798459053039551] [0:0.60762369632720947] [0:0.46346154808998108] [0:0.57325035333633423] [0:0.61052924394607544] [0:0.4543437659740448] [0:0.46331250667572021] [0:0.99766963720321655] [0:0.18485201895236969] [0:0.20387442409992218] [0:0.21121431887149811] [0:0.12862688302993774] [0:0.4375] [0:0.16757960617542267] [0:0.24795462191104889] [0:0.19270582497119904] [0:0.80838143825531006] [0:0.17512346804141998] [0:0.16455675661563873] [0:0.2262410968542099] [1.6537777014491439e-07:0.23367875814437866] [0:0.60745030641555786] [0:0.36434775590896606] [0:0.45413568615913391] [0:0.32021299004554749] [0:0.25107359886169434] [0:0.27265447378158569] [0:0.16715915501117706] [0:0.23182803392410278] [0:0.27970448136329651] [0:0.88191801309585571] [0:0.17468085885047913] [0:0.20542986690998077] [0:0.89805883169174194] [0:0.24531944096088409] [0:0.19473803043365479] [0:0.62093609571456909] [0:0.17381051182746887] [0:0.16805380582809448] [0:0.36573290824890137] [0:0.19940395653247833] [0:0.35438519716262817] [0:0.14622296392917633] [0:0.1907077431678772] [0:0.157131627202034] [0:0.24226085841655731] [0:0.39516833424568176] [0:0.1517670601606369] [0:0.5852658748626709] [0:0.120130755007267] [0:0.22381140291690826] [0:0.92074686288833618] [0:0.25066158175468445] [0:0.76566028594970703] [0:0.12025154381990433] [0:0.22875817120075226] [0:0.98162978887557983] [0:0.16863659024238586] [0:0.17795200645923615] [0:0.37589922547340393] [0:0.13153889775276184] [0:0.15776544809341431] [0:0.54784858226776123] [0:0.25128835439682007] [0:0.65176153182983398] [0:0.12919008731842041] [0:0.16822786629199982] [0:0.15951281785964966] [0:0.19709639251232147] [0:0.68532532453536987] [0:0.38980013132095337] [0:0.22406075894832611] [0:0.13886067271232605] [0:0.95274317264556885] [0:0.14423385262489319] [0:0.14131392538547516] [0:0.53476881980895996] [0:0.4376220703125] [0:0.43897023797035217] [0:0.71030694246292114] [0:0.19705423712730408] [0:0.21383902430534363] [0:0.17290826141834259] [0:0.18531212210655212] [0:0.15123890340328217] [0:0.12780655920505524] [0:0.16791409254074097] [0:0.58910989761352539] [0:0.15224581956863403] [0:0.16682635247707367] [0:0.1676761656999588] [0:0.58420640230178833] [0:0.16495487093925476] [0:0.12516045570373535] [0:0.12630413472652435] [0:0.99950826168060303] [0:0.13745278120040894] [0:0.15467360615730286] [0:0.12251525372266769] [0:0.16678950190544128] [0:0.13903920352458954] [0:0.12607157230377197] [0:0.17306776344776154] [0:0.1670016348361969] [0:0.18814125657081604] [0:0.35443153977394104] [0:0.1648118644952774] [0:0.654308021068573] [0:0.16690398752689362] [0:0.19617971777915955] [0:0.27830272912979126] [0:0.31768202781677246] [0:0.19630858302116394] [0:0.12814563512802124] [0:0.32008558511734009] [0:0.32009834051132202] [0:0.24003943800926208] [0:0.19410568475723267] [0:0.12515838444232941] [0:0.23626811802387238] [0:0.19671303033828735] [0:0.18125060200691223] [0:0.1772940456867218] [0:0.2430570125579834] [0:0.056344758719205856] [0:0.2348656952381134] [0:0.86274510622024536] [0:0.1352037787437439] [0:0.11611147224903107] [0:0.17727810144424438] [0:0.16789320111274719] [0:0.14832465350627899] [0:0.16990269720554352] [0:0.29418286681175232] [0:0.2625713050365448] [0:0.19816103577613831] [0:0.19623188674449921] [0:0.20541414618492126] [0:0.14036430418491364] [0:0.30846938490867615] [0:0.20932543277740479] [0:0.1693379282951355] [0:0.321870356798172] [0:0.61306589841842651] [0:0.26270702481269836] [0:0.22259521484375] [0:0.58912795782089233] [0:0.13412204384803772] [0:0.12164066731929779] [0:0.4376068115234375] [0:0.19934684038162231] [0:0.25115412473678589] [0:0.30848434567451477] [0:0.1570366770029068] [0:0.12792405486106873] [0:0.98928648233413696] [0:0.28642457723617554] [0:0.44955196976661682] [0:0.23475474119186401] [0:0.58987396955490112] [0:0.12938649952411652] [0:0.21958354115486145] [0:0.35466015338897705] [0:0.19395972788333893] [0:0.15618063509464264] [0:0.15566390752792358] [0:0.22357454895973206] [0:0.21707774698734283] [0:0.34489396214485168] [0:0.95525634288787842] [0:0.16749650239944458] [0:0.27470645308494568] [0:0.65350544452667236] [0:0.26157820224761963] [0:0.62507379055023193] [0:0.3735387921333313] [0:0.44612795114517212] [0:0.236572265625] [0:0.23789198696613312] [0:0.22334156930446625] [0:0.1187518835067749] [0:0.36488038301467896] [0:0.29895371198654175] [0:0.24261713027954102] [0:0.22252920269966125] [0:0.53252732753753662] [0:0.28008976578712463] [0:0.41748026013374329] [0:0.45119106769561768] [0:0.42154973745346069] [0:0.26124042272567749] [0:0.45229122042655945] [0:0.62011414766311646] [0:0.31085020303726196] [0:0.38188639283180237] [0:0.48596546053886414] [0:0.49782779812812805] [0:0.24320060014724731] [0:0.26068240404129028] [0:0.34355077147483826] [0:0.49191996455192566] [0:0.68382531404495239] [0:0.27606251835823059] [0:0.21580970287322998] [0:0.29249373078346252] [0:0.56737881898880005] [0:0.97521734237670898] [0:0.99991542100906372] [0:0.61572265625] [0:0.92488688230514526] [0:0.99766361713409424] [0:0.8802153468132019] [0:0.89743590354919434] [0:0.98159509897232056] [0:0.95250546932220459] [0:0.46582639217376709] [0:0.99995189905166626] [0:0.85526317358016968] [0:0.24144484102725983] [0:0.9892127513885498] [0:0.9552311897277832] [0:0.44151866436004639] [0:0.97381573915481567] [0:0.8756822943687439] [0:0.27294731140136719] [0:0.15068493783473969] [0:0.54685646295547485] [0:0.3744121789932251] [0:0.06913468986749649] [0:0.42465752363204956] [0:0.49896582961082458] [0:0.15616196393966675] [0:0.04555978998541832] [0:0.12402372062206268] [0:0.067968748509883881] [0:0.41916093230247498] [0:0.083787895739078522] [0:0.19943542778491974] [0:0.47212600708007812] [0:0.94466143846511841] [0:0.16565358638763428] [0:0.2010633647441864] [0:0.51060795783996582] [0:0.17440560460090637] [0:0.33574935793876648] [0:0.14462606608867645] [0:0.1216072142124176] [0:0.10667455941438675] [0:0.052085734903812408] [0:0.051045581698417664] [0:0.30035856366157532] [0:0.16529707610607147] [0:0.1317608654499054] [0:0.1078132763504982] [0:0.46750354766845703] [0:0.92291665077209473] [0:0.2406034916639328] [0:0.3331131637096405] [0:0.59994411468505859] [0:0.61083197593688965] [0:0.6151854395866394] [0:0.34623152017593384] [0:0.65922224521636963] [0:0.14163844287395477] [0:0.066556878387928009] [0:0.62416541576385498] [0:0.14025674760341644] [0:0.29205325245857239] [0:0.28967350721359253] [0:0.38573268055915833] [0:0.53826463222503662] [0:0.87109375] [0:0.21534273028373718] [0:0.23020541667938232] [0:0.44941282272338867] [0:0.2140299528837204] [0:0.15570881962776184] [0:0.57834887504577637] [0:0.4285714328289032] [0:0.1570470929145813] [0:0.23701523244380951] [0:0.07199377566576004] [0:0.29153576493263245] [0:0.11221352219581604] [0:0.1274125874042511] [0:0.23518367111682892] [0:0.47046387195587158] [0:0.828125] [0:0.18989907205104828] [0:0.33182728290557861] [0:0.43695852160453796] [0:0.3665822446346283] [0:0.26003634929656982] [0:0.25861695408821106] [0:0.23256854712963104] [0:0.12032907456159592] [0:0.21337890625] [0:0.061582267284393311] [0:0.03179796040058136] [0:0.26704338192939758] [0:0.26990833878517151] [0:0.22967731952667236] [0:0.26326394081115723] [0:0.7744140625] [0:0.2989501953125] [0:0.23131626844406128] [0:0.46555033326148987] [0:0.44120720028877258] [0:0.31983745098114014] [0:0.4109174907207489] [0:0.29496735334396362] [0:0.29012998938560486] [0:0.291015625] [0:0.33633303642272949] [0:0.25283855199813843] [0:0.30064642429351807] [0:0.25951096415519714] [0:0.25951200723648071] [0:0.3259146511554718] [0:0.73681640625] [0:0.30149996280670166] [0:0.3273111879825592] [0:0.33684810996055603] [0:0.28649580478668213] [0:0.20962460339069366] [0:0.35146737098693848] [0:0.26898923516273499] [0:0.15074723958969116] [0:0.11209595203399658] [0:0.15408384799957275] [0:0.19728071987628937] [0:0.30816757678985596] [0:0.16902466118335724] [0:0.19387422502040863] [0:0.30816939473152161] [0:0.68798828125] [0:0.18417659401893616] [0:0.3173363208770752] [0:0.50073844194412231] [0:0.259765625] [0:0.27160829305648804] [0:0.41734364628791809] [0:0.26476219296455383] [0:0.25326496362686157] [0:0.22965671122074127] [0:0.18834191560745239] [0:0.33060717582702637] [0:0.18918910622596741] [0:0.22670793533325195] [0:0.24971687793731689] [0:0.4523809552192688] [0:0.618599534034729] [0:0.15844228863716125] [0:0.34541770815849304] [0:0.37579783797264099] [0:0.25087890028953552] [0:0.1904296875] [0:0.34032037854194641] [0:0.20428752899169922] [0:0.15410180389881134] [0:0.2402186244726181] [0:0.2234700471162796] [0:0.24967092275619507] [0:0.1999213844537735] [0:0.25086158514022827] [0:0.28266230225563049] [0:0.2572610080242157] [0:0.578125] [0:0.291259765625] [0:0.22307261824607849] [0:0.18135723471641541] [0:0.20746645331382751] [0:0.28441205620765686] [0:0.25970804691314697] [0:0.2415364533662796] [0:0.21095098555088043] [0:0.23832370340824127] [0:0.18163043260574341] [0:0.38694080710411072] [0:0.13423009216785431] [0:0.18147416412830353] [0:0.1960948258638382] [0:0.23449268937110901] [0:0.482421875] [0:0.2951260507106781] [0:0.15503177046775818] [0:0.5037044882774353] [0:0.24349230527877808] [0:0.20032143592834473] [0:0.28935247659683228] [0:0.23026315867900848] [0:0.12768454849720001] [0:0.13776580989360809] [0:0.22058433294296265] [0:0.28633949160575867] [0:0.13280153274536133] [0:0.1446533203125] [0:0.15240675210952759] [0:0.2090928852558136] [0:0.43896484375] [0:0.10710100084543228] [0:0.2809908390045166] [0:0.16928711533546448] [0:0.28179493546485901] [0:0.16399547457695007] [0:0.18621079623699188] [0:0.10636354237794876] [0:0.35356232523918152] [0:0.093699105083942413] [0:0.11422792077064514] [0:0.28009551763534546] [0:0.28239414095878601] [0:0.138763427734375] [0:0.17786493897438049] [0:0.23394131660461426] [0:0.36718776822090149] [0:0.17922286689281464] [0:0.19448293745517731] [0:0.26356300711631775] [0:0.19820991158485413] [0:0.19836108386516571] [0:0.19196313619613647] [0:0.1965450793504715] [0:0.19895321130752563] [0:0.19809228181838989] [0:0.11230847239494324] [0:0.1966959685087204] [0:0.27433538436889648] [0:0.19924506545066833] [0:0.19946494698524475] [0:0.31314721703529358] [0:0.26318359375] [0:0.17462310194969177] [0:0.1433420330286026] [0:0.19593784213066101] [0:0.17853444814682007] [0:0.1948745995759964] [0:0.14289392530918121] [0:0.12465088814496994] [0:0.13543646037578583] [0:0.1657133549451828] [0:0.1576334685087204] [0:0.22810919582843781] [0:0.11885992437601089] [0:0.12468627095222473] [0:0.13239733874797821] [0:0.17066176235675812] [0:0.1519368439912796] [0:0.13258205354213715] [0:0.1399221271276474] [0:0.14242908358573914] [0:0.12968309223651886] [0:0.12180450558662415] [0:0.12278548628091812] [0:0.13008894026279449] [0:0.12623581290245056] [0:0.13278189301490784] [0:0.12066420912742615] [0:0.14584864675998688] [0:0.11925729364156723] [0:0.11690240353345871] [0:0.12702128291130066] [0:0.15406428277492523] [0:3241963] [0:171689.5625] [0:61384780] [0:0.98509222269058228] [0:0.47207894921302795] [0:0.95281553268432617] [0:0.97441321611404419] [0:0.64160329103469849] [0:0.62259131669998169] [0:0.54942059516906738] [0:0.9595906138420105] [0:0.758309006690979] [0:0.73531061410903931] [0:0.56167811155319214] [0:0.70638495683670044] [0:0.74386382102966309] [0:0.74613815546035767] [0:0.98564356565475464] [0:0.94408464431762695] [0:0.9998508095741272] [0:0.89310872554779053] [0:0.96550261974334717] [0:0.86833113431930542] [0:0.82784420251846313] [0:0.82104682922363281] [0:0.78382426500320435] [0:0.82185006141662598] [0:0.99983805418014526] [0:0.64049649238586426] [0:0.46083915233612061] [0:0.66156786680221558] [0:0.8846316933631897] [0:0.63790851831436157] [0:0.65854507684707642] [0:0.95135253667831421] [0:0.86252087354660034] [0:0.97231709957122803] [0:0.56200319528579712] [0:0.61331021785736084] [0:0.77009028196334839] [0:0.51705139875411987] [0:0.92964953184127808] [0:0.9000251293182373] [0:0.96463346481323242] [0:0.60495442152023315] [0:0.58739614486694336] [0:0.5955498218536377] [0:0.6612168550491333] [0:0.63809365034103394] [0:0.91255247592926025] [0:0.99143534898757935] [0:0.5914960503578186] [0:0.50159263610839844] [0:0.99652755260467529] [0:0.48502591252326965] [0:0.89591264724731445] [0:0.85490167140960693] [0:0.59189152717590332] [0:0.65134799480438232] [0:0.60341989994049072] [0:0.32934960722923279] [0:0.82097649574279785] [0:0.62848955392837524] [0:0.63471293449401855] [0:0.41246891021728516] [0:0.40160238742828369] [0:0.85001194477081299] [0:0.8113061785697937] [0:0.82984292507171631] [0:0.54984581470489502] [0:0.92750602960586548] [0:0.98313003778457642] [0:0.76702296733856201] [0:0.91320478916168213] [0:0.28352463245391846] [0:0.4464201033115387] [0:0.99916046857833862] [0:0.75273549556732178] [0:0.74627983570098877] [0:0.76309722661972046] [0:0.53520447015762329] [0:0.82018113136291504] [0:0.8194587230682373] [0:0.6107180118560791] [0:0.91137081384658813] [0:0.53203272819519043] [0:0.49062007665634155] [0:0.26552236080169678] [0:0.60819071531295776] [0:0.99958664178848267] [0:0.90599244832992554] [0:0.72365164756774902] [0:0.78378862142562866] [0:0.99852323532104492] [0:0.75284594297409058] [0:0.50868576765060425] [0:0.78284448385238647] [0:0.49203735589981079] [0:0.89433181285858154] [0:6.5849418640136719] [0:25826] [0:4] [0:1667] [0:962] [0:705] [0:1379] [0:267] [0:455] [0:6215] [0:1247] none [0:13] none [0:4788] none [0:100100] [0:10699] [0:12171] [0:2049] [0:86248] [0:15049] [0:3324] [0:187305] [0:22285] [0:15348] [0:14144] [0:40127] [0:7697] [0:9081] [0:11018] [0:3472] [0:7074] [0:12542] [0:8368] [0:58669] [0:56414] [0:13234] [0:61944] [0:12093] [0:223] [0:1304] [0:19698] [0:3419] [0:121864] [0:8736] [0:33322] [0:19295] [0:33554] [0:6065] [0:105435] [0:139029] [0:13355] [0:10085] [0:12542] [0:12811] [0:28313] [0:7143] [0:7403] [0:16456] [0:1535] [0:3414] [0:2741] [0:17341] [0:2217] [0:6424] [0:73355] [0:6351] [0:43875] [0:11082] [0:3391] [0:118985] [0:13807] [0:105561] [0:33322] [0:224] [0:11254] [0:117803] [0:4294967296] [0:98] [0:4294967296] [0:65504] [0:4294967296] -1:1:32:34:0:14:12:13:3:16:6:7:18 -1:2:3:1:7:0:9:8:10:13 [0:59523] [0:65475] [0:255] [0:255] [0:58226] [0:64421] [0:65284] [0:52971] [0:4294959104] [0:4291397120] [0:3758108672] [0:4294938112] [0:4276001280] [0:4279303936] [0:4294906112] [0:4279304192] [0:4294906112] [0:4294967296] [0:4294967296] [0:1.8446735277616529e+19] [0:4294905856] [0:4294967296] [0:4294967040] [0:1] [0:1] [0:1] [0:1] none [0:1] none [0:1] [0:1] [0:1] [0:1] [0:1] none [0:1] none [0:1] [0:1] [0:1] [0:1] [0:1] [0:1] [0:1] [0:1] [0:1] [0:1] [0:1] [0:1] [0:23117] [0:65424] [0:65535] [0:65535] [0:65531] [0:65535] [0:65535] [0:65520] [0:65534] [0:65535] [0:65535] [0:65535] [0:65328] [0:65014] [0:64877] [0:65485] [0:666732] [0:98] [0:65] [0:78] [0:94] [0:94] [0:8] none [0:1967617.125] none [0:1919251328] none [-46690816:4294928384] [-62101504:37641728] [-30125056:33327104] [-12816384:17874944] [-268435456:2014839936] [-4307707392:30420992] [-28322304:245246464] [-74894336:55083008] [-21314560:81775616] [-16264192:23108608] [-39096832:50286592] [-57694388:15698944] [-18745344:22708224] [-4294860800:26871296] [-22926336:1919251328] [-46692864:51904512] [-26095616:12687360] [-97505792:22249472] [-71618048:64489984] [-24137728:19398656] [-62273536:24176128] [-4294930432:20593152] [-31941120:14516224] [-18964480:24181248] [-55391744:36118528] [-96071680:26910208] [-56559616:41545216] [-42683904:38250496] [-69747200:15507968] [-29853184:23805952] [-15909376:2147483648] [-89116672:47163520] [-402669568:45714432] [-4278231040:36516352] [-49927680:23628288] [-32360448:1842102272] [-776002560:71531008] [-14397440:12963840] [-73212416:25186816] [-78963712:23840256] [-28065792:26139136] [-341531648:51488768] [-536871936:26411520] [-15063040:4294961920] [-20705280:11460608] [-20822016:39058432] [-67698688:1633968384] [-16084992:71306240] [-19168768:14258176] [-23351296:21308416] [-112717824:271822848] [-62101504:76830192] [-30124660:33326836] [-74753768:21345754] [-34594072:49283080] [-1073773312:84984584] [-28321960:245246272] [-74893896:55083008] [-50585600:81775240] [-16263684:23108548] [-39096516:112734208] [-60932224:17100596] [-60895196:22708224] [-16767072:26871168] [-268439552:202116560] [-903442944:57471596] [-268438080:16804926] [-97505624:22249472] [-71618016:64489600] [-24135168:67284992] [-62273148:27021312] [-80836792:20593152] [-31940638:15715825] [-18964480:75171840] [-55391456:78388856] [-96071344:26909992] [-56559480:41545120] [-42684416:38250388] [-69747184:25161096] [-57261952:852262016] [-15909072:4294967296] [-32867948:194891664] [-1627390720:147222528] [-74632656:36516072] [-49927532:76587008] [-32360000:1842102272] [-776002560:71530552] [-19956532:18985882] [-268599296:25186922] [-137736192:78252112] [-28065792:26139088] [-341531424:149426176] [-4294983168:26411416] [-15065264:4294918144] [-20702448:62418196] [-20821548:55737676] [-40103936:137646080] [-25999620:71306032] [-100609872:14258176] [-23351296:92821616] [-22.11480712890625:410.7080078125] [-15.716214179992676:15.990741729736328] [-15.927509307861328:38.783164978027344] [-21.815256118774414:19.088300704956055] [-14.311619758605957:15.907855987548828] [-34.869239807128906:15.878976821899414] [-127.93412780761719:9.5898256301879883] [-25.195526123046875:15.360635757446289] [-28.255855560302734:43.741104125976562] [-15.624577522277832:14.287566184997559] [-15.995121955871582:27.968135833740234] [-15.585939407348633:23.524309158325195] [-13.987616539001465:15.996000289916992] [-15.874358177185059:15.924680709838867] [-10.042213439941406:23.801904678344727] [-23.992948532104492:15.970967292785645] [-26.999305725097656:14.729667663574219] [-90.077247619628906:15.934823036193848] [-19.819488525390625:28.301799774169922] [-660.74700927734375:22.478679656982422] [-18.262722015380859:15.163693428039551] [-14.417671203613281:11.434035301208496] [-23.99565315246582:49.071674346923828] [-15.818587303161621:15.612879753112793] [-20.910423278808594:22.583011627197266] [-15.488823890686035:36.596942901611328] [-14.729354858398438:14.185139656066895] [-17.380453109741211:15.881811141967773] [-42.493362426757812:15.644543647766113] [-31.780036926269531:23.720922470092773] [-34.935066223144531:17.655029296875] [-22.753684997558594:133.85226440429688] [-45.633995056152344:41.650165557861328] [-9.3177757263183594:19.234724044799805] [-15.974732398986816:23.99055290222168] [-28.668083190917969:28.798078536987305] [-15.924243927001953:15.996223449707031] [-25.478776931762695:15.662399291992188] [-21.158760070800781:18.904031753540039] [-16.768547058105469:14.642728805541992] [-15.833433151245117:16.770881652832031] [-45.753303527832031:31.97773551940918] [-43.093029022216797:15.762405395507812] [-31.525224685668945:35.202884674072266] [-10.729277610778809:8.3844175338745117] [-14.940369606018066:15.206005096435547] [-18.798421859741211:15.563198089599609] [-14.537014007568359:15.814153671264648] [-14.842104911804199:36.657085418701172] [-14.393736839294434:15.720537185668945] [-78:5] [-4:93] [-5:9] [-92:12] [-7:68] [-19:5] [-5:12] [-16:10] [-68:21] [-78:8] [-4:8] [-3:11] [-9:12] [-91:68] [-68:6] [-18:7] [-11:4] [-68:18] [-4:17] [-68:4] [-5:11] [-7:6] [-7:13] [-5:12] [-68:8] [-5:6] [-15:68] [-136:14] [-11:68] [-14:6] [-6:32] [-4:9] [-5:68] [-10:5] [-22:16] [-92:68] [-10:5] [-6:22] [-10:23] [-5:8] [-5:9] [-12:8] [-12:11] [-68:12] [-68:5] [-6:7] [-4:18] [-6:5] [-3:4] [-68:10] [-1:1] [-1:1] [-1:1] [-1:1] [-1:1] [-1:1] [-1:1] [-1:1] [-1:1] [-1:1] [0:99786904] [0:0.99998795986175537] [0:7.9999985694885254] [0:6637] [0:135] [0:2] [0:2] [0:2] [0:2] [0:3] [0:2] [0:3] [0:2] [0:3] [0:2] [0:2] [0:2] [0:2] [0:2] [0:2] [0:2] [0:2] [0:1] [0:3] [0:2] [0:2] [0:2] [0:3] [0:2] [0:2] [0:3] [0:3] [0:3] [0:2] [0:3] [0:3] [0:2] [0:2] [0:1] [0:2] [0:2] [0:2] [0:2] [0:2] [0:2] [0:3] [0:2] [0:2] [0:3] [0:2] [0:4] [0:3] [0:2] [0:2] [0:2] [0:2] [0:3] [0:3] [0:2] [0:2] [0:2] [0:2] [0:2] [0:2] [0:2] [0:2] [0:1] [0:2] [0:3] [0:2] [0:2] [0:2] [0:3] [0:3] [0:2] [0:2] [0:2] [0:2] [0:2] [0:2] [0:2] [0:2] [0:3] [0:2] [0:2] [0:3] [0:2] [0:2] [0:2] [0:2] [0:2] [0:2] [0:2] [0:2] [0:2] [0:2] [0:3] [0:3] [0:3] [0:3] [0:2] [0:3] [0:2] [0:2] [0:2] [0:3] [0:2] [0:2] [0:2] [0:3] [0:2] [0:2] [0:4] [0:2] [0:2] [0:2] [0:2] [0:3] [0:1] [0:2] [0:2] [0:2] [0:4] [0:3] [0:3] [0:2] [0:2] [0:2] [0:2] [0:2] [0:2] [0:3] [0:3] [0:2] [0:3] [0:2] [0:2] [0:3] [0:3] [0:3] [0:3] [0:2] [0:2] [0:2] [0:3] [0:3] [0:2] [0:2] [0:3] [0:2] [0:4] [0:1] [0:3] [0:2] [0:2] [0:3] [0:2] [0:2] [0:2] [0:2] [0:2] [0:3] [0:2] [0:2] [0:2] [0:2] [0:3] [0:1] [0:2] [0:3] [0:2] [0:2] [0:2] [0:2] [0:2] [0:2] [0:2] [0:2] [0:2] [0:2] [0:2] [0:2] [0:2] [0:2] [0:2] [0:2] [0:2] [0:2] [0:1] [0:2] [0:2] [0:2] [0:2] [0:2] [0:3] [0:2] [0:3] [0:2] [0:2] [0:3] [0:2] [0:3] [0:2] [0:3] [0:2] [0:4] [0:3] [0:2] [0:3] [0:2] [0:2] [0:2] [0:2] [0:2] [0:2] [0:3] [0:2] [0:2] [0:3] [0:2] [0:2] [0:2] [0:2] [0:2] [0:3] [0:2] [0:2] [0:2] [0:3] [0:3] [0:3] [0:3] [0:2] [0:2] [0:1] [0:2] [0:3] [0:2] [0:2] [0:2] [0:2] [0:2] [0:2] [0:2] [0:2] [0:3] [0:2] [0:3] [0:2] [0:2] [0:2] [0:3] [0:2] [0:2] [0:2] [0:3] [0:2] [0:2] [0:2] [0:2] [0:2] [0:12] [0:11] [0:10] [0:12] [0:12] [0:12] [0:10] [0:13] [0:11] [0:16] [0:9] [0:11] [0:11] [0:13] [0:13] [0:10] [0:11] [0:12] [0:11] [0:10] [0:13] [0:12] [0:10] [0:12] [0:10] [0:10] [0:12] [0:10] [0:9] [0:9] [0:10] [0:13] [0:12] [0:14] [0:14] [0:12] [0:13] [0:11] [0:15] [0:10] [0:12] [0:11] [0:12] [0:10] [0:11] [0:13] [0:10] [0:11] [0:10] [0:11] [0:14] [0:12] [0:11] [0:13] [0:13] [0:12] [0:12] [0:11] [0:15] [0:11] [0:9] [0:10] [0:12] [0:10] [0:11] [0:11] [0:10] [0:10] [0:10] [0:10] [0:13] [0:12] [0:15] [0:12] [0:13] [0:12] [0:10] [0:10] [0:10] [0:14] [0:9] [0:10] [0:11] [0:13] [0:12] [0:9] [0:10] [0:10] [0:11] [0:10] [0:10] [0:10] [0:11] [0:11] [0:11] [0:13] [0:14] [0:10] [0:12] [0:11] [0:11] [0:11] [0:11] [0:12] [0:11] [0:12] [0:12] [0:11] [0:9] [0:9] [0:10] [0:14] [0:11] [0:11] [0:11] [0:12] [0:9] [0:11] [0:11] [0:10] [0:11] [0:14] [0:12] [0:13] [0:11] [0:10] [0:11] [0:9] [0:13] [0:10] [0:12] [0:11] [0:10] [0:10] [0:9] [0:10] [0:13] [0:14] [0:10] [0:12] [0:14] [0:9] [0:12] [0:11] [0:9] [0:11] [0:13] [0:12] [0:11] [0:11] [0:10] [0:11] [0:8] [0:10] [0:11] [0:10] [0:11] [0:9] [0:12] [0:11] [0:9] [0:12] [0:10] [0:15] [0:10] [0:11] [0:11] [0:9] [0:11] [0:12] [0:13] [0:10] [0:10] [0:10] [0:11] [0:10] [0:10] [0:10] [0:10] [0:9] [0:9] [0:13] [0:11] [0:14] [0:11] [0:11] [0:11] [0:10] [0:10] [0:12] [0:10] [0:9] [0:10] [0:12] [0:11] [0:10] [0:10] [0:12] [0:10] [0:10] [0:10] [0:12] [0:12] [0:11] [0:12] [0:12] [0:11] [0:9] [0:11] [0:12] [0:9] [0:10] [0:11] [0:11] [0:9] [0:10] [0:12] [0:12] [0:10] [0:10] [0:11] [0:10] [0:11] [0:10] [0:9] [0:14] [0:11] [0:10] [0:10] [0:14] [0:9] [0:13] [0:10] [0:11] [0:12] [0:11] [0:12] [0:10] [0:9] [0:11] [0:14] [0:10] [0:10] [0:11] [0:11] [0:9] [0:10] [0:11] [0:10] [0:11] [0:12] [0:10] [0:11] [0:9] [0:13] [0:12] [0:13] [0:12] [0:10] [0:11] [0:13] [0:12] [0:10] [0:11] [0:11] [0:13] [0:11] [0:11] [0:11] [0:10] [0:9] [0:10] [0:11] [0:12] [0:10] [0:11] [0:12] [0:14] [0:13] [0:9] [0:11] [0:13] [0:14] [0:10] [0:11] [0:11] [0:11] [0:11] [0:9] [0:13] [0:11] [0:10] [0:12] [0:12] [0:12] [0:9] [0:11] [0:11] [0:14] [0:10] [0:10] [0:12] [0:11] [0:11] [0:12] [0:12] [0:9] [0:15] [0:11] [0:12] [0:11] [0:11] [0:9] [0:12] [0:12] [0:10] [0:14] [0:13] [0:9] [0:9] [0:10] [0:11] [0:11] [0:10] [0:12] [0:10] [0:12] [0:10] [0:9] [0:13] [0:14] [0:10] [0:13] [0:10] [0:10] [0:11] [0:12] [0:10] [0:10] [0:9] [0:10] [0:10] [0:11] [0:11] [0:12] [0:10] [0:12] [0:11] [0:10] [0:11] [0:11] [0:9] [0:11] [0:9] [0:12] [0:11] [0:12] [0:11] [0:12] [0:13] [0:10] [0:11] [0:10] [0:11] [0:10] [0:11] [0:10] [0:13] [0:14] [0:11] [0:10] [0:10] [0:9] [0:11] [0:11] [0:12] [0:11] [0:10] [0:13] [0:10] [0:10] [0:14] [0:10] [0:11] [0:10] [0:11] [0:11] [0:11] [0:16] [0:12] [0:11] [0:10] [0:12] [0:11] [0:13] [0:12] [0:11] [0:10] [0:10] [0:13] [0:10] [0:10] [0:13] [0:11] [0:9] [0:11] [0:12] [0:12] [0:9] [0:10] [0:11] [0:10] [0:14] [0:12] [0:10] [0:11] [0:10] [0:12] [0:10] [0:10] [0:10] [0:10] [0:10] [0:11] [0:10] [0:10] [0:14] [0:10] [0:10] [0:11] [0:12] [0:10] [0:12] [0:10] [0:10] [0:13] [0:10] [0:11] [0:10] [0:10] [0:11] [0:13] [0:11] [0:13] [0:12] [0:10] [0:12] [0:10] [0:13] [0:13] [0:10] [0:11] [0:9] [0:10] [0:10] [0:12] [0:11] [0:9] [0:10] [0:12] [0:10] [0:10] [0:9] [0:11] [0:12] [0:10] [0:9] [0:10] [0:11] [0:10] [0:9] [0:11] [0:11] [0:10] [0:11] [0:10] [0:12] [0:13] [0:12] [0:11] [0:11] [0:11] [0:10] [0:13] [0:9] [0:12] [0:13] [0:11] [0:12] [0:11] [0:12] [0:10] [0:10] [0:10] [0:10] [0:9] [0:12] [0:13] [0:11] [0:11] [0:9] [0:13] [0:11] [0:11] [0:9] [0:12] [0:12] [0:11] [0:10] [0:9] [0:10] [0:10] [0:11] [0:12] [0:10] [0:11] [0:14] [0:11] [0:10] [0:10] [0:9] [0:11] [0:11] [0:13] [0:12] [0:11] [0:10] [0:10] [0:12] [0:12] [0:11] [0:13] [0:11] [0:11] [0:11] [0:10] [0:11] [0:13] [0:12] [0:11] [0:11] [0:9] [0:15] [0:12] [0:11] [0:11] [0:9] [0:11] [0:10] [0:9] [0:11] [0:12] [0:9] [0:16] [0:10] [0:10] [0:11] [0:13] [0:9] [0:10] [0:10] [0:9] [0:11] [0:12] [0:11] [0:11] [0:11] [0:11] [0:11] [0:10] [0:11] [0:12] [0:9] [0:11] [0:10] [0:12] [0:10] [0:11] [0:12] [0:10] [0:10] [0:12] [0:11] [0:11] [0:11] [0:11] [0:11] [0:9] [0:10] [0:9] [0:12] [0:12] [0:11] [0:16] [0:15] [0:14] [0:13] [0:12] [0:12] [0:10] [0:10] [0:11] [0:13] [0:11] [0:9] [0:13] [0:11] [0:14] [0:10] [0:13] [0:12] [0:15] [0:10] [0:12] [0:10] [0:10] [0:13] [0:11] [0:9] [0:13] [0:9] [0:13] [0:12] [0:12] [0:11] [0:11] [0:11] [0:10] [0:10] [0:11] [0:10] [0:11] [0:10] [0:11] [0:11] [0:10] [0:9] [0:11] [0:12] [0:13] [0:11] [0:11] [0:9] [0:11] [0:10] [0:10] [0:10] [0:11] [0:11] [0:10] [0:10] [0:10] [0:12] [0:12] [0:12] [0:11] [0:9] [0:9] [0:12] [0:13] [0:12] [0:11] [0:13] [0:9] [0:9] [0:11] [0:15] [0:12] [0:11] [0:10] [0:11] [0:10] [0:10] [0:12] [0:13] [0:11] [0:10] [0:10] [0:10] [0:10] [0:11] [0:12] [0:12] [0:10] [0:11] [0:10] [0:11] [0:10] [0:9] [0:11] [0:10] [0:11] [0:17] [0:11] [0:13] [0:10] [0:14] [0:13] [0:11] [0:11] [0:12] [0:10] [0:13] [0:13] [0:11] [0:12] [0:10] [0:11] [0:10] [0:14] [0:13] [0:11] [0:12] [0:10] [0:11] [0:11] [0:12] [0:11] [0:14] [0:11] [0:10] [0:10] [0:12] [0:10] [0:12] [0:10] [0:13] [0:11] [0:11] [0:10] [0:9] [0:12] [0:9] [0:12] [0:11] [0:11] [0:15] [0:10] [0:10] [0:10] [0:9] [0:9] [0:14] [0:12] [0:10] [0:12] [0:9] [0:9] [0:10] [0:10] [0:10] [0:11] [0:9] [0:9] [0:11] [0:10] [0:12] [0:11] [0:9] [0:10] [0:13] [0:9] [0:11] [0:10] [0:10] [0:11] [0:13] [0:12] [0:12] [0:11] [0:14] [0:12] [0:12] [0:10] [0:15] [0:9] [0:11] [0:11] [0:10] [0:13] [0:10] [0:11] [0:10] [0:9] [0:11] [0:11] [0:13] [0:11] [0:10] [0:10] [0:11] [0:10] [0:12] [0:11] [0:10] [0:12] [0:11] [0:10] [0:10] [0:10] [0:9] [0:11] [0:9] [0:10] [0:12] [0:9] [0:11] [0:11] [0:13] [0:10] [0:9] [0:11] [0:11] [0:13] [0:10] [0:12] [0:10] [0:11] [0:12] [0:11] [0:11] [0:9] [0:12] [0:11] [0:9] [0:9] [0:11] [0:12] [0:11] [0:12] [0:13] [0:10] [0:12] [0:10] [0:11] [0:11] [0:11] [0:10] [0:10] [0:10] [0:11] [0:15] [0:10] [0:12] [0:10] [0:12] [0:10] [0:12] [0:11] [0:11] [0:11] [0:17] [0:12] [0:9] [0:10] [0:12] [0:13] [0:11] [0:11] [0:10] [0:10] [0:12] [0:11] [0:13] [0:10] [0:9] [0:11] [0:12] [0:9] [0:9] [0:9] [0:10] [0:12] [0:10] [0:9] [0:13] [0:12] [0:12] [0:11] [0:12] [0:10] [0:11] [0:10] [0:13] [0:12] [0:10] [0:12] [0:11] [0:10] [0:12] [0:10] [0:11] [0:9] [0:12] [0:11] [0:10] [0:11] [0:11] [0:9] [0:9] [0:11] [0:10] [0:13] [0:10] [0:11] [0:10] [0:12] [0:10] [0:11] [0:11] [0:10] [0:14] [0:11] [0:9] [0:10] [0:11] [0:10] [0:10] [0:9] [0:10] [0:11] [0:10] [0:10] [0:12] [0:10] [0:12] [0:11] [0:11] [0:12] [0:12] [0:9] [0:14] [0:13] [0:10] [0:11] [0:10] [0:11] [0:12] [0:12] [0:13] [0:14] [0:9] [0:11] [0:12] [0:10] [0:10] [0:12] [0:12] [0:10] [0:11] [0:11] [0:11] [0:10] [0:10] [0:12] [0:10] [0:11] [0:12] [0:12] [0:14] [0:12] [0:10] [0:10] [0:10] [0:10] [0:11] [0:12] [0:12] [0:12] [0:14] [0:12] [0:10] [0:10] [0:13] [0:11] [0:9] [0:11] [0:10] [0:10] [0:9] [0:10] [0:12] [0:12] [0:14] [0:13] [0:9] [0:11] [0:10] [0:12] [0:13] [0:14] [0:9] [0:11] [0:12] [0:10] [0:12] [0:10] [0:11] [0:11] [0:11] [0:11] [0:12] [0:11] [0:9] [0:11] [0:14] [0:11] [0:11] [0:11] [0:12] [0:9] [0:10] [0:11] [0:11] [0:13] [0:11] [0:9] [0:12] [0:13] [0:9] [0:11] [0:13] [0:11] [0:10] [0:128] [-44:23] [-34:96] [-21:30] [-139:25] [-88:44] [-43:18] [-85:24] [-133:30] [-42:19] [-19:28] [-139:41] [-139:43] [-22:126] [-23:24] [-45:32] [-35:17] [-136:39] [-26:86] [-98:32] [-28:40] [-42:146] [-21:32] [-28:88] [-144:22] [-20:30] [-28:128] [-68:23] [-37:48] [-24:143] [-91:26] [-25:88] [-43:138] [-136:21] [-44:17] [-39:32] [-25:21] [-37:44] [-49:33] [-64:28] [-28:23] [-23:18] [-90:83] [-41:27] [-47:113] [-140:31] [-19:28] [-103:20] [-46:20] [-31:43] [-31:19] [-102:29] [-25:42] [-19:25] [-49:40] [-25:165] [-38:30] [-188:24] [-27:82] [-46:31] [-27:21] [-25:88] [-262:24] [-135:88] [-28:20] [-25:44] [-20:25] [-30:27] [-26:21] [-37:21] [-19:32] [-30:27] [-142:18] [-25:30] [-30:196] [-27:24] [-33:147] [-23:42] [-46:195] [-79:30] [-21:45] [-36:50] [-103:26] [-34:144] [-43:52] [-43:26] [-104:88] [-108:93] [-51:45] [-85:25] [-59:20] [-284:29] [-24:62] [-25:96] [-21:93] [-41:27] [-20:91] [-48:92] [-42:19] [-26:34] [-98:27] [-70:23] [-45:127] [-89:31] [-20:46] [-139:21] [-27:20] [-31:45] [-26:83] [-27:50] [-26:31] [-139:46] [-60:47] [-44:21] [-24:24] [-138:22] [-22:21] [-97:46] [-29:88] [-26:25] [-44:27] [-129:26] [-20:95] [-34:140] [-23:43] [-19:103] [-41:49] [-32:32] [-28:32] [0:4294967040] [0:4294960384] [0:4294967296] [0:4294967296] [0:4278468608] [0:4278296576] [0:4278190080] [0:4278190080] [0:4082706176] [0:4294915072] [0:4278190336] [0:4278304768] [0:4278255360] [0:4278268672] [0:2767389696] [0:2210958336] none [0:4294967296] [0:4294967296] [0:4294967296] [0:4294967296] [0:4294967296] [0:4294967296] [0:4294967296] [0:4294967296] [0:4294967296] [0:4294967296] [0:4294967296] [0:4294967296] [0:4294967296] none none [0:1] [0:1] [0:96] [-110283104256:82150850560] [-183617863680:166403997696] [-1702244480:73210322944] [-149939126272:123376746496] [-168824782848:131567509504] [-125175750656:151986388992] [-112996892672:119104602112] [-149369487360:168474411008] [-2860563968:149182709760] [-179285262336:157455679488] [-22012469248:130101551104] [-145499291648:135723130880] [-125791846400:5400305664] [-175819325440:183017848832] [-127007883264:1014191680] [-4220081152:63000887296] [-53364596736:4179072768] [-113137205248:165986713600] [-123376828416:153510215680] [-155229765632:160836042752] [-9803940864:3121905664] [-168191606784:162286387200] [-184274190336:145787043840] [-135803551744:127528812544] [-118286630912:118759464960] [-191055593472:169723510784] [-163814326272:20178905088] [-112569696256:196190683136] [-3683025152:3874013440] [-70802423808:167443775488] [-109288153088:5871660544] [-22308382720:128334708736] [0:75] [0:1] [0:1] [0:1] [0:1] [0:24] [0:1698525952] [-2768480768:1698465920] [0:1] [0:1] [0:1] [0:1] [0:1] none [0:1] [0:1] [0:1] [0:1] [0:1] none none [0:1] [0:1] none none [0:1] none [0:1] none none none none none none none none none none none [0:1] none [0:1] none none [0:1] [0:1] none none [0:1] none none none none none none [0:1] [0:1] [0:1] [0:1] [0:1] [0:1] [0:1] none [0:1] none [0:1] [0:1] none [0:1] none [0:1] none [0:1] none [0:1] [0:1] [0:1] [0:1] none [0:1] [0:1] [0:1] none [0:1] [0:1] none none [0:1] [0:1] [0:1] none none [0:1] none [0:1] [0:19] [0:11.02336311340332] [-4.6436843872070312:5.2573347091674805] [-2.8932428359985352:6.7413287162780762] [-2.8998003005981445:4.1226072311401367] [-3.5614025592803955:4.8164000511169434] [-4.4280529022216797:2.9077672958374023] [-4.476898193359375:2.8455941677093506] [-2.8538708686828613:3.1960713863372803] [-3.6027271747589111:3.6532297134399414] [-3.3092710971832275:3.2915966510772705] [-2.9228076934814453:2.8457927703857422] [-4.6429409980773926:3.0779349803924561] [-2.6657006740570068:2.8674411773681641] [-3.6617729663848877:2.7915425300598145] [-2.225477933883667:2.7640237808227539] [-2.5701994895935059:2.7670035362243652] [-2.710914134979248:2.8109548091888428] [-2.6343481540679932:2.4447388648986816] [-3.2229406833648682:2.4472835063934326] [-2.6676452159881592:2.4763927459716797] [-2.656461238861084:2.107184886932373] [-2.555866003036499:2.5104331970214844] [-2.3852241039276123:2.6492063999176025] [-2.2911841869354248:2.0506410598754883] [-2.1696231365203857:2.5223655700683594] [-2.4951338768005371:2.6202957630157471] [-2.579533576965332:2.5276010036468506] [-2.4118854999542236:2.3781177997589111] [-2.9033844470977783:2.3953437805175781] [-2.8118393421173096:2.3843214511871338] [-2.4540326595306396:2.9888846874237061] [-2.4230914115905762:2.312685489654541] [-2.2134897708892822:1.965766429901123] [-2.2971022129058838:2.4103307723999023] [-2.2810513973236084:2.1468653678894043] [-3.1005265712738037:2.0721468925476074] [-1.9149864912033081:2.2997128963470459] [-2.0660922527313232:2.4964239597320557] [-2.3111324310302734:2.0464768409729004] [-2.3301010131835938:2.1373953819274902] [-2.007399320602417:2.3644800186157227] [-1.9395846128463745:1.8985569477081299] [-1.8922626972198486:2.0147035121917725] [-1.9626888036727905:1.8409210443496704] [-2.1885945796966553:2.270282506942749] [-2.0723202228546143:2.1540319919586182] [-1.9786092042922974:1.9399968385696411] [-2.0159270763397217:2.0062785148620605] [-2.0703518390655518:2.2239811420440674] [-1.8957010507583618:1.7698217630386353] [-1.9854667186737061:2.3110034465789795] [-2.1706147193908691:2.2296164035797119] [-1.7622483968734741:1.9279967546463013] [-1.9718819856643677:2.4813313484191895] [-1.7599208354949951:2.0604031085968018] [-1.5293190479278564:1.6682729721069336] [-1.9664691686630249:2.1016631126403809] [-2.3017044067382812:1.8488985300064087] [-1.8657162189483643:1.7229645252227783] [-1.7995997667312622:1.9708124399185181] [-2.2327933311462402:2.0079300403594971] [-1.6989898681640625:1.7557609081268311] [-1.8059751987457275:2.0975625514984131] [-2.0089795589447021:1.5633242130279541]
tree_sizes=6261 7181 7193 7164 7168 7188 7198 7185 7200 7185 7176 7194 7193 7221 7226 7204 7235 7237 7197 7253 7233 7252 7247 7196 7200 7223 7221 7205 7193 7238 7246 7280 7269 7278 7251 7245 7251 7255 7283 7222 7250 7246 7302 7230 7247 7294 7253 7263 7266 7253 7272 7263 7263 7280 7297 7307 7275 7267 7303 7268 7305 7252 7267 7300 7266 7309 7287 7284 7312 7264 7294 7303 7291 7274 7287 7320 7296 7327 7264 7325 7305 7316 7244 7310 7249 7324 7304 7255 7237 7283 7257 7304 7302 7304 7318 7288 7281 7318 7255 7278 7289 7285 7297 7265 7345 7299 7297 7215 7311 7302 7338 7321 7337 7252 7311 7337 7294 7292 7230 7291 7292 7304 7307 7323 7296 7324 7299 7327 7290 7298 7275 7323 7276 7326 7316 7336 7284 7288 7327 7259 7324 7237 7289 7333 7294 7320 7280 7305 7243 7267 7313 7272 7259 7357 7318 7280 7288 7251 7301 7304 7301 7257 7276 7272 7265 7278 7291 7290 7258 7302 7237 7237 7322 7264 7258 7279 7285 7294 7308 7256 7323 7257 7232 7296 7305 7316 7283 7238 7257 7277 7287 7294 7287 7317 7297 7316 7265 7273 7290 7279 7290 7303 7250 7287 7283 7314 7311 7266 7271 7302 7263 7258 7282 7286 7255 7316 7288 7283 7277 7303 7327 7287 7279 7304 7253 7277 7286 7315 7310 7311 7298 7295 7321 7284 7301 7239 7266 7277 7236 7272 7274 7266 7271 7290 7223 7272 7283 7261 7245 7265 7262 7281 7265 7321 7305 7271 7327 7289 7345 7293 7290 7292 7324 7303 7227 7274 7246 7272 7270 7279 7295 7279 7314 7326 7295 7266 7315 7282 7313 7318 7272 7254 7284 7233 7290 7292 7254 7285 7291 7266 7287 7269 7320 7235 7278 7318 7273 7343 7297 7316 7292 7303 7324 7252 7221 7281 7327 7243 7315 7312 7297 7296 7295 7250 7304 7274 7273 7290 7280 7270 7284 7221 7243 7307 7270 7251 7281 7332 7276 7244 7296 7269 7262 7265 7296 7317 7209 7307 7292 7323 7263 7316 7305 7295 7290 7261 7260 7299 7231 7348 7335 7284 7286 7354 7305 7327 7319 7200 7258 7268 7243 7287 7275 7264 7335 7306 7289 7283 7265 7316 7256 7257 7326 7289 7344 7303 7285 7240 7303 7235 7321 7274 7285 7339 7319 7341 7274 7264 7278 7322 7274 7290 7338 7318 7284 7303 7329 7278 7256 7301 7272 7308 7287 7303 7299 7285 7330 7278 7262 7284 7300 7298 7299 7321 7296 7331 7248 7291 7307 7310 7307 7298 7307 7279 7268 7296 7265 7321 7307 7269 7362 7294 7284 7332 7299 7294 7273 7317 7282 7298 7288 7313 7278 7325 7277 7277 7275 7271 7297 7300 7266 7284 7277 7299 7297 7275 7336 7335 7285 7351 7321 7317 7298 7282 7290 7315 7311 7296 7327 7293 7285 7216 7279 7277 7319 7327 7287 7346 7298 7329 7279 7323 7286 7277 7294 7291 7306 7272 7335 7355 7304 7265 7291 7301 7294 7334 7292 7298 7292 7306

Tree=0
num_leaves=64
num_cat=1
split_feature=739 2478 1452 2547 1748 2547 709 2547 1908 2479 1995 2414 701 2276 723 696 1818 666 520 54 1906 664 639 706 2479 771 591 520 994 39 1 1415 466 696 517 1350 724 913 994 1774 181 655 645 863 36 1579 994 1898 2497 649 913 1 2412 2461 507 1687 1766 1931 654 708 2414 689 1671
split_gain=198912 70696.5 10080.3 4775.05 6685.26 3411.97 2985.43 2887.49 2383.05 2095.95 1862.98 1783.39 1504.76 1377.03 1341.05 1303.4 955.069 813.014 776.633 775.23 689.972 679.197 652.607 605.114 603.477 597.128 552.322 534.597 518.842 654.913 498.405 493.355 485.589 511.694 484.243 450.633 432.936 437.125 424.13 416.618 401.766 374.875 349 342.203 340.986 328.991 328.758 315.583 301.338 296.069 293.554 277.469 326.123 336.945 272.82 265.199 264.992 262.369 259.561 251.166 244.805 243.988 237.589
threshold=1.0000000180025095e-35 1332795968.0000002 1.0000000180025095e-35 1.0000000180025095e-35 1.0000000180025095e-35 1.0000000180025095e-35 9.0000000000000018 1.0000000180025095e-35 1.0000000180025095e-35 -358545.48437499994 1.0000000180025095e-35 32780.000000000007 0 1.0000000180025095e-35 768.00000000000011 1698442880.0000002 1.0000000180025095e-35 19.500000000000004 11.592704296112062 0.00069173364317975949 1.0000000180025095e-35 9.5000000000000018 8.5000000000000018 31.500000000000004 1.0000000180025095e-35 1.5000000000000002 0.031633106991648681 13.249475955963137 34.500000000000007 0.0055479097645729789 6.6407845020294198 1.0000000180025095e-35 1.9604186491051227e-05 1688012224.0000002 0.0026044151745736603 1.5000000000000002 15335.500000000002 -4.8602378368377677 3.5000000000000004 1.0000000180025095e-35 0.0018115994753316047 46.500000000000007 397.50000000000006 -108595.99999999999 0.00098835158860310934 1.0000000180025095e-35 164.50000000000003 1.0000000180025095e-35 1.0000000180025095e-35 1.5000000000000002 -7.5196321010589591 6.9200577735900888 270070.00000000006 228.50000000000003 0.012492724694311621 1.0000000180025095e-35 1.0000000180025095e-35 1.0000000180025095e-35 3.5000000000000004 1.5000000000000002 14841660.000000002 1460.5000000000002 1.0000000180025095e-35
decision_type=2 2 2 2 2 2 2 2 2 2 2 2 9 2 2 2 2 2 2 2 2 2 2 2 2 2 2 2 2 2 2 2 2 2 2 2 2 2 2 2 2 2 2 2 2 2 2 2 2 2 2 2 2 2 2 2 2 2 2 2 2 2 2
left_child=1 2 3 4 6 18 8 16 10 15 11 12 13 19 -5 -3 22 27 25 28 39 54 44 57 26 36 -7 32 59 -30 -8 -12 33 43 -10 42 37 -2 -23 -13 -17 -34 45 -6 -4 56 -18 55 -20 -31 -38 -40 61 -54 -11 -47 62 -15 -28 -1 -46 -53 -21
right_child=5 9 7 14 17 24 30 -9 34 21 31 20 -14 23 -16 40 46 -19 48 35 -22 38 -24 -25 -26 -27 58 -29 29 49 -32 -33 41 -35 -36 -37 50 -39 51 -41 -42 -43 -44 -45 60 47 -48 -49 -50 -51 -52 52 53 -55 -56 -57 -58 -59 -60 -61 -62 -63 -64
leaf_value=0.183634329550903 0.042622950819672129 0.19698113207547172 -0.045858343337334934 -0.11521739130434783 0.068213457076566134 0.15186846038863977 -0.17153558052434459 0.18552691090004525 -0.12184531886024424 -0.092731829573934832 0.048464163822525601 0.12719259585720583 -0.1798449612403101 -0.063607393244104526 0.19791872811162378 -0.15643192488262914 0.052380952380952389 -0.16016949152542373 -0.19197745831979876 0.18794614946441224 -0.072538860103626951 -0.03465553235908142 -0.0951985773562537 0.16199261992619929 -0.16768402154398565 0.098254364089775559 -0.087794432548179868 -0.090228690228690234 0.14813908789096628 0.021751574127074985 0.14655172413793102 -0.15483870967741936 0.079685746352413031 0.19590443686006828 0.10775510204081634 -0.13224043715846995 0.082485875706214684 -0.12586951002792587 -0.18417203467816148 -0.10867052023121387 0.1029126213592233 -0.14011976047904193 -0.10532544378698226 -0.13518776077885952 0.12583065380493033 0.099481865284974103 -0.1315504156125768 0.16833333333333333 0.035593220338983052 0.18506876227897839 -0.17883733333333335 -0.16091888285196837 0.055183413078149925 -0.16487025948103795 0.14360313315926895 -0.15167785234899331 0.054071661237785021 0.095559502664298412 0.10528967254408061 -0.11652173913043479 -0.14285714285714288 0.040000000000000008 0.064364207221350084
leaf_weight=1563.25 182 264 207.25 137 106.75 333.5 332.75 551.75 367.5 98.75 292 566.25 118 391.25 22485.25 265.25 104 353 33093.25 17993.25 385 238.5 420.75 270 138.25 99.25 232.5 480 1429.75 872.5 57 200.5 1112.75 72.25 121.5 44.75 43.25 983.75 5160.75 85.5 76.25 82.5 41.25 358.5 465.5 95.5 1382.5 239 58 126.25 2342.75 2621.75 155.75 124.25 94.75 73.5 152.5 139.75 98.25 27.75 35.75 61.5 158.25
leaf_count=6253 728 1056 829 548 427 1334 1331 2207 1470 395 1168 2265 472 1565 89941 1061 416 1412 132373 71973 1540 954 1683 1080 553 397 930 1920 5719 3490 228 802 4451 289 486 179 173 3935 20643 342 305 330 165 1434 1862 382 5530 956 232 505 9371 10487 623 497 379 294 610 559 393 111 143 246 633
internal_value=4.78931e-05 0.107764 0.15097 0.161653 0.134569 -0.182303 0.149685 -0.0221556 0.153843 -0.14925 0.158075 0.161904 0.167511 0.169259 0.196017 0.0305029 -0.066017 -0.0194604 -0.186751 0.173855 0.0334859 -0.161973 0.00331785 0.040399 0.0216553 -0.142881 0.0612552 0.00304912 0.133914 0.104754 -0.12476 -0.0344478 0.0289257 -0.0499536 -0.0646939 0.182387 -0.149645 -0.09955 -0.166258 0.0961318 -0.0983942 0.0644096 0.183145 -0.0884718 0.0618746 0.183787 -0.118655 0.094621 -0.191578 0.0425606 -0.174068 -0.170117 -0.145585 -0.0427046 0.0231362 -0.01 0.185769 -0.0216165 -0.0302939 0.178329 0.106421 -0.156301 0.186872
internal_weight=101266 63661.5 54500 51332.5 28710.2 37604.8 26144.5 3167.5 25754.8 9161.5 25265.8 24773.2 23736.5 23618.5 22622.2 605.5 2615.75 2565.75 36802.2 22817.5 1036.75 8556 1129.25 801 802.5 3651 664.25 2212.75 4019.5 2428.5 389.75 492.5 1732.75 537.5 489 18798 3551.75 1165.75 8362.5 651.75 341.5 1195.25 18753.2 465.25 708.5 18712 1486.5 408 33151.2 998.75 2386 8124 2963.25 280 193.5 169 18304 531 330.75 1591 501.25 2683.25 18151.5
internal_count=405065 254646 218000 205330 114841 150419 104578 12670 103019 36646 101063 99093 94946 94474 90489 2422 10463 10263 147209 91270 4147 34224 4517 3204 3210 14604 2657 8851 16078 9714 1559 1970 6931 2150 1956 75192 14207 4663 33450 2607 1366 4781 75013 1861 2834 74848 5946 1632 132605 3995 9544 32496 11853 1120 774 676 73216 2124 1323 6364 2005 10733 72606
cat_boundaries=0 2
cat_threshold=3 1
is_linear=0
shrinkage=0.1


Tree=1
num_leaves=64
num_cat=1
split_feature=739 2413 1910 994 2547 1995 702 2547 2547 696 1906 2409 2405 724 520 519 835 2478 2412 262 1668 2547 519 2516 518 1780 722 612 993 604 724 533 993 1933 571 995 335 2183 2085 2413 520 1714 98 749 637 1929 992 521 2478 822 645 2145 1585 82 1727 2567 724 2413 913 874 1682 211 506
split_gain=162765 58857.4 6745.04 3058.35 2731.75 2719.33 2328.04 2212.41 1969.45 1960.29 2089.41 1551.85 1423.73 1301.45 1296.01 1175.85 1092.43 1076.1 1508.32 939.587 858.816 818.412 698.592 648.914 600.413 591.831 556.532 546.628 496.905 491.224 490.834 538.759 486.233 464.384 453.205 446.392 436.727 432.384 422.287 416.784 412.881 396.176 432.269 378.556 353.668 351.633 350.321 344.548 336.372 335.582 325.358 317.801 315.954 314.605 291.411 287.633 265.681 253.808 250.676 244.151 242.456 236.202 224.044
threshold=1.0000000180025095e-35 5844.0000000000009 1.0000000180025095e-35 3.5000000000000004 1.0000000180025095e-35 1.0000000180025095e-35 0 1.0000000180025095e-35 1.0000000180025095e-35 1279056704.0000002 1.0000000180025095e-35 570.00000000000011 80.500000000000014 22251.500000000004 11.422851562500002 10553.500000000002 -997375.99999999988 1682468736.0000002 250764.00000000003 0.052620641887187965 1.0000000180025095e-35 1.0000000180025095e-35 110407.50000000001 1.0000000180025095e-35 0.00039155350532382732 1.0000000180025095e-35 65600.000000000015 0.0039673889987170705 7.035837173461915 0.023515705950558189 10507.000000000002 0.0033674885053187613 7.8984720706939706 1.0000000180025095e-35 0.0012542694457806649 12.500000000000002 7.9630626714788391e-05 1.0000000180025095e-35 1.0000000180025095e-35 7428.0000000000009 12.160967826843263 1.0000000180025095e-35 0.0022935123415663843 1.0000000180025095e-35 4.5000000000000009 1.0000000180025095e-35 0.049962803721427924 4740.5000000000009 1499334336.0000002 -10325503.999999998 11.500000000000002 1.0000000180025095e-35 1.0000000180025095e-35 0.0014622134040109815 1.0000000180025095e-35 3.5000000000000004 10507.000000000002 3312.0000000000005 -6.7371249198913565 808.50000000000011 1.0000000180025095e-35 0.0015801695408299567 0.0021088916109874849
decision_type=2 2 2 2 2 2 9 2 2 2 2 2 2 2 2 2 2 2 2 2 2 2 2 2 2 2 2 2 2 2 2 2 2 2 2 2 2 2 2 2 2 2 2 2 2 2 2 2 2 2 2 2 2 2 2 2 2 2 2 2 2 2 2
left_child=1 2 5 34 23 6 8 11 9 10 35 51 20 -5 16 24 -13 18 28 40 25 47 36 30 46 33 -9 -20 -15 48 31 55 -26 43 -3 49 -18 -17 53 -19 -14 -34 -43 45 62 54 -12 -7 -6 -1 -46 -4 60 -16 57 -2 -27 -11 -31 61 -51 -8 -33
right_child=4 3 7 13 29 21 59 26 -10 12 15 14 19 17 38 37 22 39 27 -21 -22 -23 -24 -25 32 56 -28 -29 -30 58 -32 44 41 -35 -36 -37 -38 -39 -40 -41 -42 42 -44 -45 50 -47 -48 -49 -50 52 -52 -53 -54 -55 -56 -57 -58 -59 -60 -61 -62 -63 -64
leaf_value=-0.13361596129511658 -0.15933615224139186 -0.046249082225600625 0.14789395214480558 0.10054868973580476 0.12945668987294856 0.13807296803712546 -0.13196405510263504 -0.12042360142676528 0.18075253274166542 0.17297140135353659 -0.038400398008264197 -0.15547094952312232 0.1553571123096737 0.0083971800429085055 -0.09610140266036761 -0.11803951059242906 0.13241441759075362 0.02277337283062586 -0.069569005682372467 -0.17107379220449104 -0.094995042786091166 0.17683531277889364 -0.11990010768543942 0.10360436842105281 0.14843892084259405 0.15224315789379159 0.17866536640763012 0.15539261480260133 -0.13657253667789834 0.18451794250746978 -0.1774092560293703 -0.15434820501536722 -0.10031368210846983 -0.038007892989408119 0.11706505862421368 -0.051656188560036509 -0.0050913577453939249 0.051254741959203778 -0.17007946377206776 -0.16238897364725802 -0.02396187200389982 -0.090805149184891742 0.1397579236595064 -0.17830181428340836 0.18962712809103766 0.041808629750176476 0.1076903495289545 -0.094296198963485067 -0.14296789566867396 0.16090683150204338 -0.14047548325799306 -0.13583156323030759 -0.02204193000786657 0.0071814469597642691 -0.10584706175379806 0.04199164064229529 -0.031174012143591657 0.050277317323093373 -0.087816651180955108 -0.16241353454516244 -0.068125277257121683 0.17024441929389839 -0.02946611085891461
leaf_weight=40.560453563928604 8862.7828231155872 240.16616262495518 687.65807569026947 233.52588213980198 352.87823235988617 70.176693752408028 49.622907444834709 65.6076270788908 21210.415359169245 16083.552906468511 615.50104290246964 252.92693473398685 336.43020458519459 268.88541375100613 821.19616457819939 564.75805371999741 894.63567990064621 123.5590472817421 164.85504949092865 189.13132804632187 127.72423000633717 164.40868411958218 168.54106293618679 86.017241224646568 981.97454439103603 121.85838252305984 1012.8566311299801 309.68095088005066 1951.6287782639265 36.394729778170586 26711.502541169524 335.10621093213558 159.91627687215805 109.05432087182999 576.23424583673477 112.6880497187376 311.1460112631321 205.06554184854031 467.77282552421093 6748.7155366539955 206.89277438819408 107.03783801198006 329.89557099342346 30.614439278841019 88.297800689935684 214.07203434407711 222.70329876244068 624.31712280213833 51.140296787023544 3559.7246531993151 43.987381726503372 41.121306896209717 100.00324010848999 459.68034666776657 37.30470772087574 71.159287199378014 220.36387392878532 171.3856199234724 356.23448967933655 236.34077706933022 46.317092746496201 51.899454906582832 251.89389729499817
leaf_count=163 35762 964 2769 941 1419 281 200 264 85674 64867 2471 1016 1353 1082 3297 2270 3595 497 664 758 513 664 677 345 3956 490 4090 1248 7853 146 107819 1350 642 438 2316 453 1249 823 1880 27199 830 429 1325 123 355 859 895 2506 206 14351 177 165 402 1846 150 286 886 688 1430 951 186 209 1012
internal_value=7.68349e-06 0.0978545 0.141292 -0.116866 -0.165756 0.153159 0.156419 0.0329875 0.158317 0.139258 0.0945731 -0.000513422 0.156893 -0.132356 -0.0290903 0.0346319 0.0351295 -0.138051 -0.0844458 0.0203342 0.162735 -0.0231275 0.0702947 -0.16976 0.0689079 0.164678 0.160376 0.0772584 -0.119022 0.0174092 -0.170409 -0.151023 0.105204 0.167355 0.069024 0.144048 0.0969569 -0.0729349 -0.0888375 -0.159057 0.0871554 0.0339429 0.0831973 0.168711 -0.0676337 0.169366 0.000496662 -0.0706512 0.0947056 0.149947 0.0796312 0.131721 0.153086 -0.0590586 0.171039 -0.157728 0.0343904 0.171681 -0.062168 -0.103828 0.157947 0.0226822 -0.1009
internal_weight=100350 63102.1 52484.9 10617.3 37247.4 47301.7 46442.8 5183.14 46104.9 24894.5 7046.15 4104.68 17848.4 9800.85 3375.9 3186.85 1627.25 9567.32 2695.05 732.454 17115.9 858.903 1374.32 36450.7 2417.03 16988.2 1078.46 474.536 2220.51 796.648 36364.7 9653.23 1578.82 16646 816.4 3859.29 1205.78 769.824 1748.65 6872.27 543.323 596.85 436.933 16536.9 719.285 16506.3 838.204 694.494 404.019 3746.61 132.285 728.779 3706.04 1280.88 16292.2 8933.94 342.222 16254.9 392.629 337.863 3606.04 101.522 587
internal_count=404725 254418 211654 42764 150307 190806 187355 20848 185995 100321 28366 16494 71955 39484 13560 12811 6537 38543 10847 2941 69014 3451 5521 147106 9718 68501 4354 1912 8935 3201 146761 38942 6352 67125 3280 15555 4844 3093 7023 27696 2183 2396 1754 66687 2894 66564 3366 2787 1625 15102 532 2934 14939 5143 65705 36048 1376 65555 1576 1360 14537 409 2362
cat_boundaries=0 1
cat_threshold=13
is_linear=0
shrinkage=0.1


Tree=2
num_leaves=64
num_cat=2
split_feature=739 2413 1910 2479 471 2547 2547 2081 702 1643 1444 2417 2409 1995 518 211 835 701 2547 1748 2497 2276 1779 2547 664 1929 1908 991 520 1579 520 1242 722 521 2409 709 604 664 504 2405 696 991 1682 117 2547 2478 913 2477 713 335 1722 2478 587 1748 7 786 596 354 697 82 913 2477 2225
split_gain=135308 48717 5806.21 3153.58 2369.49 2351.9 1863.19 1421.45 1387.65 1310.52 1262.5 1033.75 957.645 887.959 808.058 789.605 834.379 787.458 700.124 1533.18 630.58 627.638 611.409 563.916 559.14 553.233 541.305 516.749 513.198 505.466 493.882 471.414 465.144 459.809 451.989 442.107 440.019 405.803 606.453 394.298 371.344 310.176 305.187 301.223 301.008 299.128 299.421 292.461 291.324 288.895 286.715 285.814 274.477 253.111 244.215 241.62 241.573 230.534 229.165 228.668 225.357 223.734 223.608
threshold=1.0000000180025095e-35 5844.0000000000009 1.0000000180025095e-35 1.0000000180025095e-35 0.047679986804723747 1.0000000180025095e-35 1.0000000180025095e-35 1.0000000180025095e-35 0 1.0000000180025095e-35 1.5000000000000002 37.500000000000007 570.00000000000011 1.0000000180025095e-35 0.00024663553631398832 0.013794545084238054 -821247.99999999988 1 1.0000000180025095e-35 1.0000000180025095e-35 1.0000000180025095e-35 1.0000000180025095e-35 1.0000000180025095e-35 1.0000000180025095e-35 9.5000000000000018 1.0000000180025095e-35 1.0000000180025095e-35 589336.00000000012 11.509588718414308 1.0000000180025095e-35 11.592704296112062 1.0000000180025095e-35 65600.000000000015 802815.00000000012 690.00000000000011 9.0000000000000018 0.02324134856462479 8.5000000000000018 0.00068851991090923559 92.500000000000014 1125440576.0000002 6146.0000000000009 1.0000000180025095e-35 0.0038490013685077433 1.0000000180025095e-35 1528191040.0000002 -7.0289235115051261 1.5000000000000002 86528.000000000015 7.9630626714788391e-05 2.5000000000000004 1499334336.0000002 0.027993957512080673 1.5000000000000002 0.082855943590402617 -42293.999999999993 0.0033009989419952039 2.3924009838083297e-05 6.5000000000000009 0.0013059512129984798 -5.6508376598358145 1.5000000000000002 1.0000000180025095e-35
decision_type=2 2 2 2 2 2 2 2 9 2 2 2 2 2 2 2 2 9 2 2 2 2 2 2 2 2 2 2 2 2 2 2 2 2 2 2 2 2 2 2 2 2 2 2 2 2 2 2 2 2 2 2 2 2 2 2 2 2 2 2 2 2 2
left_child=1 2 4 7 10 20 9 11 13 12 17 -3 -4 21 41 16 -14 18 19 22 30 25 26 -9 -5 31 29 -12 33 35 34 61 -8 49 37 42 51 38 -2 40 48 -10 47 -31 -15 -26 -47 -1 -21 -18 -36 -7 -23 -42 -11 -37 -13 -51 -24 -30 -38 -6 -61
right_child=5 3 6 24 8 36 32 23 14 54 27 56 15 44 -16 -17 28 -19 -20 39 -22 52 58 -25 45 -27 -28 -29 59 43 -32 -33 -34 -35 50 55 60 -39 -40 -41 53 -43 -44 -45 -46 46 -48 -49 -50 57 -52 -53 -54 -55 -56 -57 -58 -59 -60 62 -62 -63 -64
leaf_value=0.15695411404430054 -0.091543807753542109 0.13613351197927745 0.12790122372505502 0.032671418257988867 0.14826831610270499 0.12310867029589541 -0.10796544557427781 -0.11388460674221418 -0.075151036677130773 0.059816987058127873 0.087135038373232013 -0.10856253683428818 -0.14178574107778077 -0.085065851096728207 0.086744916789768714 -0.11652416685868815 0.14046442394458847 -0.15681333666828851 0.16697460208783518 -0.13475268502462742 0.085262292160234981 0.11481342778477284 -0.089964109086086763 0.17130972020030097 -0.058918820565135033 0.027392979227788578 -0.046799542468625395 -0.15508603692074197 -0.067592094595497754 0.11283175209367212 -0.16119862061386292 -0.15805087004303603 0.16509076957958624 -0.10624721996019577 -0.14392717947362246 0.17295599928025773 0.14681572874989082 -0.16506124804372099 0.12929676987732067 -0.1598077344645418 0.11095475201460402 0.086599697411629303 0.013188452975286011 -0.087113168255544549 0.16105827570566189 0.002675352920656866 -0.14666951246354723 0.0055746233088180414 0.036279407615860682 -0.077798428579622186 0.12823803081362548 -0.13377544489847712 -0.05521371567062483 -0.15529993201511311 -0.14528175915452746 -0.14304623719980114 0.047712762157539369 0.11035194897402699 0.12478842219687743 0.088035440946670485 -0.084852716486318827 -0.032530494036885425 -0.085638260730514226
leaf_weight=16556.475954785943 310.10247269272804 812.72733864188194 703.76661542057991 193.15595154464245 4640.6162775009871 349.65192137658596 65.941185608506203 893.40191680192947 804.26220574975014 63.385121360421181 170.33715829253197 285.31856693327427 268.91959846019745 285.38198241591454 767.79333551228046 498.44292934238911 766.79694198071957 76.012274652719498 19438.516696020961 153.80141459405422 106.92146022617817 145.22453907132149 147.15695759654045 74.279680594801903 439.14615671336651 459.77230282127857 139.18715515732765 180.34530271589756 411.06516963243484 165.95831295847893 32062.222521811724 50.910151496529579 983.25285011529922 108.31855261325836 2730.6741583347321 34.129065617918968 46.789045512676239 220.62291966378689 206.14427898824215 100.14625373482704 600.26344785094261 138.15967938303947 151.64200562238693 136.36010110378265 59.165229350328445 136.66778552532196 7465.4483056664467 128.69137817621231 278.40291884541512 126.7637687176466 38.535539850592613 48.580631032586098 269.7371478676796 37.102322697639465 631.40984788537025 76.959788486361504 150.41212587058544 131.85913415253162 73.781779944896698 269.80211727321148 349.14692528545856 69.137350976467133 101.1823361068964
leaf_count=68233 1268 3309 2875 780 19088 1424 266 3623 3263 256 697 1159 1097 1152 3144 2011 3112 310 80568 624 431 594 593 303 1789 1862 560 733 1656 674 132550 206 4071 439 11220 139 190 908 834 406 2429 566 613 552 245 557 30653 519 1123 509 156 199 1093 149 2568 311 610 529 299 1084 1408 279 407
internal_value=2.34404e-05 0.0900254 0.129996 -0.106814 0.141173 -0.152778 0.0290539 -0.00092285 0.0904588 -0.00150924 0.151262 0.0695633 0.0241637 0.113089 0.0105878 -0.00308328 0.0228398 0.152992 0.153613 0.139856 -0.156567 0.122805 0.14722 -0.0918387 -0.135308 0.132213 0.14932 -0.0375187 0.0460103 0.150905 -0.157296 0.142328 0.147843 0.0889675 -0.121574 0.153191 0.0174062 -0.0518761 -0.00327971 0.0289639 0.0467717 -0.0513716 0.154503 0.0226571 -0.0424579 -0.139347 -0.143985 0.155787 -0.0247535 0.109672 -0.140095 0.0915146 0.00442381 0.0952365 -0.126512 -0.0452861 -0.0546313 0.0181858 -0.0180091 -0.0162989 -0.0571748 0.145608 0.0405648
internal_weight=98386.3 61916.9 51466.3 10450.6 46335.4 36469.4 5130.91 2216.14 7690.16 4081.71 38645.3 1248.46 3386.92 5979.94 1710.22 2683.15 2184.71 38294.6 38218.6 18780.1 35675.2 5635.4 17610.3 967.682 8234.42 5220.44 17389.4 350.682 1915.79 17250.2 35568.3 4760.66 1049.19 1133.74 3506.08 16947.9 794.169 736.87 516.247 1169.72 1069.57 942.422 16836.8 302.318 344.547 8041.26 7602.12 16685.2 432.204 1025.42 2769.21 398.233 414.962 637.366 694.795 111.089 435.731 258.623 220.939 782.05 395.936 4709.75 370.984
internal_count=405275 254687 211904 42783 191024 150588 20880 9004 31492 16543 159532 5078 13719 24519 6973 10844 8833 158102 157792 77224 147367 23122 72493 3926 33779 21435 71601 1430 7736 71041 146936 19573 4337 4589 14386 69815 3221 3010 2102 4731 4325 3829 69365 1226 1397 32999 31210 68752 1747 4150 11376 1623 1687 2578 2824 450 1769 1038 892 3147 1598 19367 1491
cat_boundaries=0 1 3
cat_threshold=4 3 1
is_linear=0
shrinkage=0.1


Tree=3
num_leaves=64
num_cat=0
split_feature=2478 2276 739 518 1910 2547 696 2567 519 2409 1 2414 709 1720 739 724 577 2567 922 517 2479 2409 994 2409 721 2567 2263 924 189 2567 1929 1668 2167 2413 933 2408 718 786 2417 1861 2417 2547 2228 2328 863 1786 2477 2601 1906 927 541 1871 2247 995 2413 2405 2561 696 2429 609 1227 689 632
split_gain=75992.3 39008.4 38842.9 4745.13 4287.63 1875.04 2101.8 1642.09 1639.26 1346.26 1149.87 1139.64 1038.65 908.448 861.538 808.965 788.59 782.18 759.932 955.806 747.4 705.005 693.947 601.056 568.247 494.219 493.964 481.953 479.178 461.127 460.749 471.741 434.751 433.52 400.016 397.078 396.084 385.057 373.318 354.653 351.158 318.322 313.25 306.912 304.568 323.481 304.231 303.037 289.972 285.748 283.271 277.539 355.404 346.115 365.659 271.988 268.247 261.476 247.836 235.437 229.428 228.983 228.731
threshold=1293466176.0000002 1.0000000180025095e-35 1.0000000180025095e-35 0.0084119266830384749 1.0000000180025095e-35 1.0000000180025095e-35 1279056704.0000002 1.0000000180025095e-35 16265.500000000002 714.00000000000011 7.1589190959930429 10776872.000000002 6.5000000000000009 1.0000000180025095e-35 1.0000000180025095e-35 10507.000000000002 0.0032801635097712283 1.0000000180025095e-35 -5.3235125541687003 0.00036965541949030017 -1.0000000180025095e-35 570.00000000000011 45.500000000000007 514.00000000000011 18432.000000000004 1.5000000000000002 1.0000000180025095e-35 7.6192739009857187 0.0013388133957050743 4.5000000000000009 1.0000000180025095e-35 1.0000000180025095e-35 1.0000000180025095e-35 7532.0000000000009 3.5000000000000004 8250.0000000000018 2060576.0000000002 -42293.999999999993 14.500000000000002 1.0000000180025095e-35 83.500000000000014 1.0000000180025095e-35 1.5000000000000002 7.5000000000000009 -5633.4999999999991 1.0000000180025095e-35 1.5000000000000002 0.75154009461402904 1.0000000180025095e-35 4.8401980400085458 0.0025955627206712966 1.0000000180025095e-35 1.0000000180025095e-35 11.500000000000002 1.0000000180025095e-35 68.500000000000014 1.0000000180025095e-35 1.0000000180025095e-35 488.50000000000006 0.0069930676836520442 1.0000000180025095e-35 1460.5000000000002 1.5000000000000002
decision_type=2 2 2 2 2 2 2 2 2 2 2 2 2 2 2 2 2 2 2 2 2 2 2 2 2 2 2 2 2 2 2 2 2 2 2 2 2 2 2 2 2 2 2 2 2 2 2 2 2 2 2 2 2 2 2 2 2 2 2 2 2 2 2
left_child=1 2 4 14 5 6 8 21 18 16 15 12 13 30 23 26 -4 44 19 25 40 -6 48 -3 43 38 -2 36 -9 47 31 34 -21 -22 42 -18 51 -14 50 -20 -12 -25 46 -19 45 -5 -8 60 -10 -7 -1 52 -23 54 -54 -16 -17 -35 -52 -15 -11 62 -59
right_child=10 3 9 17 7 49 11 28 22 29 20 -13 37 59 55 56 35 24 39 32 33 27 -24 41 -26 -27 -28 -29 -30 -31 -32 -33 -34 57 -36 -37 -38 -39 -40 -41 -42 -43 -44 -45 -46 -47 -48 -49 -50 -51 58 -53 53 -55 -56 -57 -58 61 -60 -61 -62 -63 -64
leaf_value=-0.10614419342532706 0.12935022827801074 0.089290991924264013 -0.11652141144307859 0.1033981398943868 0.10945650440725402 0.15633237605361058 0.14909438839036412 0.020415797700300182 0.12260152917526788 -0.14647603964688785 0.13041970034099942 -0.086162528565175436 0.16956148879297275 -0.10042025786401641 0.045385946971998055 -0.15275905623550295 -0.14600526583817627 0.13667446895243354 0.14211827529772161 0.12734051639409846 0.017427687554085903 -0.09045518118095057 -0.083239156849676824 -0.10293263045881972 -0.077511474809323438 0.13075984577371486 -0.15442489672000936 0.11699501797103105 0.12973939236922699 0.030567344844030449 0.017009037573623147 -0.12126304712231475 0.025980042624418932 0.097625930162735949 -0.028000526882999963 0.12270995534650744 0.17681080539324207 -0.14152691499691053 -0.12507579153916806 -0.038130577823540207 -0.14748582132222698 0.099485187234089251 -0.14274618303001396 -0.18815390069603566 -0.11831110625593187 -0.060933612023639595 -0.012139250629918739 0.19683024732297477 -0.1754260209547524 0.00070830659164525603 0.086863821109124037 -0.10471721535878781 0.11186699811042869 -0.078641433690932044 -0.12385189763974294 -0.14543029749644254 0.17547852252694923 -0.12976044042965451 -0.037750721946129183 0.072946919725126763 0.098268319151524244 0.084528586684488649 -0.021204795059603432
leaf_weight=183.24552834033966 164.85031840205193 227.79791007936001 338.52509814500809 214.99140813946724 369.4123909175396 19885.362530529499 15649.993590071797 549.27630423009396 283.15308448672295 6273.708966806531 211.95325855910778 233.05810852348804 49.975360304117203 185.65626008808613 74.90968319773674 23135.098630279303 63.137932643294334 893.6960322111845 2294.485375970602 1653.3850231915712 276.73662190139294 543.84915183484554 885.52541692554951 1065.936195731163 160.07226261496544 223.80433441698551 96.361845031380653 181.40173852443695 1487.7388391345739 155.42344017326832 288.12031225860119 65.729642659425735 569.4012164324522 56.817349836230278 131.08991932868958 389.55445599555969 71.919554054737091 181.47668533027172 309.27008533477783 114.21387560665607 56.917765259742737 83.012970432639122 36.429783090949059 29.225979745388031 282.20811778306961 267.96061833202839 117.7644582092762 25.220525085926056 35.997158229351044 118.69929750263691 376.80245314538479 839.19821892678738 366.82723048329353 241.21310171484947 79.278883695602417 8900.6427393704653 24.140526607632637 2596.3105876147747 275.55653902888298 134.05253729224205 37.892475470900536 54.264698207378387 210.24041694402695
leaf_count=745 679 941 1439 890 1539 85506 66563 2275 1190 26774 884 951 207 753 316 98746 265 3750 9683 6955 1137 2213 3622 4360 658 939 411 744 6276 640 1167 265 2325 232 542 1629 295 743 1261 466 241 349 149 119 1178 1109 476 107 145 491 1559 3461 1504 989 326 37956 100 10935 1117 556 157 221 872
internal_value=-6.29076e-06 0.0559137 0.0910451 -0.106185 0.123066 0.132733 0.114043 0.0325608 0.0687344 -0.12442 -0.14248 0.133157 0.136198 0.13913 -0.132533 -0.150436 -0.00126417 0.0413961 0.090105 0.0609325 -0.0886543 -0.0186829 -0.0376936 -0.058817 0.096043 -0.00481232 0.0244752 -0.0390924 0.100285 -0.139426 0.142406 0.144663 0.101399 -0.102133 0.145768 0.0849925 -0.0523577 -0.0739159 -0.0314055 0.133559 0.0712609 -0.0882339 0.147211 0.126196 -0.0359746 0.012283 0.147889 -0.1436 0.0885439 0.155409 0.00337144 -0.0604 -0.0301317 0.0176619 0.0697934 -0.143833 -0.152409 -0.113475 0.0342494 -0.0277273 -0.144991 -0.1177 -0.121639
internal_weight=95380 68496.3 56295.8 12200.5 49012.4 44282.2 24278.2 4730.12 7204.84 7283.46 26883.7 17073.3 16840.3 16608.8 10352.3 23420.5 791.217 1848.15 6000.16 3591.47 3463.24 2693.1 1204.68 1376.75 1082.99 1368.68 261.212 2323.69 2037.02 6492.25 16289.1 16001 2222.79 3194.37 15935.3 452.692 2142.29 231.452 1144.87 2408.7 268.871 1148.95 15804.2 922.922 765.16 482.952 15767.8 6336.82 319.15 20004.1 835.605 2070.37 1231.17 687.319 446.106 8975.55 23159.2 2917.63 652.359 319.709 6311.6 2860.82 2806.55
internal_count=405093 290635 239009 51626 207998 188376 102379 19622 30007 31011 114458 72372 71421 70471 43922 99936 3333 7704 25050 14901 14522 11071 4957 5650 4527 5621 1090 9532 8551 27678 69162 67995 9280 13397 67730 1894 8788 950 4682 10149 1125 4709 67188 3869 3177 1999 67039 27038 1335 85997 3421 8493 5032 2819 1830 38272 98846 12260 2676 1309 26931 12028 11807
is_linear=0
shrinkage=0.1


Tree=4
num_leaves=64
num_cat=2
split_feature=739 2413 1910 2479 508 2417 2547 2547 1754 2081 2258 1687 703 993 2417 994 702 1444 711 520 2415 2160 705 974 664 702 2413 775 2547 722 363 44 774 956 470 1662 2574 1533 2547 991 602 2409 2409 518 2309 1929 1766 1028 913 27 1722 886 2477 773 724 2415 1319 571 35 655 860 2409 2405
split_gain=96310.9 34262.9 4327.53 2201.1 1996.72 2414.59 1795.1 1403.33 1375.55 1032.11 1021.96 969.563 880.651 802.074 728.06 712.674 902.913 607.292 586.974 545.274 533.667 516.751 506.869 471.524 440.054 416.519 415.383 689.988 411.522 394.673 390.587 372.443 342.996 342.828 424.12 340.583 319.934 319.263 312.171 303.218 298.753 276.742 275.987 289.517 274.303 274.13 270.141 266.781 269.121 261.642 261.514 244.95 243.53 242.627 226.726 218.981 218.353 213.963 213.556 210.087 205.997 208.374 450.122
threshold=1.0000000180025095e-35 5844.0000000000009 1.0000000180025095e-35 1.0000000180025095e-35 0.0023539796238765125 83.500000000000014 1.0000000180025095e-35 1.0000000180025095e-35 1.0000000180025095e-35 1.0000000180025095e-35 1.0000000180025095e-35 1.5000000000000002 5.5000000000000009 7.3572492599487314 37.500000000000007 35.500000000000007 0 1.5000000000000002 1061120.0000000002 11.762439250946047 69794.000000000015 1.0000000180025095e-35 13.500000000000002 -1.0000000180025095e-35 9.5000000000000018 1 7668.0000000000009 7.7150096893310556 1.0000000180025095e-35 65600.000000000015 7.9689212725497796e-05 0.0022978674387559299 1.5000000000000002 1.0000000180025095e-35 0.0045434110797941693 1.0000000180025095e-35 -2.9853924512863155 1.0000000180025095e-35 1.0000000180025095e-35 33470880.000000004 0.01613883022218943 570.00000000000011 690.00000000000011 0.00041400956979487097 3.5000000000000004 1.0000000180025095e-35 1.0000000180025095e-35 1.0000000180025095e-35 -7.0289235115051261 0.0042249904945492753 2.5000000000000004 -6.8950648307800284 1.5000000000000002 1.5000000000000002 437.00000000000006 113570.00000000001 1.0000000180025095e-35 1.0000000180025095e-35 0.0027862001443281774 3.5000000000000004 29164.000000000004 714.00000000000011 82.500000000000014
decision_type=2 2 2 2 2 2 2 2 2 2 2 2 2 2 2 2 9 2 2 2 2 2 2 2 2 9 2 2 2 2 2 2 2 2 2 2 2 2 2 2 2 2 2 2 2 2 2 2 2 2 2 2 2 2 2 2 2 2 2 2 2 2 2
left_child=1 2 4 9 5 8 19 10 15 14 12 17 20 -13 -3 25 18 36 45 26 21 37 32 31 -5 -1 27 42 -11 -9 39 -15 53 34 44 -19 -6 40 59 -14 -4 -7 43 -2 -8 46 57 48 -26 -34 -44 -12 55 -18 60 -38 -29 -17 -49 -10 61 62 -21
right_child=6 3 7 24 11 41 33 29 38 28 51 13 30 23 -16 16 22 35 -20 54 -22 -23 -24 -25 47 -27 -28 56 -30 -31 -32 -33 49 -35 -36 -37 52 -39 -40 -41 -42 -43 50 -45 -46 -47 -48 58 -50 -51 -52 -53 -54 -55 -56 -57 -58 -59 -60 -61 -62 -63 -64
